{"learner":{"attributes":{"scikit_learn":"{\"_estimator_type\": \"classifier\"}"},"feature_names":["Time","V1","V2","V3","V4","V5","V6","V7","V8","V9","V10","V11","V12","V13","V14","V15","V16","V17","V18","V19","V20","V21","V22","V23","V24","V25","V26","V27","V28","Amount"],"feature_types":["float","float","float","float","float","float","float","float","float","float","float","float","float","float","float","float","float","float","float","float","float","float","float","float","float","float","float","float","float","float"],"gradient_booster":{"model":{"gbtree_model_param":{"num_parallel_tree":"1","num_trees":"200"},"iteration_indptr":[0,1,2,3,4,5,6,7,8,9,10,11,12,13,14,15,16,17,18,19,20,21,22,23,24,25,26,27,28,29,30,31,32,33,34,35,36,37,38,39,40,41,42,43,44,45,46,47,48,49,50,51,52,53,54,55,56,57,58,59,60,61,62,63,64,65,66,67,68,69,70,71,72,73,74,75,76,77,78,79,80,81,82,83,84,85,86,87,88,89,90,91,92,93,94,95,96,97,98,99,100,101,102,103,104,105,106,107,108,109,110,111,112,113,114,115,116,117,118,119,120,121,122,123,124,125,126,127,128,129,130,131,132,133,134,135,136,137,138,139,140,141,142,143,144,145,146,147,148,149,150,151,152,153,154,155,156,157,158,159,160,161,162,163,164,165,166,167,168,169,170,171,172,173,174,175,176,177,178,179,180,181,182,183,184,185,186,187,188,189,190,191,192,193,194,195,196,197,198,199,200],"tree_info":[0,0,0,0,0,0,0,0,0,0,0,0,0,0,0,0,0,0,0,0,0,0,0,0,0,0,0,0,0,0,0,0,0,0,0,0,0,0,0,0,0,0,0,0,0,0,0,0,0,0,0,0,0,0,0,0,0,0,0,0,0,0,0,0,0,0,0,0,0,0,0,0,0,0,0,0,0,0,0,0,0,0,0,0,0,0,0,0,0,0,0,0,0,0,0,0,0,0,0,0,0,0,0,0,0,0,0,0,0,0,0,0,0,0,0,0,0,0,0,0,0,0,0,0,0,0,0,0,0,0,0,0,0,0,0,0,0,0,0,0,0,0,0,0,0,0,0,0,0,0,0,0,0,0,0,0,0,0,0,0,0,0,0,0,0,0,0,0,0,0,0,0,0,0,0,0,0,0,0,0,0,0,0,0,0,0,0,0,0,0,0,0,0,0,0,0,0,0,0,0],"trees":[{"base_weights":[-0E0,-1.8478361E0,1.3048396E0,-1.9675727E0,1.8446602E0,-1.9921723E-1,1.7162774E0,-1.9987176E-1,1.5789474E0,-1.20000005E-1,1.9600001E-1,-1.9754602E-1,1.8686187E0,1.8490566E-1,-1E-1,-1.9327731E-1,1.9260983E-1],"categories":[],"categories_nodes":[],"categories_segments":[],"categories_sizes":[],"default_left":[0,0,0,0,0,0,0,0,0,0,0,0,0,0,0,0,0],"id":0,"left_children":[1,3,5,7,9,-1,11,-1,13,-1,-1,-1,15,-1,-1,-1,-1],"loss_changes":[9.456451E3,7.21312E2,3.1217085E3,1.76875E2,2.0437286E1,0E0,1.1533862E3,0E0,1.177557E1,0E0,0E0,0E0,4.3280566E2,0E0,0E0,0E0,0E0],"parents":[2147483647,0,0,1,1,2,2,3,3,4,4,6,6,8,8,12,12],"right_children":[2,4,6,8,10,-1,12,-1,14,-1,-1,-1,16,-1,-1,-1,-1],"split_conditions":[8.275073E-1,3.039985E0,3.2337046E-1,3.1315687E0,1.5207487E0,-1.9921723E-1,8.475366E-2,-1.9987176E-1,3.4691E4,-1.20000005E-1,1.9600001E-1,-1.9754602E-1,-7.635226E-2,1.8490566E-1,-1E-1,-1.9327731E-1,1.9260983E-1],"split_indices":[16,27,27,3,4,0,3,0,0,0,0,0,12,0,0,0,0],"split_type":[0,0,0,0,0,0,0,0,0,0,0,0,0,0,0,0,0],"sum_hessian":[3.92E3,1.62225E3,2.29775E3,1.57175E3,5.05E1,2.545E2,2.04325E3,1.5585E3,1.325E1,1.5E0,4.9E1,8.05E1,1.96275E3,1.225E1,1E0,2.875E1,1.934E3],"tree_param":{"num_deleted":"0","num_feature":"30","num_nodes":"17","size_leaf_vector":"1"}},{"base_weights":[-1.3412262E-4,-1.6802953E0,1.1856076E0,-1.7892529E0,1.6776685E0,-1.8121806E-1,1.5594785E0,-1.8176576E-1,1.4382163E-1,-1.1305224E-1,1.785228E-1,-1.7981862E-1,1.697977E0,-1.986853E-1,1.7527941E-1],"categories":[],"categories_nodes":[],"categories_segments":[],"categories_sizes":[],"default_left":[0,0,0,0,0,0,0,0,0,0,0,0,0,0,0],"id":1,"left_children":[1,3,5,7,9,-1,11,-1,-1,-1,-1,-1,13,-1,-1],"loss_changes":[7.7389966E3,5.9103955E2,2.5552676E3,1.4536963E2,1.7430847E1,0E0,9.44916E2,0E0,0E0,0E0,0E0,0E0,3.9648975E2,0E0,0E0],"parents":[2147483647,0,0,1,1,2,2,3,3,4,4,6,6,12,12],"right_children":[2,4,6,8,10,-1,12,-1,-1,-1,-1,-1,14,-1,-1],"split_conditions":[8.275073E-1,3.039985E0,3.2337046E-1,3.1315687E0,1.5207487E0,-1.8121806E-1,8.475366E-2,-1.8176576E-1,1.4382163E-1,-1.1305224E-1,1.785228E-1,-1.7981862E-1,-2.4157211E-1,-1.986853E-1,1.7527941E-1],"split_indices":[16,27,27,3,4,0,3,0,0,0,0,0,21,0,0],"split_type":[0,0,0,0,0,0,0,0,0,0,0,0,0,0,0],"sum_hessian":[3.882576E3,1.6062085E3,2.2763674E3,1.5561815E3,5.0027016E1,2.5199149E2,2.024376E3,1.5430381E3,1.3143392E1,1.4946129E0,4.8532402E1,7.971971E1,1.9446562E3,2.7988888E1,1.9166674E3],"tree_param":{"num_deleted":"0","num_feature":"30","num_nodes":"15","size_leaf_vector":"1"}},{"base_weights":[-2.8811616E-4,-1.5542331E0,1.094219E0,-1.6551251E0,1.5503312E0,-1.6767342E-1,1.4390668E0,-1.6818643E-1,1.3078309E0,-1.0694325E-1,1.6526924E-1,-1.6642474E-1,1.56686E0,1.5867756E-1,-9.197905E-2,-1.9855113E-1,1.6177958E-1],"categories":[],"categories_nodes":[],"categories_segments":[],"categories_sizes":[],"default_left":[0,0,0,0,0,0,0,0,0,0,0,0,0,0,0,0,0],"id":2,"left_children":[1,3,5,7,9,-1,11,-1,13,-1,-1,-1,15,-1,-1,-1,-1],"loss_changes":[6.444238E3,4.9302368E2,2.1267207E3,1.2238916E2,1.5122147E1,0E0,7.868887E2,0E0,1.0239948E1,0E0,0E0,0E0,3.4698633E2,0E0,0E0,0E0,0E0],"parents":[2147483647,0,0,1,1,2,2,3,3,4,4,6,6,8,8,12,12],"right_children":[2,4,6,8,10,-1,12,-1,14,-1,-1,-1,16,-1,-1,-1,-1],"split_conditions":[8.275073E-1,3.039985E0,3.2337046E-1,3.0534387E0,1.5207487E0,-1.6767342E-1,8.475366E-2,-1.6818643E-1,3.4691E4,-1.0694325E-1,1.6526924E-1,-1.6642474E-1,-3.4397024E-1,1.5867756E-1,-9.197905E-2,-1.9855113E-1,1.6177958E-1],"split_indices":[16,27,27,15,4,0,3,0,0,0,0,0,11,0,0,0,0],"split_type":[0,0,0,0,0,0,0,0,0,0,0,0,0,0,0,0,0],"sum_hessian":[3.7869368E3,1.5648271E3,2.2221096E3,1.5160262E3,4.8800926E1,2.4550914E2,1.9766005E3,1.5028956E3,1.3130499E1,1.4798156E0,4.732111E1,7.770079E1,1.8988998E3,1.1924932E1,1.2055676E0,2.6305714E1,1.872594E3],"tree_param":{"num_deleted":"0","num_feature":"30","num_nodes":"17","size_leaf_vector":"1"}},{"base_weights":[-4.8387353E-4,-1.4563069E0,1.0217826E0,-1.5509698E0,1.4500054E0,-1.5713923E-1,1.3434516E0,-1.5759993E-1,1.2378836E-1,-1.0152151E-1,1.5489002E-1,-1.0927128E0,1.490172E0,-1.8043442E-1,1.4922784E-1,-1.5266961E-1,1.539263E-1],"categories":[],"categories_nodes":[],"categories_segments":[],"categories_sizes":[],"default_left":[0,0,0,0,0,0,0,0,0,0,0,0,0,0,0,0,0],"id":3,"left_children":[1,3,5,7,9,-1,11,-1,-1,-1,-1,13,15,-1,-1,-1,-1],"loss_changes":[5.4368423E3,4.1686206E2,1.7923328E3,1.0386157E2,1.328804E1,0E0,6.842844E2,0E0,0E0,0E0,0E0,2.0332812E2,2.6919922E2,0E0,0E0,0E0,0E0],"parents":[2147483647,0,0,1,1,2,2,3,3,4,4,6,6,11,11,12,12],"right_children":[2,4,6,8,10,-1,12,-1,-1,-1,-1,14,16,-1,-1,-1,-1],"split_conditions":[8.275073E-1,3.039985E0,3.2337046E-1,3.1315687E0,1.5207487E0,-1.5713923E-1,2.9621047E-1,-1.5759993E-1,1.2378836E-1,-1.0152151E-1,1.5489002E-1,2.9861753E0,7.2835706E-2,-1.8043442E-1,1.4922784E-1,-1.5266961E-1,1.539263E-1],"split_indices":[16,27,27,3,4,0,17,0,0,0,0,22,3,0,0,0,0],"split_type":[0,0,0,0,0,0,0,0,0,0,0,0,0,0,0,0,0],"sum_hessian":[3.651205E3,1.5060272E3,2.1451777E3,1.4589727E3,4.7054573E1,2.3630344E2,1.9088744E3,1.4464263E3,1.2546471E1,1.4574728E0,4.55971E1,1.08067085E2,1.8008073E3,8.4975784E1,2.3091297E1,2.835188E1,1.7724554E3],"tree_param":{"num_deleted":"0","num_feature":"30","num_nodes":"17","size_leaf_vector":"1"}},{"base_weights":[-5.886239E-4,-1.3781452E0,9.636273E-1,-1.4678668E0,1.3689045E0,-1.4873844E-1,1.2666143E0,-1.4921975E-1,1.1649114E0,-9.666838E-2,1.4655678E-1,-1.0180397E0,1.4058154E0,1.4159778E-1,-8.1383884E-2,-1.6785888E-1,1.4091112E-1,-9.603659E-2,1.4669673E-1],"categories":[],"categories_nodes":[],"categories_segments":[],"categories_sizes":[],"default_left":[0,0,0,0,0,0,0,0,0,0,0,0,0,0,0,0,0,0,0],"id":4,"left_children":[1,3,5,7,9,-1,11,-1,13,-1,-1,15,17,-1,-1,-1,-1,-1,-1],"loss_changes":[4.6351943E3,3.5615088E2,1.526352E3,9.089966E1,1.179348E1,0E0,5.826262E2,0E0,7.7632256E0,0E0,0E0,1.7156142E2,2.5071753E2,0E0,0E0,0E0,0E0,0E0,0E0],"parents":[2147483647,0,0,1,1,2,2,3,3,4,4,6,6,8,8,11,11,12,12],"right_children":[2,4,6,8,10,-1,12,-1,14,-1,-1,16,18,-1,-1,-1,-1,-1,-1],"split_conditions":[8.275073E-1,3.039985E0,3.2337046E-1,3.0534387E0,1.5207487E0,-1.4873844E-1,2.9621047E-1,-1.4921975E-1,3.4691E4,-9.666838E-2,1.4655678E-1,2.7010033E0,2.3793103E-1,1.4159778E-1,-8.1383884E-2,-1.6785888E-1,1.4091112E-1,-9.603659E-2,1.4669673E-1],"split_indices":[16,27,27,15,4,0,17,0,0,0,0,13,10,0,0,0,0,0,0],"split_type":[0,0,0,0,0,0,0,0,0,0,0,0,0,0,0,0,0,0,0],"sum_hessian":[3.4876687E3,1.4358575E3,2.051811E3,1.3908951E3,4.4962463E1,2.2530424E2,1.8265068E3,1.3785881E3,1.2306927E1,1.4292095E0,4.3533253E1,1.04533035E2,1.7219739E3,1.1173613E1,1.1333139E0,8.24128E1,2.2120235E1,4.301137E1,1.6789625E3],"tree_param":{"num_deleted":"0","num_feature":"30","num_nodes":"19","size_leaf_vector":"1"}},{"base_weights":[-6.676356E-4,-1.3146938E0,9.151641E-1,-1.4004356E0,1.3019531E0,-1.4190587E-1,1.2024039E0,-1.4238258E-1,1.0998697E0,-9.2290126E-2,1.3973098E-1,-8.294533E-1,1.3449455E0,1.3449545E-1,-7.8196295E-2,-1.6732012E-1,1.3911597E-1,-1.5565167E-1,1.386896E-1],"categories":[],"categories_nodes":[],"categories_segments":[],"categories_sizes":[],"default_left":[0,0,0,0,0,0,0,0,0,0,0,0,0,0,0,0,0,0,0],"id":5,"left_children":[1,3,5,7,9,-1,11,-1,13,-1,-1,15,17,-1,-1,-1,-1,-1,-1],"loss_changes":[3.9837693E3,3.068589E2,1.309648E3,7.858496E1,1.0551407E1,0E0,5.0434985E2,0E0,6.9413385E0,0E0,0E0,2.1690077E2,1.9983081E2,0E0,0E0,0E0,0E0,0E0,0E0],"parents":[2147483647,0,0,1,1,2,2,3,3,4,4,6,6,8,8,11,11,12,12],"right_children":[2,4,6,8,10,-1,12,-1,14,-1,-1,16,18,-1,-1,-1,-1,-1,-1],"split_conditions":[8.275073E-1,3.039985E0,3.2337046E-1,3.0534387E0,1.5207487E0,-1.4190587E-1,3.667284E-1,-1.4238258E-1,3.4691E4,-9.2290126E-2,1.3973098E-1,2.5031164E0,-7.635226E-2,1.3449545E-1,-7.8196295E-2,-1.6732012E-1,1.3911597E-1,-1.5565167E-1,1.386896E-1],"split_indices":[16,27,27,15,4,0,13,0,0,0,0,7,12,0,0,0,0,0,0],"split_type":[0,0,0,0,0,0,0,0,0,0,0,0,0,0,0,0,0,0,0],"sum_hessian":[3.3083545E3,1.3586056E3,1.949749E3,1.3159496E3,4.265598E1,2.1320682E2,1.7365422E3,1.3041796E3,1.17699995E1,1.3964198E0,4.125956E1,1.1352221E2,1.62302E3,1.06661625E1,1.1038369E0,8.244339E1,3.1078815E1,2.261725E1,1.6004027E3],"tree_param":{"num_deleted":"0","num_feature":"30","num_nodes":"19","size_leaf_vector":"1"}},{"base_weights":[-8.1860385E-4,-1.262296E0,8.7433946E-1,-1.3447813E0,1.2456923E0,-1.3625988E-1,1.1482636E0,-1.3674249E-1,1.0438842E0,-8.831208E-2,1.3404648E-1,-9.4707966E-1,1.2792107E0,1.2848519E-1,-7.524268E-2,-1.5372683E-1,1.2869713E-1,-1.6446237E-1,1.3239357E-1],"categories":[],"categories_nodes":[],"categories_segments":[],"categories_sizes":[],"default_left":[0,0,0,0,0,0,0,0,0,0,0,0,0,0,0,0,0,0,0],"id":6,"left_children":[1,3,5,7,9,-1,11,-1,13,-1,-1,15,17,-1,-1,-1,-1,-1,-1],"loss_changes":[3.4463845E3,2.6619385E2,1.1309215E3,6.841113E1,9.502827E0,0E0,4.5189575E2,0E0,6.2460938E0,0E0,0E0,1.3012134E2,2.0439404E2,0E0,0E0,0E0,0E0,0E0,0E0],"parents":[2147483647,0,0,1,1,2,2,3,3,4,4,6,6,8,8,11,11,12,12],"right_children":[2,4,6,8,10,-1,12,-1,14,-1,-1,16,18,-1,-1,-1,-1,-1,-1],"split_conditions":[8.275073E-1,3.039985E0,3.2337046E-1,3.0534387E0,1.5207487E0,-1.3625988E-1,2.9621047E-1,-1.3674249E-1,3.4691E4,-8.831208E-2,1.3404648E-1,2.9861753E0,-2.4157211E-1,1.2848519E-1,-7.524268E-2,-1.5372683E-1,1.2869713E-1,-1.6446237E-1,1.3239357E-1],"split_indices":[16,27,27,15,4,0,17,0,0,0,0,22,21,0,0,0,0,0,0],"split_type":[0,0,0,0,0,0,0,0,0,0,0,0,0,0,0,0,0,0,0],"sum_hessian":[3.1197478E3,1.2776561E3,1.8420917E3,1.2374224E3,4.0233833E1,2.0053058E2,1.641561E3,1.2262257E3,1.1196609E1,1.3602844E0,3.887355E1,9.618756E1,1.5453735E3,1.0123333E1,1.0732756E0,7.633371E1,1.9853848E1,2.2743965E1,1.5226295E3],"tree_param":{"num_deleted":"0","num_feature":"30","num_nodes":"19","size_leaf_vector":"1"}},{"base_weights":[-9.983834E-4,-1.2184583E0,8.3924395E-1,-1.2982495E0,1.1976773E0,-9.4788307E-1,1.1621292E0,-1.320299E-1,9.94891E-1,-8.46742E-2,1.2924498E-1,-1.4240457E0,1.0499494E0,-1.2977244E-1,1.2546297E0,1.2331774E-1,-7.249444E-2,-1.3124093E-1,-1.5861586E-1,-1.15871966E-1,1.3039882E-1,-1.3299194E-1,1.2938134E-1],"categories":[],"categories_nodes":[],"categories_segments":[],"categories_sizes":[],"default_left":[0,0,0,0,0,0,0,0,0,0,0,0,0,0,0,0,0,0,0,0,0,0,0],"id":7,"left_children":[1,3,5,7,9,11,13,-1,15,-1,-1,17,19,-1,21,-1,-1,-1,-1,-1,-1,-1,-1],"loss_changes":[2.9973752E3,2.3221912E2,1.00146497E3,5.990088E1,8.606205E0,2.5438564E2,3.3583228E2,0E0,5.650131E0,0E0,0E0,1.8110962E0,3.0542091E1,0E0,1.4512769E2,0E0,0E0,0E0,0E0,0E0,0E0,0E0,0E0],"parents":[2147483647,0,0,1,1,2,2,3,3,4,4,5,5,6,6,8,8,11,11,12,12,14,14],"right_children":[2,4,6,8,10,12,14,-1,16,-1,-1,18,20,-1,22,-1,-1,-1,-1,-1,-1,-1,-1],"split_conditions":[8.275073E-1,3.039985E0,4.9657556E-1,3.0534387E0,1.5207487E0,2.0463223E0,3.2337046E-1,-1.320299E-1,3.4691E4,-8.46742E-2,1.2924498E-1,3.2337046E-1,1.5598221E0,-1.2977244E-1,1.3922118E-1,1.2331774E-1,-7.249444E-2,-1.3124093E-1,-1.5861586E-1,-1.15871966E-1,1.3039882E-1,-1.3299194E-1,1.2938134E-1],"split_indices":[16,27,22,15,4,12,27,0,0,0,0,27,5,0,3,0,0,0,0,0,0,0,0],"split_type":[0,0,0,0,0,0,0,0,0,0,0,0,0,0,0,0,0,0,0,0,0,0,0],"sum_hessian":[2.9280967E3,1.1954755E3,1.7326212E3,1.1577057E3,3.7769764E1,2.6483865E2,1.4677826E3,1.1471001E3,1.06056385E1,1.3217936E0,3.644797E1,2.1409787E2,5.07408E1,5.272215E1,1.4150604E3,9.563558E0,1.0420814E0,1.3217406E2,8.192381E1,4.8667793E0,4.587402E1,2.0640963E1,1.3944194E3],"tree_param":{"num_deleted":"0","num_feature":"30","num_nodes":"23","size_leaf_vector":"1"}},{"base_weights":[-1.2058747E-3,-1.1813802E0,8.097719E-1,-1.2589239E0,1.1561269E0,-7.981492E-1,1.1456771E0,-1.2805025E-1,9.5137763E-1,-8.132786E-2,1.2513876E-1,-1.366611E0,9.7995484E-1,-1.2544566E-1,1.2283022E0,1.1881085E-1,-6.992765E-2,-1.272826E-1,-1.4890498E-1,-1.2351584E-1,1.2649514E-1,-1.4844848E-1,1.2564836E-1],"categories":[],"categories_nodes":[],"categories_segments":[],"categories_sizes":[],"default_left":[0,0,0,0,0,0,0,0,0,0,0,0,0,0,0,0,0,0,0,0,0,0,0],"id":8,"left_children":[1,3,5,7,9,11,13,-1,15,-1,-1,17,19,-1,21,-1,-1,-1,-1,-1,-1,-1,-1],"loss_changes":[2.6198528E3,2.0353662E2,8.77199E2,5.270813E1,7.8312836E0,2.8532288E2,2.6776746E2,0E0,5.133601E0,0E0,0E0,5.541382E-1,4.489747E1,0E0,1.0111975E2,0E0,0E0,0E0,0E0,0E0,0E0,0E0,0E0],"parents":[2147483647,0,0,1,1,2,2,3,3,4,4,5,5,6,6,8,8,11,11,12,12,14,14],"right_children":[2,4,6,8,10,12,14,-1,16,-1,-1,18,20,-1,22,-1,-1,-1,-1,-1,-1,-1,-1],"split_conditions":[8.275073E-1,3.039985E0,7.164211E-1,3.0534387E0,1.5207487E0,1.8003991E0,3.2337046E-1,-1.2805025E-1,3.4691E4,-8.132786E-2,1.2513876E-1,3.2337046E-1,1.2960672E0,-1.2544566E-1,-7.635226E-2,1.1881085E-1,-6.992765E-2,-1.272826E-1,-1.4890498E-1,-1.2351584E-1,1.2649514E-1,-1.4844848E-1,1.2564836E-1],"split_indices":[16,27,17,15,4,22,27,0,0,0,0,27,25,0,12,0,0,0,0,0,0,0,0],"split_type":[0,0,0,0,0,0,0,0,0,0,0,0,0,0,0,0,0,0,0,0,0,0,0],"sum_hessian":[2.7352964E3,1.1138749E3,1.6214216E3,1.0785566E3,3.5318268E1,2.799538E2,1.3414678E3,1.0685453E3,1.0011307E1,1.281768E0,3.40365E1,2.1230962E2,6.764419E1,4.41715E1,1.2972963E3,9.000681E0,1.0106254E0,1.2667513E2,8.563448E1,7.3309584E0,6.0313232E1,1.2806851E1,1.2844894E3],"tree_param":{"num_deleted":"0","num_feature":"30","num_nodes":"23","size_leaf_vector":"1"}},{"base_weights":[-1.422574E-3,-1.1497271E0,7.8423715E-1,-1.2253846E0,1.1197103E0,-8.9298016E-1,1.0899887E0,-1.2465942E-1,9.122106E-2,-7.823341E-2,1.21587716E-1,-1.3355521E0,9.83164E-1,-1.223002E-1,1.1766565E0,-1.2382066E-1,-1.4672868E-1,-1.06891684E-1,1.2265666E-1,-1.4664456E-1,1.21286765E-1],"categories":[],"categories_nodes":[],"categories_segments":[],"categories_sizes":[],"default_left":[0,0,0,0,0,0,0,0,0,0,0,0,0,0,0,0,0,0,0,0,0],"id":9,"left_children":[1,3,5,7,9,11,13,-1,-1,-1,-1,15,17,-1,19,-1,-1,-1,-1,-1,-1],"loss_changes":[2.2988677E3,1.7910925E2,7.768439E2,4.6576416E1,7.1554527E0,1.9547147E2,2.5805847E2,0E0,0E0,0E0,0E0,6.148987E-1,2.3891457E1,0E0,1.19924194E2,0E0,0E0,0E0,0E0,0E0,0E0],"parents":[2147483647,0,0,1,1,2,2,3,3,4,4,5,5,6,6,11,11,12,12,14,14],"right_children":[2,4,6,8,10,12,14,-1,-1,-1,-1,16,18,-1,20,-1,-1,-1,-1,-1,-1],"split_conditions":[8.275073E-1,3.039985E0,4.9657556E-1,3.0534387E0,1.5207487E0,2.0463223E0,3.2337046E-1,-1.2465942E-1,9.122106E-2,-7.823341E-2,1.21587716E-1,3.2337046E-1,1.5598221E0,-1.223002E-1,-2.4274287E-1,-1.2382066E-1,-1.4672868E-1,-1.06891684E-1,1.2265666E-1,-1.4664456E-1,1.21286765E-1],"split_indices":[16,27,22,15,4,12,27,0,0,0,0,27,5,0,10,0,0,0,0,0,0],"split_type":[0,0,0,0,0,0,0,0,0,0,0,0,0,0,0,0,0,0,0,0,0],"sum_hessian":[2.5461353E3,1.0341617E3,1.5119735E3,1.0012428E3,3.2918934E1,2.3283319E2,1.2791404E3,9.9181866E2,9.424171E0,1.2408805E0,3.1678053E1,1.886256E2,4.4207584E1,4.5724827E1,1.2334155E3,1.1445108E2,7.417452E1,4.3279443E0,3.987964E1,1.6135923E1,1.2172797E3],"tree_param":{"num_deleted":"0","num_feature":"30","num_nodes":"21","size_leaf_vector":"1"}},{"base_weights":[-1.6637547E-3,-9.9133486E-1,8.629537E-1,-1.1839068E0,6.556765E-1,-1.20885625E-1,1.0712926E0,-1.2394822E-1,9.3121755E-1,-1.2140272E-1,1.126113E0,-1.2213274E-1,1.1495904E0,-8.829989E-2,1.17530726E-1,-9.316569E-2,1.2105166E-1,-1.2859552E-1,1.19195595E-1],"categories":[],"categories_nodes":[],"categories_segments":[],"categories_sizes":[],"default_left":[0,0,0,0,0,0,0,0,0,0,0,0,0,0,0,0,0,0,0],"id":10,"left_children":[1,3,5,7,9,-1,11,-1,13,-1,15,-1,17,-1,-1,-1,-1,-1,-1],"loss_changes":[2.0250924E3,3.5077454E2,5.465056E2,1.17333496E2,1.0354025E2,0E0,2.0752026E2,0E0,1.2496162E1,0E0,1.7337387E1,0E0,1.161521E2,0E0,0E0,0E0,0E0,0E0,0E0],"parents":[2147483647,0,0,1,1,2,2,3,3,4,4,6,6,8,8,10,10,12,12],"right_children":[2,4,6,8,10,-1,12,-1,14,-1,16,-1,18,-1,-1,-1,-1,-1,-1],"split_conditions":[9.977356E-1,1.9226344E0,3.2337046E-1,2.7485623E0,1.1712881E0,-1.20885625E-1,8.475366E-2,-1.2394822E-1,2.0185657E0,-1.2140272E-1,8.1289065E-1,-1.2213274E-1,-1.1900823E-2,-8.829989E-2,1.17530726E-1,-9.316569E-2,1.2105166E-1,-1.2859552E-1,1.19195595E-1],"split_indices":[12,21,27,26,23,0,3,0,4,0,9,0,28,0,0,0,0,0,0],"split_type":[0,0,0,0,0,0,0,0,0,0,0,0,0,0,0,0,0,0,0],"sum_hessian":[2.364628E3,1.1025101E3,1.2621179E3,9.873485E2,1.15161644E2,1.1488189E2,1.147236E3,9.6247327E2,2.4875229E1,2.2833101E1,9.232854E1,3.7404465E1,1.1098315E3,2.6394897E0,2.223574E1,3.2423167E0,8.908622E1,1.8473257E1,1.0913583E3],"tree_param":{"num_deleted":"0","num_feature":"30","num_nodes":"19","size_leaf_vector":"1"}},{"base_weights":[-1.9299705E-3,-1.0991954E0,7.421545E-1,-1.1718501E0,1.0610576E0,-7.453014E-1,1.0570666E0,-1.1929246E-1,8.5474275E-2,-7.101915E-2,1.1573161E-1,-1.2627855E-1,8.9472514E-1,-1.1618435E-1,1.1328204E0,-1.1296047E-1,1.17073596E-1,-1.2531184E-1,1.1644592E-1],"categories":[],"categories_nodes":[],"categories_segments":[],"categories_sizes":[],"default_left":[0,0,0,0,0,0,0,0,0,0,0,0,0,0,0,0,0,0,0],"id":11,"left_children":[1,3,5,7,9,11,13,-1,-1,-1,-1,-1,15,-1,17,-1,-1,-1,-1],"loss_changes":[1.7893192E3,1.4024121E2,6.1252277E2,3.7633057E1,5.8244514E0,1.9528026E2,1.8255078E2,0E0,0E0,0E0,0E0,0E0,3.2307354E1,0E0,8.0201416E1,0E0,0E0,0E0,0E0],"parents":[2147483647,0,0,1,1,2,2,3,3,4,4,5,5,6,6,12,12,14,14],"right_children":[2,4,6,8,10,12,14,-1,-1,-1,-1,-1,16,-1,18,-1,-1,-1,-1],"split_conditions":[8.275073E-1,3.039985E0,7.164211E-1,3.0914536E0,1.5207487E0,1.8003991E0,3.2337046E-1,-1.1929246E-1,8.5474275E-2,-7.101915E-2,1.1573161E-1,-1.2627855E-1,1.2960672E0,-1.1618435E-1,7.2835706E-2,-1.1296047E-1,1.17073596E-1,-1.2531184E-1,1.1644592E-1],"split_indices":[16,27,17,11,4,22,27,0,0,0,0,0,25,0,3,0,0,0,0],"split_type":[0,0,0,0,0,0,0,0,0,0,0,0,0,0,0,0,0,0,0],"sum_hessian":[2.1895637E3,8.846039E2,1.3049598E3,8.562631E2,2.8340742E1,2.2776552E2,1.0771943E3,8.478576E2,8.405517E0,1.1320473E0,2.7208694E1,1.7331027E2,5.4455242E1,3.5088123E1,1.0421062E3,6.1628447E0,4.82924E1,1.3132794E1,1.0289734E3],"tree_param":{"num_deleted":"0","num_feature":"30","num_nodes":"19","size_leaf_vector":"1"}},{"base_weights":[-2.1022912E-3,-9.5285517E-1,8.247177E-1,-1.1381686E0,6.2654406E-1,-7.591688E-1,1.0772717E0,-1.1917968E-1,8.858452E-1,-1.1565349E-1,1.0778881E0,-1.16702236E-1,8.798068E-1,-1.23785034E-1,1.1263043E0,-8.19043E-2,1.1216672E-1,-8.6799614E-2,1.16002716E-1,-9.052246E-2,1.13236144E-1,-1.0643255E-1,1.15119E-1],"categories":[],"categories_nodes":[],"categories_segments":[],"categories_sizes":[],"default_left":[0,0,0,0,0,0,0,0,0,0,0,0,0,0,0,0,0,0,0,0,0,0,0],"id":12,"left_children":[1,3,5,7,9,11,13,-1,15,-1,17,-1,19,-1,21,-1,-1,-1,-1,-1,-1,-1,-1],"loss_changes":[1.5914471E3,2.7632343E2,4.3396204E2,9.257324E1,8.1346375E1,1.0096134E2,1.0745447E2,0E0,9.899157E0,0E0,1.3784393E1,0E0,1.4711674E1,0E0,5.113208E1,0E0,0E0,0E0,0E0,0E0,0E0,0E0,0E0],"parents":[2147483647,0,0,1,1,2,2,3,3,4,4,5,5,6,6,8,8,10,10,12,12,14,14],"right_children":[2,4,6,8,10,12,14,-1,16,-1,18,-1,20,-1,22,-1,-1,-1,-1,-1,-1,-1,-1],"split_conditions":[9.977356E-1,1.9226344E0,7.5808E-1,2.7485623E0,1.1712881E0,1.8190229E0,-2.3764588E-2,-1.1917968E-1,2.0185657E0,-1.1565349E-1,8.1289065E-1,-1.16702236E-1,9.5287454E-1,-1.23785034E-1,3.2337046E-1,-8.19043E-2,1.1216672E-1,-8.6799614E-2,1.16002716E-1,-9.052246E-2,1.13236144E-1,-1.0643255E-1,1.15119E-1],"split_indices":[12,21,16,26,23,3,28,0,4,0,9,0,22,0,27,0,0,0,0,0,0,0,0],"split_type":[0,0,0,0,0,0,0,0,0,0,0,0,0,0,0,0,0,0,0,0,0,0,0],"sum_hessian":[2.0224807E3,9.406655E2,1.0818152E3,8.4213574E2,9.852975E1,1.4849928E2,9.33316E2,8.207991E2,2.1336683E1,1.9586994E1,7.894276E1,1.19139725E2,2.935956E1,1.8854143E1,9.144618E2,2.2921696E0,1.9044514E1,2.8098407E0,7.613291E1,3.3187418E0,2.604082E1,9.802508E0,9.046593E2],"tree_param":{"num_deleted":"0","num_feature":"30","num_nodes":"23","size_leaf_vector":"1"}},{"base_weights":[-2.3425366E-3,-9.3609744E-1,8.07483E-1,-1.1183186E0,6.126457E-1,-7.452614E-1,1.0546111E0,-1.17122985E-1,8.6327136E-1,-1.1321781E-1,1.0561543E0,-1.1469207E-1,8.572273E-1,-1.20858215E-1,1.1028403E0,-7.9492226E-2,1.098931E-1,-8.430774E-2,1.13853574E-1,-8.7989576E-2,1.1079091E-1,-1.1214521E-1,1.1283626E-1],"categories":[],"categories_nodes":[],"categories_segments":[],"categories_sizes":[],"default_left":[0,0,0,0,0,0,0,0,0,0,0,0,0,0,0,0,0,0,0,0,0,0,0],"id":13,"left_children":[1,3,5,7,9,11,13,-1,15,-1,17,-1,19,-1,21,-1,-1,-1,-1,-1,-1,-1,-1],"loss_changes":[1.4110812E3,2.45284E2,3.842647E2,8.235559E1,7.2301544E1,8.9678925E1,9.548236E1,0E0,8.983078E0,0E0,1.2503799E1,0E0,1.3250332E1,0E0,4.9239502E1,0E0,0E0,0E0,0E0,0E0,0E0,0E0,0E0],"parents":[2147483647,0,0,1,1,2,2,3,3,4,4,5,5,6,6,8,8,10,10,12,12,14,14],"right_children":[2,4,6,8,10,12,14,-1,16,-1,18,-1,20,-1,22,-1,-1,-1,-1,-1,-1,-1,-1],"split_conditions":[9.977356E-1,1.9226344E0,7.5808E-1,2.7485623E0,1.1712881E0,1.8190229E0,-2.3764588E-2,-1.17122985E-1,2.0185657E0,-1.1321781E-1,8.1289065E-1,-1.1469207E-1,9.5287454E-1,-1.20858215E-1,7.2835706E-2,-7.9492226E-2,1.098931E-1,-8.430774E-2,1.13853574E-1,-8.7989576E-2,1.1079091E-1,-1.1214521E-1,1.1283626E-1],"split_indices":[12,21,16,26,23,3,28,0,4,0,9,0,22,0,3,0,0,0,0,0,0,0,0],"split_type":[0,0,0,0,0,0,0,0,0,0,0,0,0,0,0,0,0,0,0,0,0,0,0],"sum_hessian":[1.8640691E3,8.6571545E2,9.983537E2,7.7482904E2,9.088643E1,1.3680026E2,8.615534E2,7.5507635E2,1.975269E1,1.810522E1,7.278121E1,1.0961089E2,2.7189375E1,1.7474836E1,8.4407855E2,2.1626015E0,1.7590088E1,2.6418514E0,7.013936E1,3.1123106E0,2.4077065E1,9.088226E0,8.3499036E2],"tree_param":{"num_deleted":"0","num_feature":"30","num_nodes":"23","size_leaf_vector":"1"}},{"base_weights":[-2.609004E-3,-9.2129165E-1,7.91544E-1,-1.1008197E0,5.998571E-1,-7.328143E-1,1.0336002E0,-1.1531418E-1,8.4213966E-1,-1.1098528E-1,1.0364065E0,-1.1291497E-1,8.360571E-1,-1.08803526E-1,1.0842341E0,-7.71855E-2,1.07815936E-1,-8.1926815E-2,1.1192659E-1,-8.557265E-2,1.0853916E-1,-1.3975033E-1,1.1111202E-1],"categories":[],"categories_nodes":[],"categories_segments":[],"categories_sizes":[],"default_left":[0,0,0,0,0,0,0,0,0,0,0,0,0,0,0,0,0,0,0,0,0,0,0],"id":14,"left_children":[1,3,5,7,9,11,13,-1,15,-1,17,-1,19,-1,21,-1,-1,-1,-1,-1,-1,-1,-1],"loss_changes":[1.2531538E3,2.1814398E2,3.406867E2,7.342053E1,6.437977E1,7.980596E1,8.663098E1,0E0,8.171319E0,0E0,1.1372917E1,0E0,1.1960598E1,0E0,5.3424133E1,0E0,0E0,0E0,0E0,0E0,0E0,0E0,0E0],"parents":[2147483647,0,0,1,1,2,2,3,3,4,4,5,5,6,6,8,8,10,10,12,12,14,14],"right_children":[2,4,6,8,10,12,14,-1,16,-1,18,-1,20,-1,22,-1,-1,-1,-1,-1,-1,-1,-1],"split_conditions":[9.977356E-1,1.9226344E0,7.5808E-1,2.7485623E0,1.1712881E0,1.8190229E0,3.2337046E-1,-1.1531418E-1,2.0185657E0,-1.1098528E-1,8.1289065E-1,-1.1291497E-1,9.5287454E-1,-1.08803526E-1,-2.0350167E-1,-7.71855E-2,1.07815936E-1,-8.1926815E-2,1.1192659E-1,-8.557265E-2,1.0853916E-1,-1.3975033E-1,1.1111202E-1],"split_indices":[12,21,16,26,23,3,27,0,4,0,9,0,22,0,23,0,0,0,0,0,0,0,0],"split_type":[0,0,0,0,0,0,0,0,0,0,0,0,0,0,0,0,0,0,0,0,0,0,0],"sum_hessian":[1.7156505E3,7.953839E2,9.2026666E2,7.1166815E2,8.371573E1,1.258286E2,7.9443805E2,6.9340204E2,1.8266142E1,1.6714079E1,6.700165E1,1.0067572E2,2.5152872E1,1.8040167E1,7.763979E2,2.040705E0,1.6225437E1,2.4839957E0,6.4517654E1,2.9184644E0,2.2234407E1,7.7746706E0,7.686232E2],"tree_param":{"num_deleted":"0","num_feature":"30","num_nodes":"23","size_leaf_vector":"1"}},{"base_weights":[-2.8964686E-3,-8.7140006E-1,8.104667E-1,-1.1203831E0,4.2024148E-1,-7.611939E-1,1.0155159E0,-1.137863E-1,8.27431E-2,-1.0973878E-1,1.0092427E0,-1.1087413E-1,9.340222E-2,-1.21385634E-1,1.0604477E0,-9.00691E-2,1.10876344E-1,-1.2419112E-1,1.088266E-1],"categories":[],"categories_nodes":[],"categories_segments":[],"categories_sizes":[],"default_left":[0,0,0,0,0,0,0,0,0,0,0,0,0,0,0,0,0,0,0],"id":15,"left_children":[1,3,5,7,9,11,13,-1,-1,-1,15,-1,-1,-1,17,-1,-1,-1,-1],"loss_changes":[1.1152908E3,2.460185E2,2.6351526E2,2.2745789E1,1.12058426E2,5.6808582E1,7.357245E1,0E0,0E0,0E0,1.8094131E1,0E0,0E0,0E0,4.6691223E1,0E0,0E0,0E0,0E0],"parents":[2147483647,0,0,1,1,2,2,3,3,4,4,5,5,6,6,10,10,14,14],"right_children":[2,4,6,8,10,12,14,-1,-1,-1,16,-1,-1,-1,18,-1,-1,-1,-1],"split_conditions":[1.1108854E0,1.5464965E0,7.5808E-1,3.0498466E0,1.1401114E0,3.039985E0,-2.6738563E-1,-1.137863E-1,8.27431E-2,-1.0973878E-1,8.300373E-1,-1.1087413E-1,9.340222E-2,-1.21385634E-1,-2.3625843E-1,-9.00691E-2,1.10876344E-1,-1.2419112E-1,1.088266E-1],"split_indices":[27,8,16,14,10,27,9,0,0,0,5,0,0,0,23,0,0,0,0],"split_type":[0,0,0,0,0,0,0,0,0,0,0,0,0,0,0,0,0,0,0],"sum_hessian":[1.5768181E3,7.6252637E2,8.1429175E2,6.394043E2,1.2312207E2,9.3663994E1,7.2062775E2,6.3412933E2,5.274931E0,3.4182858E1,8.893921E1,7.801548E1,1.5648511E1,1.3722955E1,7.069048E2,4.00613E0,8.493308E1,7.9182014E0,6.989866E2],"tree_param":{"num_deleted":"0","num_feature":"30","num_nodes":"19","size_leaf_vector":"1"}},{"base_weights":[-3.1673773E-3,-8.977773E-1,7.6669616E-1,-1.0729291E0,5.806775E-1,-6.2033606E-1,1.017685E0,-1.1241984E-1,8.0903184E-1,-1.0688614E-1,1.0049512E0,-1.1314724E-1,9.7068113E-1,-1.0860485E-1,1.06858E0,-7.175516E-2,1.0406605E-1,-7.653242E-2,1.08717956E-1,-6.544982E-2,1.07614696E-1,-9.896126E-2,1.095792E-1],"categories":[],"categories_nodes":[],"categories_segments":[],"categories_sizes":[],"default_left":[0,0,0,0,0,0,0,0,0,0,0,0,0,0,0,0,0,0,0,0,0,0,0],"id":16,"left_children":[1,3,5,7,9,11,13,-1,15,-1,17,-1,19,-1,21,-1,-1,-1,-1,-1,-1,-1,-1],"loss_changes":[9.9897174E2,1.7434894E2,2.720282E2,5.8817566E1,5.1259888E1,9.87463E1,7.1881165E1,0E0,6.5803976E0,0E0,9.209911E0,0E0,5.8008213E0,0E0,3.7232178E1,0E0,0E0,0E0,0E0,0E0,0E0,0E0,0E0],"parents":[2147483647,0,0,1,1,2,2,3,3,4,4,5,5,6,6,8,8,10,10,12,12,14,14],"right_children":[2,4,6,8,10,12,14,-1,16,-1,18,-1,20,-1,22,-1,-1,-1,-1,-1,-1,-1,-1],"split_conditions":[9.977356E-1,1.9226344E0,7.164211E-1,2.7485623E0,1.1712881E0,1.9452577E0,8.475366E-2,-1.1241984E-1,2.0185657E0,-1.0688614E-1,8.1289065E-1,-1.1314724E-1,1.0450277E0,-1.0860485E-1,2.798216E-1,-7.175516E-2,1.0406605E-1,-7.653242E-2,1.08717956E-1,-6.544982E-2,1.07614696E-1,-9.896126E-2,1.095792E-1],"split_indices":[12,21,17,26,23,22,3,0,4,0,9,0,1,0,27,0,0,0,0,0,0,0,0],"split_type":[0,0,0,0,0,0,0,0,0,0,0,0,0,0,0,0,0,0,0,0,0,0,0],"sum_hessian":[1.4484606E3,6.6987494E2,7.7858563E2,5.9916626E2,7.070866E1,1.19074776E2,6.5951086E2,5.8366833E2,1.5497907E1,1.4155205E1,5.6553455E1,9.0340485E1,2.8734295E1,1.5098033E1,6.444128E2,1.7653373E0,1.373257E1,2.1415317E0,5.4411922E1,1.4338325E0,2.7300463E1,7.947265E0,6.364655E2],"tree_param":{"num_deleted":"0","num_feature":"30","num_nodes":"23","size_leaf_vector":"1"}},{"base_weights":[-3.401162E-3,-8.871856E-1,7.558025E-1,-1.0605252E0,5.700482E-1,-6.118391E-1,1.003375E0,-1.1115066E-1,7.906399E-1,-1.0507423E-1,9.892791E-1,-1.11657836E-1,9.5390916E-1,-1.0664799E-1,1.0538551E0,-6.974326E-2,1.0238929E-1,-7.5559735E-2,1.07314825E-1,-6.361986E-2,1.06139E-1,-9.7108565E-2,1.0809467E-1],"categories":[],"categories_nodes":[],"categories_segments":[],"categories_sizes":[],"default_left":[0,0,0,0,0,0,0,0,0,0,0,0,0,0,0,0,0,0,0,0,0,0,0],"id":17,"left_children":[1,3,5,7,9,11,13,-1,15,-1,17,-1,19,-1,21,-1,-1,-1,-1,-1,-1,-1,-1],"loss_changes":[8.916936E2,1.5572205E2,2.4266064E2,5.270581E1,4.5839348E1,8.814966E1,6.4408325E1,0E0,6.025712E0,0E0,8.552017E0,0E0,5.358389E0,0E0,3.351288E1,0E0,0E0,0E0,0E0,0E0,0E0,0E0,0E0],"parents":[2147483647,0,0,1,1,2,2,3,3,4,4,5,5,6,6,8,8,10,10,12,12,14,14],"right_children":[2,4,6,8,10,12,14,-1,16,-1,18,-1,20,-1,22,-1,-1,-1,-1,-1,-1,-1,-1],"split_conditions":[9.977356E-1,1.9226344E0,7.164211E-1,2.7485623E0,1.1712881E0,1.9452577E0,8.475366E-2,-1.1115066E-1,2.0185657E0,-1.0507423E-1,8.285469E-1,-1.11657836E-1,1.0450277E0,-1.0664799E-1,2.798216E-1,-6.974326E-2,1.0238929E-1,-7.5559735E-2,1.07314825E-1,-6.361986E-2,1.06139E-1,-9.7108565E-2,1.0809467E-1],"split_indices":[12,21,17,26,23,22,3,0,4,0,18,0,1,0,27,0,0,0,0,0,0,0,0],"split_type":[0,0,0,0,0,0,0,0,0,0,0,0,0,0,0,0,0,0,0,0,0,0,0],"sum_hessian":[1.326958E3,6.1309235E2,7.1386566E2,5.481603E2,6.493206E1,1.0919251E2,6.0467316E2,5.338573E2,1.4302951E1,1.30341835E1,5.1897877E1,8.279072E1,2.640179E1,1.3916595E1,5.9075653E2,1.6684972E0,1.2634453E1,2.0128026E0,4.9885075E1,1.3601463E0,2.5041645E1,7.33935E0,5.834172E2],"tree_param":{"num_deleted":"0","num_feature":"30","num_nodes":"23","size_leaf_vector":"1"}},{"base_weights":[-3.6592176E-3,-8.7762266E-1,7.455957E-1,-1.0493879E0,5.597692E-1,-6.722547E-1,9.797308E-1,-1.1001658E-1,7.7280486E-1,-1.0335233E-1,9.7431064E-1,-1.1188684E-1,8.5912406E-1,-1.0304185E-1,1.0452586E0,-6.780036E-2,1.007966E-1,-7.394579E-2,1.060812E-1,-7.839622E-2,1.0376898E-1,-9.581046E-2,1.0675587E-1],"categories":[],"categories_nodes":[],"categories_segments":[],"categories_sizes":[],"default_left":[0,0,0,0,0,0,0,0,0,0,0,0,0,0,0,0,0,0,0,0,0,0,0],"id":18,"left_children":[1,3,5,7,9,11,13,-1,15,-1,17,-1,19,-1,21,-1,-1,-1,-1,-1,-1,-1,-1],"loss_changes":[7.966816E2,1.3923853E2,2.1811734E2,4.7297424E1,4.1030228E1,6.486413E1,7.518634E1,0E0,5.526924E0,0E0,7.9891243E0,0E0,7.1692057E0,0E0,2.538678E1,0E0,0E0,0E0,0E0,0E0,0E0,0E0,0E0],"parents":[2147483647,0,0,1,1,2,2,3,3,4,4,5,5,6,6,8,8,10,10,12,12,14,14],"right_children":[2,4,6,8,10,12,14,-1,16,-1,18,-1,20,-1,22,-1,-1,-1,-1,-1,-1,-1,-1],"split_conditions":[9.977356E-1,1.9226344E0,5.4682106E-1,2.7485623E0,1.1712881E0,2.2007089E0,3.2337046E-1,-1.1001658E-1,2.0185657E0,-1.0335233E-1,9.5449984E-1,-1.1188684E-1,1.1845816E0,-1.0304185E-1,1.3922118E-1,-6.780036E-2,1.007966E-1,-7.394579E-2,1.060812E-1,-7.839622E-2,1.0376898E-1,-9.581046E-2,1.0675587E-1],"split_indices":[12,21,22,26,23,16,27,0,4,0,2,0,4,0,3,0,0,0,0,0,0,0,0],"split_type":[0,0,0,0,0,0,0,0,0,0,0,0,0,0,0,0,0,0,0,0,0,0,0],"sum_hessian":[1.2146403E3,5.6058185E2,6.5405835E2,5.0098517E2,5.9596703E1,9.243417E1,5.616242E2,4.877885E2,1.3196635E1,1.1996171E1,4.760053E1,7.177188E1,2.0662294E1,1.7265265E1,5.4435895E2,1.5780203E0,1.1618615E1,1.9244639E0,4.5676067E1,1.6930691E0,1.8969225E1,5.530725E0,5.388282E2],"tree_param":{"num_deleted":"0","num_feature":"30","num_nodes":"23","size_leaf_vector":"1"}},{"base_weights":[-3.963687E-3,-9.298588E-1,6.8858236E-1,-1.0711863E0,3.3509156E-1,-7.435083E-1,9.423891E-1,-1.0887716E-1,7.572108E-2,-1.0261817E-1,9.925428E-1,-1.066576E-1,6.3901687E-1,-1.1891215E-1,1.0018256E0,5.1855363E-2,1.0462314E-1,-8.277867E-2,9.819036E-2,-1.1322003E-1,1.03666656E-1],"categories":[],"categories_nodes":[],"categories_segments":[],"categories_sizes":[],"default_left":[0,0,0,0,0,0,0,0,0,0,0,0,0,0,0,0,0,0,0,0,0],"id":19,"left_children":[1,3,5,7,9,11,13,-1,-1,-1,15,-1,17,-1,19,-1,-1,-1,-1,-1,-1],"loss_changes":[7.1383746E2,8.551962E1,2.3218927E2,1.4609253E1,4.4545555E1,4.375596E1,6.978586E1,0E0,0E0,0E0,3.0498886E-1,0E0,1.0314736E1,0E0,4.0378784E1,0E0,0E0,0E0,0E0,0E0,0E0],"parents":[2147483647,0,0,1,1,2,2,3,3,4,4,5,5,6,6,10,10,12,12,14,14],"right_children":[2,4,6,8,10,12,14,-1,-1,-1,16,-1,18,-1,20,-1,-1,-1,-1,-1,-1],"split_conditions":[8.5089797E-1,1.8003991E0,7.5808E-1,3.1285772E0,1.3279659E0,1.8190229E0,-2.4157211E-1,-1.0887716E-1,7.572108E-2,-1.0261817E-1,1.1687379E0,-1.066576E-1,9.5794994E-1,-1.1891215E-1,-1.4688249E-1,5.1855363E-2,1.0462314E-1,-8.277867E-2,9.819036E-2,-1.1322003E-1,1.03666656E-1],"split_indices":[17,22,16,21,19,3,21,0,0,0,1,0,21,0,13,0,0,0,0,0,0],"split_type":[0,0,0,0,0,0,0,0,0,0,0,0,0,0,0,0,0,0,0,0,0],"sum_hessian":[1.1112416E3,4.75364E2,6.358776E2,4.2772888E2,4.763513E1,9.5438965E1,5.4043866E2,4.240549E2,3.6739721E0,1.5330991E1,3.2304142E1,7.754647E1,1.7892487E1,1.4145515E1,5.2629315E2,4.371244E0,2.79329E1,3.1221898E0,1.4770297E1,7.9484925E0,5.1834467E2],"tree_param":{"num_deleted":"0","num_feature":"30","num_nodes":"21","size_leaf_vector":"1"}},{"base_weights":[-4.2635435E-3,-8.291339E-1,7.599383E-1,-1.0666802E0,3.978457E-1,-7.174562E-1,9.515187E-1,-1.0837697E-1,7.1623564E-2,-1.03016235E-1,9.5283365E-1,-1.0517236E-1,8.435192E-2,-5.343333E-1,1.020808E0,-7.760374E-2,1.047434E-1,-1.20778516E-1,9.289124E-2,-9.232706E-2,1.04515664E-1],"categories":[],"categories_nodes":[],"categories_segments":[],"categories_sizes":[],"default_left":[0,0,0,0,0,0,0,0,0,0,0,0,0,0,0,0,0,0,0,0,0],"id":20,"left_children":[1,3,5,7,9,11,13,-1,-1,-1,15,-1,-1,17,19,-1,-1,-1,-1,-1,-1],"loss_changes":[6.4288885E2,1.4337622E2,1.5052487E2,1.3304535E1,6.460657E1,3.2893295E1,4.883719E1,0E0,0E0,0E0,1.0353157E1,0E0,0E0,2.236325E1,2.2195404E1,0E0,0E0,0E0,0E0,0E0,0E0],"parents":[2147483647,0,0,1,1,2,2,3,3,4,4,5,5,6,6,10,10,13,13,14,14],"right_children":[2,4,6,8,10,12,14,-1,-1,-1,16,-1,-1,18,20,-1,-1,-1,-1,-1,-1],"split_conditions":[1.1108854E0,1.5464965E0,7.5808E-1,3.0498466E0,1.1401114E0,3.039985E0,7.360206E-2,-1.0837697E-1,7.1623564E-2,-1.03016235E-1,8.300373E-1,-1.0517236E-1,8.435192E-2,2.4064536E0,7.2835706E-2,-7.760374E-2,1.047434E-1,-1.20778516E-1,9.289124E-2,-9.232706E-2,1.04515664E-1],"split_indices":[27,8,16,14,10,27,25,0,0,0,5,0,0,10,3,0,0,0,0,0,0],"split_type":[0,0,0,0,0,0,0,0,0,0,0,0,0,0,0,0,0,0,0,0,0],"sum_hessian":[1.017864E3,4.8946082E2,5.2840314E2,4.101797E2,7.928114E1,6.033993E1,4.6806323E2,4.066738E2,3.5058997E0,2.1949066E1,5.7332077E1,4.996637E1,1.0373563E1,2.0555487E1,4.4750775E2,2.6006403E0,5.4731434E1,1.4196296E1,6.359192E0,5.0788317E0,4.4242892E2],"tree_param":{"num_deleted":"0","num_feature":"30","num_nodes":"21","size_leaf_vector":"1"}},{"base_weights":[-4.470839E-3,-8.559875E-1,7.2204435E-1,-1.0242445E0,5.378816E-1,-6.567386E-1,9.5157903E-1,-1.07419215E-1,7.338606E-1,-9.888048E-2,9.425608E-1,-1.08723156E-1,8.167529E-1,-9.9063985E-2,1.0150995E0,-6.003201E-2,9.619075E-2,-6.645477E-2,1.0298884E-1,-7.0039734E-2,9.989142E-2,-1.1057343E-1,1.0370069E-1],"categories":[],"categories_nodes":[],"categories_segments":[],"categories_sizes":[],"default_left":[0,0,0,0,0,0,0,0,0,0,0,0,0,0,0,0,0,0,0,0,0,0,0],"id":21,"left_children":[1,3,5,7,9,11,13,-1,15,-1,17,-1,19,-1,21,-1,-1,-1,-1,-1,-1,-1,-1],"loss_changes":[5.768343E2,1.0122897E2,1.5985959E2,3.445462E1,2.990363E1,4.6812817E1,5.4270416E1,0E0,3.9806066E0,0E0,5.958557E0,0E0,5.3814325E0,0E0,2.0594025E1,0E0,0E0,0E0,0E0,0E0,0E0,0E0,0E0],"parents":[2147483647,0,0,1,1,2,2,3,3,4,4,5,5,6,6,8,8,10,10,12,12,14,14],"right_children":[2,4,6,8,10,12,14,-1,16,-1,18,-1,20,-1,22,-1,-1,-1,-1,-1,-1,-1,-1],"split_conditions":[9.977356E-1,1.9226344E0,5.4682106E-1,2.7485623E0,1.1712881E0,2.2007089E0,3.2337046E-1,-1.07419215E-1,2.0185657E0,-9.888048E-2,5.168514E-1,-1.08723156E-1,1.1845816E0,-9.9063985E-2,-2.5037462E-1,-6.003201E-2,9.619075E-2,-6.645477E-2,1.0298884E-1,-7.0039734E-2,9.989142E-2,-1.1057343E-1,1.0370069E-1],"split_indices":[12,21,22,26,23,16,27,0,4,0,1,0,4,0,23,0,0,0,0,0,0,0,0],"split_type":[0,0,0,0,0,0,0,0,0,0,0,0,0,0,0,0,0,0,0,0,0,0,0],"sum_hessian":[9.304244E2,4.2827905E2,5.0214532E2,3.8238562E2,4.5893448E1,7.1399185E1,4.3074615E2,3.7220044E2,1.0185173E1,9.313616E0,3.6579834E1,5.545862E1,1.5940564E1,1.3179209E1,4.1756693E2,1.248489E0,8.936684E0,1.5445907E0,3.503524E1,1.4038142E0,1.453675E1,3.763385E0,4.1380356E2],"tree_param":{"num_deleted":"0","num_feature":"30","num_nodes":"23","size_leaf_vector":"1"}},{"base_weights":[-4.874562E-3,-7.73706E-1,7.8579736E-1,-9.7213817E-1,7.764595E-1,-1.025847E-1,9.4122463E-1,-1.060117E0,6.9981366E-1,-9.055143E-2,9.8821723E-1,-9.826342E-2,1.0014294E0,-1.0759012E-1,6.2117606E-2,-7.900301E-2,9.98179E-2,3.6764946E-2,1.0350334E-1,-9.047341E-2,1.02816954E-1],"categories":[],"categories_nodes":[],"categories_segments":[],"categories_sizes":[],"default_left":[0,0,0,0,0,0,0,0,0,0,0,0,0,0,0,0,0,0,0,0,0],"id":22,"left_children":[1,3,5,7,9,-1,11,13,15,-1,17,-1,19,-1,-1,-1,-1,-1,-1,-1,-1],"loss_changes":[5.179179E2,1.3362585E2,1.1923743E2,5.7135986E1,1.8551916E1,0E0,4.585074E1,1.0344391E1,9.575643E0,0E0,9.125862E-1,0E0,2.0100647E1,0E0,0E0,0E0,0E0,0E0,0E0,0E0,0E0],"parents":[2147483647,0,0,1,1,2,2,3,3,4,4,6,6,7,7,8,8,10,10,12,12],"right_children":[2,4,6,8,10,-1,12,14,16,-1,18,-1,20,-1,-1,-1,-1,-1,-1,-1,-1],"split_conditions":[1.151259E0,2.1286807E0,3.2337046E-1,2.2644105E0,7.146945E-1,-1.025847E-1,2.9621047E-1,2.886548E0,1.970586E0,-9.055143E-2,4.6217188E-1,-9.826342E-2,7.2835706E-2,-1.0759012E-1,6.2117606E-2,-7.900301E-2,9.98179E-2,3.6764946E-2,1.0350334E-1,-9.047341E-2,1.02816954E-1],"split_indices":[23,12,27,18,5,0,17,5,16,0,3,0,3,0,0,0,0,0,0,0,0],"split_type":[0,0,0,0,0,0,0,0,0,0,0,0,0,0,0,0,0,0,0,0,0],"sum_hessian":[8.499878E2,4.309567E2,4.1903107E2,3.82382E2,4.857472E1,3.2667053E1,3.86364E2,3.6361438E2,1.87676E1,5.065297E0,4.3509422E1,1.1258989E1,3.75105E2,3.605892E2,3.0251722E0,2.8564544E0,1.5911146E1,3.6731632E0,3.9836258E1,4.7350106E0,3.7037E2],"tree_param":{"num_deleted":"0","num_feature":"30","num_nodes":"21","size_leaf_vector":"1"}},{"base_weights":[-5.133435E-3,-8.12221E-1,7.368326E-1,-1.0454824E0,3.8838077E-1,-6.5620667E-1,9.2988765E-1,-1.062788E-1,6.508076E-2,-9.9678434E-2,9.2669857E-1,-1.0700563E-1,8.116465E-1,-7.1186846E-1,9.978067E-1,-7.054579E-2,1.0201951E-1,3.946938E-2,9.280035E-2,-1.0589009E-1,7.46656E-2,-8.7107256E-2,1.0229645E-1],"categories":[],"categories_nodes":[],"categories_segments":[],"categories_sizes":[],"default_left":[0,0,0,0,0,0,0,0,0,0,0,0,0,0,0,0,0,0,0,0,0,0,0],"id":23,"left_children":[1,3,5,7,9,11,13,-1,-1,-1,15,-1,17,19,21,-1,-1,-1,-1,-1,-1,-1,-1],"loss_changes":[4.6611404E2,1.04816376E2,1.0967638E2,9.863586E0,4.6692245E1,3.1210955E1,4.0473816E1,0E0,0E0,0E0,7.544018E0,0E0,1.9427347E-1,8.256478E0,1.7010925E1,0E0,0E0,0E0,0E0,0E0,0E0,0E0,0E0],"parents":[2147483647,0,0,1,1,2,2,3,3,4,4,5,5,6,6,10,10,12,12,13,13,14,14],"right_children":[2,4,6,8,10,12,14,-1,-1,-1,16,-1,18,20,22,-1,-1,-1,-1,-1,-1,-1,-1],"split_conditions":[1.1108854E0,1.5464965E0,4.9657556E-1,3.0498466E0,1.1401114E0,1.8646635E0,7.7784345E-2,-1.062788E-1,6.508076E-2,-9.9678434E-2,8.300373E-1,-1.0700563E-1,1.9850267E0,2.1577303E0,-1.0743976E-1,-7.054579E-2,1.0201951E-1,3.946938E-2,9.280035E-2,-1.0589009E-1,7.46656E-2,-8.7107256E-2,1.0229645E-1],"split_indices":[27,8,22,14,10,1,9,0,0,0,5,0,2,4,12,0,0,0,0,0,0,0,0],"split_type":[0,0,0,0,0,0,0,0,0,0,0,0,0,0,0,0,0,0,0,0,0,0,0],"sum_hessian":[7.7637317E2,3.7182205E2,4.0455112E2,3.1144208E2,6.0379963E1,4.8948845E1,3.556023E2,3.086665E2,2.7755806E0,1.6659958E1,4.3720005E1,3.8394753E1,1.0554091E1,1.3750112E1,3.4185217E2,2.0141404E0,4.1705868E1,3.2609437E0,7.293148E0,1.1328637E1,2.4214742E0,4.094079E0,3.377581E2],"tree_param":{"num_deleted":"0","num_feature":"30","num_nodes":"23","size_leaf_vector":"1"}},{"base_weights":[-5.32982E-3,-8.397187E-1,7.018462E-1,-1.0049907E0,5.163207E-1,-6.6597295E-1,9.278569E-1,-1.05446875E-1,6.964645E-1,-9.489628E-2,9.1314256E-1,-1.0972931E-1,9.0877496E-2,-9.54355E-2,9.90663E-1,3.169028E-2,8.623714E-2,-5.934781E-2,1.0051977E-1,-8.878726E-2,1.01989344E-1],"categories":[],"categories_nodes":[],"categories_segments":[],"categories_sizes":[],"default_left":[0,0,0,0,0,0,0,0,0,0,0,0,0,0,0,0,0,0,0,0,0],"id":24,"left_children":[1,3,5,7,9,11,13,-1,15,-1,17,-1,-1,-1,19,-1,-1,-1,-1,-1,-1],"loss_changes":[4.1949332E2,7.3609634E1,1.1957715E2,2.5235443E1,2.1851704E1,3.8455406E1,4.0033722E1,0E0,2.825303E-1,0E0,4.606043E0,0E0,0E0,0E0,1.8502625E1,0E0,0E0,0E0,0E0,0E0,0E0],"parents":[2147483647,0,0,1,1,2,2,3,3,4,4,5,5,6,6,8,8,10,10,14,14],"right_children":[2,4,6,8,10,12,14,-1,16,-1,18,-1,-1,-1,20,-1,-1,-1,-1,-1,-1],"split_conditions":[9.977356E-1,1.9226344E0,5.288921E-1,2.7485623E0,7.120911E-1,2.3261697E0,3.2337046E-1,-1.05446875E-1,1.9312686E0,-9.489628E-2,7.4478877E-1,-1.0972931E-1,9.0877496E-2,-9.54355E-2,8.475366E-2,3.169028E-2,8.623714E-2,-5.934781E-2,1.0051977E-1,-8.878726E-2,1.01989344E-1],"split_indices":[12,21,21,26,20,3,27,0,2,0,9,0,0,0,3,0,0,0,0,0,0],"split_type":[0,0,0,0,0,0,0,0,0,0,0,0,0,0,0,0,0,0,0,0,0],"sum_hessian":[7.0893475E2,3.2513007E2,3.838047E2,2.900394E2,3.5090687E1,5.414882E1,3.2965585E2,2.8221295E2,7.8264527E0,7.181447E0,2.7909239E1,4.2744408E1,1.1404409E1,1.0186458E1,3.194694E2,3.2655816E0,4.560871E0,1.2934229E0,2.6615816E1,4.444778E0,3.1502463E2],"tree_param":{"num_deleted":"0","num_feature":"30","num_nodes":"21","size_leaf_vector":"1"}},{"base_weights":[-5.596746E-3,-7.5990486E-1,7.682614E-1,-9.551479E-1,7.509885E-1,-1.0012867E-1,9.189223E-1,-1.0416797E0,6.6983116E-1,-8.5114636E-2,9.59778E-1,-9.4300315E-2,9.7820413E-1,-1.0577723E-1,5.590439E-2,-7.287531E-2,9.651887E-2,3.2098662E-2,1.0114149E-1,-9.174053E-2,1.00611806E-1],"categories":[],"categories_nodes":[],"categories_segments":[],"categories_sizes":[],"default_left":[0,0,0,0,0,0,0,0,0,0,0,0,0,0,0,0,0,0,0,0,0],"id":25,"left_children":[1,3,5,7,9,-1,11,13,15,-1,17,-1,19,-1,-1,-1,-1,-1,-1,-1,-1],"loss_changes":[3.7889075E2,9.767876E1,8.633824E1,4.1688812E1,1.3586456E1,0E0,3.3570023E1,7.731201E0,7.043138E0,0E0,8.0485344E-1,0E0,1.6116882E1,0E0,0E0,0E0,0E0,0E0,0E0,0E0,0E0],"parents":[2147483647,0,0,1,1,2,2,3,3,4,4,6,6,7,7,8,8,10,10,12,12],"right_children":[2,4,6,8,10,-1,12,14,16,-1,18,-1,20,-1,-1,-1,-1,-1,-1,-1,-1],"split_conditions":[1.151259E0,2.1286807E0,3.2337046E-1,2.2644105E0,7.146945E-1,-1.0012867E-1,2.9621047E-1,2.886548E0,1.970586E0,-8.5114636E-2,4.6217188E-1,-9.4300315E-2,-2.4157211E-1,-1.0577723E-1,5.590439E-2,-7.287531E-2,9.651887E-2,3.2098662E-2,1.0114149E-1,-9.174053E-2,1.00611806E-1],"split_indices":[23,12,27,18,5,0,17,5,16,0,3,0,21,0,0,0,0,0,0,0,0],"split_type":[0,0,0,0,0,0,0,0,0,0,0,0,0,0,0,0,0,0,0,0,0],"sum_hessian":[6.470883E2,3.276924E2,3.193959E2,2.905184E2,3.7174004E1,2.4617044E1,2.9477884E2,2.76171E2,1.4347434E1,3.9312437E0,3.324276E1,8.635877E0,2.8614297E2,2.73758E2,2.412983E0,2.2457833E0,1.210165E1,3.0259151E0,3.0216846E1,3.6900468E0,2.8245294E2],"tree_param":{"num_deleted":"0","num_feature":"30","num_nodes":"21","size_leaf_vector":"1"}},{"base_weights":[-5.937576E-3,-8.70005E-1,6.613456E-1,-1.0346138E0,3.9928246E-1,-7.750898E-1,9.0303457E-1,-1.0514207E-1,5.3509083E-2,-9.33007E-2,9.4616985E-1,-1.0147096E-1,8.146278E-2,-7.0962816E-1,9.733468E-1,4.132252E-2,9.885772E-2,-1.0184058E-1,6.802829E-2,-8.942746E-2,1.00372486E-1],"categories":[],"categories_nodes":[],"categories_segments":[],"categories_sizes":[],"default_left":[0,0,0,0,0,0,0,0,0,0,0,0,0,0,0,0,0,0,0,0,0],"id":26,"left_children":[1,3,5,7,9,11,13,-1,-1,-1,15,-1,-1,17,19,-1,-1,-1,-1,-1,-1],"loss_changes":[3.4176477E2,5.4378235E1,1.168159E2,6.601715E0,2.3012388E1,1.9381098E1,3.320584E1,0E0,0E0,0E0,8.938408E-2,0E0,0E0,6.0826025E0,1.6510742E1,0E0,0E0,0E0,0E0,0E0,0E0],"parents":[2147483647,0,0,1,1,2,2,3,3,4,4,5,5,6,6,10,10,13,13,14,14],"right_children":[2,4,6,8,10,12,14,-1,-1,-1,16,-1,-1,18,20,-1,-1,-1,-1,-1,-1],"split_conditions":[8.631402E-1,1.725579E0,7.5808E-1,2.8834348E0,1.2965443E0,3.039985E0,2.7216751E-2,-1.0514207E-1,5.3509083E-2,-9.33007E-2,9.9282026E-1,-1.0147096E-1,8.146278E-2,3.1060934E0,-2.5522804E-1,4.132252E-2,9.885772E-2,-1.0184058E-1,6.802829E-2,-8.942746E-2,1.00372486E-1],"split_indices":[13,8,16,25,17,27,9,0,0,0,1,0,0,4,10,0,0,0,0,0,0],"split_type":[0,0,0,0,0,0,0,0,0,0,0,0,0,0,0,0,0,0,0,0,0],"sum_hessian":[5.9074927E2,2.5728552E2,3.3346375E2,2.2791324E2,2.9372263E1,4.770868E1,2.8575507E2,2.2582552E2,2.087736E0,8.342589E0,2.1029673E1,4.177378E1,5.934901E0,1.1558557E1,2.741965E2,2.3419516E0,1.8687721E1,9.676211E0,1.8823452E0,3.9334269E0,2.702631E2],"tree_param":{"num_deleted":"0","num_feature":"30","num_nodes":"21","size_leaf_vector":"1"}},{"base_weights":[-6.1014327E-3,-7.961798E-1,7.1280324E-1,-1.0249208E0,3.7230977E-1,-4.995676E-1,9.3160325E-1,-1.0425277E-1,5.6183018E-2,-9.563081E-2,8.961591E-1,-1.05492584E-1,6.981125E-1,-9.2342325E-2,9.8381007E-1,-6.1798967E-2,9.906287E-2,-7.0822835E-2,9.456441E-2,-7.515414E-2,1.0056766E-1],"categories":[],"categories_nodes":[],"categories_segments":[],"categories_sizes":[],"default_left":[0,0,0,0,0,0,0,0,0,0,0,0,0,0,0,0,0,0,0,0,0],"id":27,"left_children":[1,3,5,7,9,11,13,-1,-1,-1,15,-1,17,-1,19,-1,-1,-1,-1,-1,-1],"loss_changes":[3.0738736E2,6.929349E1,7.563115E1,6.6170044E0,3.0744572E1,2.9983658E1,2.4188843E1,0E0,0E0,0E0,5.091528E0,0E0,5.7284527E0,0E0,9.6462555E0,0E0,0E0,0E0,0E0,0E0,0E0],"parents":[2147483647,0,0,1,1,2,2,3,3,4,4,5,5,6,6,10,10,12,12,14,14],"right_children":[2,4,6,8,10,12,14,-1,-1,-1,16,-1,18,-1,20,-1,-1,-1,-1,-1,-1],"split_conditions":[1.1108854E0,1.5464965E0,5.7798374E-1,3.0498466E0,1.1401114E0,1.6341248E0,-2.3764588E-2,-1.0425277E-1,5.6183018E-2,-9.563081E-2,8.628644E-1,-1.05492584E-1,1.1052731E0,-9.2342325E-2,-2.0350167E-1,-6.1798967E-2,9.906287E-2,-7.0822835E-2,9.456441E-2,-7.515414E-2,1.0056766E-1],"split_indices":[27,8,19,14,10,24,28,0,0,0,1,0,4,0,23,0,0,0,0,0,0],"split_type":[0,0,0,0,0,0,0,0,0,0,0,0,0,0,0,0,0,0,0,0,0],"sum_hessian":[5.391843E2,2.568252E2,2.8235913E2,2.1488303E2,4.1942177E1,4.2971405E1,2.3938774E2,2.1286403E2,2.0190065E0,1.1627155E1,3.0315022E1,2.9439602E1,1.3531803E1,6.0959797E0,2.3329175E2,1.4548672E0,2.8860153E1,1.74672E0,1.1785083E1,2.4877946E0,2.3080396E2],"tree_param":{"num_deleted":"0","num_feature":"30","num_nodes":"21","size_leaf_vector":"1"}},{"base_weights":[-6.6351574E-3,-7.4874765E-1,7.521667E-1,-9.415603E-1,7.2686374E-1,-9.783412E-2,8.989778E-1,-1.0271449E0,6.4480454E-1,-7.9609826E-2,9.3393993E-1,-6.101584E-1,9.743731E-1,-1.043694E-1,5.002145E-2,-6.604479E-2,9.3205914E-2,2.4836859E-2,9.8749086E-2,-9.4404064E-2,6.8373986E-2,-7.511548E-2,9.989296E-2],"categories":[],"categories_nodes":[],"categories_segments":[],"categories_sizes":[],"default_left":[0,0,0,0,0,0,0,0,0,0,0,0,0,0,0,0,0,0,0,0,0,0,0],"id":28,"left_children":[1,3,5,7,9,-1,11,13,15,-1,17,19,21,-1,-1,-1,-1,-1,-1,-1,-1,-1,-1],"loss_changes":[2.7797226E2,7.1687195E1,6.2888916E1,3.0687683E1,1.0016769E1,0E0,2.6253418E1,5.8356323E0,5.0903907E0,0E0,7.219448E-1,5.5466886E0,9.867493E0,0E0,0E0,0E0,0E0,0E0,0E0,0E0,0E0,0E0,0E0],"parents":[2147483647,0,0,1,1,2,2,3,3,4,4,6,6,7,7,8,8,10,10,11,11,12,12],"right_children":[2,4,6,8,10,-1,12,14,16,-1,18,20,22,-1,-1,-1,-1,-1,-1,-1,-1,-1,-1],"split_conditions":[1.151259E0,2.1286807E0,3.2337046E-1,2.2644105E0,7.146945E-1,-9.783412E-2,2.0487975E-1,2.886548E0,1.970586E0,-7.9609826E-2,1.4847817E0,2.477025E0,2.9621047E-1,-1.043694E-1,5.002145E-2,-6.604479E-2,9.3205914E-2,2.4836859E-2,9.8749086E-2,-9.4404064E-2,6.8373986E-2,-7.511548E-2,9.989296E-2],"split_indices":[23,12,27,18,5,0,10,5,16,0,11,9,17,0,0,0,0,0,0,0,0,0,0],"split_type":[0,0,0,0,0,0,0,0,0,0,0,0,0,0,0,0,0,0,0,0,0,0,0],"sum_hessian":[4.9163196E2,2.4855602E2,2.4307594E2,2.2015155E2,2.8404467E1,1.8566225E1,2.245097E2,2.092168E2,1.0934755E1,3.0593932E0,2.5345074E1,1.0345142E1,2.1416457E2,2.0728748E2,1.9293242E0,1.7380555E0,9.1967E0,2.2447872E0,2.3100286E1,8.4381275E0,1.9070148E0,2.5898905E0,2.1157468E2],"tree_param":{"num_deleted":"0","num_feature":"30","num_nodes":"23","size_leaf_vector":"1"}},{"base_weights":[-6.8570087E-3,-8.577393E-1,6.4755595E-1,-1.0210776E0,3.8567966E-1,-7.588112E-1,8.835259E-1,-1.0384107E-1,4.9026478E-2,-8.93932E-2,9.1713864E-1,-9.97416E-2,7.6159775E-2,-5.5360764E-1,9.654138E-1,3.442272E-2,9.633197E-2,-1.0155735E-1,7.4690364E-2,-7.906702E-2,9.935709E-2],"categories":[],"categories_nodes":[],"categories_segments":[],"categories_sizes":[],"default_left":[0,0,0,0,0,0,0,0,0,0,0,0,0,0,0,0,0,0,0,0,0],"id":29,"left_children":[1,3,5,7,9,11,13,-1,-1,-1,15,-1,-1,17,19,-1,-1,-1,-1,-1,-1],"loss_changes":[2.5077565E2,4.015796E1,8.5154976E1,5.0496674E0,1.677325E1,1.4224329E1,2.624405E1,0E0,0E0,0E0,1.1998749E-1,0E0,0E0,8.215878E0,1.1023453E1,0E0,0E0,0E0,0E0,0E0,0E0],"parents":[2147483647,0,0,1,1,2,2,3,3,4,4,5,5,6,6,10,10,13,13,14,14],"right_children":[2,4,6,8,10,12,14,-1,-1,-1,16,-1,-1,18,20,-1,-1,-1,-1,-1,-1],"split_conditions":[8.631402E-1,1.725579E0,7.5808E-1,2.9861753E0,1.2965443E0,3.039985E0,6.622225E-2,-1.0384107E-1,4.9026478E-2,-8.93932E-2,6.628414E-1,-9.97416E-2,7.6159775E-2,2.3918762E0,-3.1232962E-1,3.442272E-2,9.633197E-2,-1.0155735E-1,7.4690364E-2,-7.906702E-2,9.935709E-2],"split_indices":[13,8,16,22,17,27,25,0,0,0,25,0,0,26,11,0,0,0,0,0,0],"split_type":[0,0,0,0,0,0,0,0,0,0,0,0,0,0,0,0,0,0,0,0,0],"sum_hessian":[4.483668E2,1.9478816E2,2.5357861E2,1.723294E2,2.2458761E1,3.611566E1,2.1746295E2,1.706848E2,1.6446023E0,6.390384E0,1.6068377E1,3.1514006E1,4.601656E0,1.1412526E1,2.0605043E2,1.8292304E0,1.4239146E1,8.582838E0,2.8296874E0,2.8243227E0,2.032261E2],"tree_param":{"num_deleted":"0","num_feature":"30","num_nodes":"21","size_leaf_vector":"1"}},{"base_weights":[-7.026881E-3,-8.171357E-1,6.72557E-1,-9.781667E-1,4.806858E-1,-6.499458E-1,8.980643E-1,-1.0278995E-1,6.153209E-1,-8.536668E-2,8.6783195E-1,-1.0522207E-1,8.323301E-2,-8.760452E-2,9.584046E-1,2.3546726E-2,7.5266466E-2,1.59077E-2,9.545261E-2,-7.8755125E-2,9.8917425E-2],"categories":[],"categories_nodes":[],"categories_segments":[],"categories_sizes":[],"default_left":[0,0,0,0,0,0,0,0,0,0,0,0,0,0,0,0,0,0,0,0,0],"id":30,"left_children":[1,3,5,7,9,11,13,-1,15,-1,17,-1,-1,-1,19,-1,-1,-1,-1,-1,-1],"loss_changes":[2.2629945E2,3.9658714E1,6.725086E1,1.387854E1,1.1779684E1,2.0639238E1,2.1328522E1,0E0,1.1932421E-1,0E0,8.963461E-1,0E0,0E0,0E0,1.07487335E1,0E0,0E0,0E0,0E0,0E0,0E0],"parents":[2147483647,0,0,1,1,2,2,3,3,4,4,5,5,6,6,8,8,10,10,14,14],"right_children":[2,4,6,8,10,12,14,-1,16,-1,18,-1,-1,-1,20,-1,-1,-1,-1,-1,-1],"split_conditions":[9.977356E-1,1.9226344E0,5.288921E-1,2.7485623E0,7.120911E-1,2.3261697E0,3.2337046E-1,-1.0278995E-1,1.7040843E0,-8.536668E-2,1.0985824E0,-1.0522207E-1,8.323301E-2,-8.760452E-2,3.5225306E-2,2.3546726E-2,7.5266466E-2,1.59077E-2,9.545261E-2,-7.8755125E-2,9.8917425E-2],"split_indices":[12,21,21,26,20,3,27,0,5,0,15,0,0,0,17,0,0,0,0,0,0],"split_type":[0,0,0,0,0,0,0,0,0,0,0,0,0,0,0,0,0,0,0,0,0],"sum_hessian":[4.0905408E2,1.865143E2,2.2253976E2,1.661456E2,2.0368702E1,3.2144436E1,1.9039532E2,1.6146132E2,4.68428E0,4.3097005E0,1.6059002E1,2.5511106E1,6.633329E0,5.817987E0,1.8457735E2,1.9647574E0,2.7195225E0,2.059204E0,1.3999797E1,2.7706034E0,1.8180673E2],"tree_param":{"num_deleted":"0","num_feature":"30","num_nodes":"21","size_leaf_vector":"1"}},{"base_weights":[-7.2675445E-3,-7.3931956E-1,7.392227E-1,-9.587256E-1,5.2347124E-1,-9.549774E-2,8.829056E-1,-1.017017E0,7.44363E-2,-8.875204E-2,9.201789E-1,-3.837222E-1,9.7181916E-1,-1.0320695E-1,4.2129356E-2,2.1028696E-2,9.6884646E-2,-9.625113E-2,7.9672895E-2,-6.722725E-2,9.947252E-2],"categories":[],"categories_nodes":[],"categories_segments":[],"categories_sizes":[],"default_left":[0,0,0,0,0,0,0,0,0,0,0,0,0,0,0,0,0,0,0,0,0],"id":31,"left_children":[1,3,5,7,9,-1,11,13,-1,-1,15,17,19,-1,-1,-1,-1,-1,-1,-1,-1],"loss_changes":[2.051015E2,5.300216E1,4.6079994E1,1.6818985E1,1.6879457E1,0E0,1.9723816E1,3.8308258E0,0E0,0E0,5.870743E-1,8.956989E0,6.7257996E0,0E0,0E0,0E0,0E0,0E0,0E0,0E0,0E0],"parents":[2147483647,0,0,1,1,2,2,3,3,4,4,6,6,7,7,10,10,11,11,12,12],"right_children":[2,4,6,8,10,-1,12,14,-1,-1,16,18,20,-1,-1,-1,-1,-1,-1,-1,-1],"split_conditions":[1.151259E0,1.7748975E0,3.2337046E-1,3.0498466E0,1.3371905E0,-9.549774E-2,3.4416577E-1,2.9491277E0,7.44363E-2,-8.875204E-2,7.4865425E-1,2.3918762E0,-7.635226E-2,-1.0320695E-1,4.2129356E-2,2.1028696E-2,9.6884646E-2,-9.625113E-2,7.9672895E-2,-6.722725E-2,9.947252E-2],"split_indices":[23,15,27,14,9,0,8,28,0,0,18,26,12,0,0,0,0,0,0,0,0],"split_type":[0,0,0,0,0,0,0,0,0,0,0,0,0,0,0,0,0,0,0,0,0],"sum_hessian":[3.7332083E2,1.8848804E2,1.848328E2,1.6079175E2,2.7696283E1,1.4008523E1,1.7082428E2,1.5585999E2,4.9317646E0,5.8065605E0,2.1889723E1,1.0987328E1,1.5983694E2,1.5452527E2,1.3347113E0,1.7457732E0,2.014395E1,7.4963856E0,3.4909425E0,1.8067657E0,1.5803018E2],"tree_param":{"num_deleted":"0","num_feature":"30","num_nodes":"21","size_leaf_vector":"1"}},{"base_weights":[-7.410303E-3,-7.393832E-1,7.3381674E-1,-9.699987E-1,5.1903576E-1,-9.492408E-2,8.824779E-1,-1.013723E0,6.873825E-2,-8.727616E-2,8.862142E-1,-8.694058E-2,9.4845015E-1,-1.0287567E-1,4.5956604E-2,5.5879834E-3,9.622212E-2,-7.4043185E-2,9.800435E-2],"categories":[],"categories_nodes":[],"categories_segments":[],"categories_sizes":[],"default_left":[0,0,0,0,0,0,0,0,0,0,0,0,0,0,0,0,0,0,0],"id":32,"left_children":[1,3,5,7,9,-1,11,13,-1,-1,15,-1,17,-1,-1,-1,-1,-1,-1],"loss_changes":[1.8576433E2,5.0496178E1,4.3403244E1,1.1272232E1,1.4740561E1,0E0,1.8950798E1,3.6309052E0,0E0,0E0,1.3423672E0,0E0,8.81572E0,0E0,0E0,0E0,0E0,0E0,0E0],"parents":[2147483647,0,0,1,1,2,2,3,3,4,4,6,6,7,7,10,10,12,12],"right_children":[2,4,6,8,10,-1,12,14,-1,-1,16,-1,18,-1,-1,-1,-1,-1,-1],"split_conditions":[1.0834435E0,1.7619137E0,3.2337046E-1,2.714413E0,1.0020188E0,-9.492408E-2,1.775128E-1,3.0989256E0,6.873825E-2,-8.727616E-2,7.3286146E-1,-8.694058E-2,-2.0995508E-1,-1.0287567E-1,4.5956604E-2,5.5879834E-3,9.622212E-2,-7.4043185E-2,9.800435E-2],"split_indices":[4,14,27,1,2,0,12,12,0,0,9,0,10,0,0,0,0,0,0],"split_type":[0,0,0,0,0,0,0,0,0,0,0,0,0,0,0,0,0,0,0],"sum_hessian":[3.4038602E2,1.7126335E2,1.6912267E2,1.449325E2,2.6330862E1,1.3288823E1,1.5583385E2,1.415856E2,3.3468947E0,5.209021E0,2.1121841E1,5.21344E0,1.506204E2,1.4045412E2,1.1314894E0,1.9168198E0,1.920502E1,2.353861E0,1.4826654E2],"tree_param":{"num_deleted":"0","num_feature":"30","num_nodes":"19","size_leaf_vector":"1"}},{"base_weights":[-7.871254E-3,-6.703603E-1,8.0451494E-1,-9.7097033E-1,4.7981134E-1,-9.056138E-2,9.149601E-1,-1.0278267E-1,6.5970585E-2,-9.105291E-2,8.7567335E-1,-7.69237E-2,9.5941895E-1,-7.8118205E-2,7.582532E-2,-5.637467E-2,9.590035E-2,-6.546838E-2,9.8584615E-2],"categories":[],"categories_nodes":[],"categories_segments":[],"categories_sizes":[],"default_left":[0,0,0,0,0,0,0,0,0,0,0,0,0,0,0,0,0,0,0],"id":33,"left_children":[1,3,5,7,9,-1,11,-1,13,-1,15,-1,17,-1,-1,-1,-1,-1,-1],"loss_changes":[1.6822542E2,5.9991966E1,2.7347961E1,8.134323E0,2.0799633E1,0E0,1.0650757E1,0E0,5.314426E0,0E0,3.9948654E0,0E0,6.16626E0,0E0,0E0,0E0,0E0,0E0,0E0],"parents":[2147483647,0,0,1,1,2,2,3,3,4,4,6,6,8,8,10,10,12,12],"right_children":[2,4,6,8,10,-1,12,-1,14,-1,16,-1,18,-1,-1,-1,-1,-1,-1],"split_conditions":[1.2766353E0,1.5611726E0,3.2337046E-1,2.0376205E0,1.0262636E0,-9.056138E-2,-1.1900823E-2,-1.0278267E-1,1.517076E0,-9.105291E-2,4.1242334E-1,-7.69237E-2,-2.0995508E-1,-7.8118205E-2,7.582532E-2,-5.637467E-2,9.590035E-2,-6.546838E-2,9.8584615E-2],"split_indices":[19,24,27,1,17,0,28,0,28,0,5,0,10,0,0,0,0,0,0],"split_type":[0,0,0,0,0,0,0,0,0,0,0,0,0,0,0,0,0,0,0],"sum_hessian":[3.1057013E2,1.7116356E2,1.3940657E2,1.3582104E2,3.534252E1,8.020335E0,1.3138623E2,1.2876932E2,7.0517335E0,7.5445504E0,2.779797E1,2.9598129E0,1.2842642E2,3.11341E0,3.9383237E0,1.2057071E0,2.6592262E1,1.6858573E0,1.2674056E2],"tree_param":{"num_deleted":"0","num_feature":"30","num_nodes":"19","size_leaf_vector":"1"}},{"base_weights":[-8.869364E-3,-8.619988E-1,6.1499727E-1,-9.966986E-1,3.0257148E-1,-6.9289243E-1,8.6965305E-1,-1.0134293E-1,3.8923014E-2,-8.126578E-2,8.520755E-2,-1.0287117E-1,6.6948545E-1,-8.5377745E-2,9.434581E-1,1.4716092E-2,7.979765E-2,-7.230377E-2,9.75963E-2],"categories":[],"categories_nodes":[],"categories_segments":[],"categories_sizes":[],"default_left":[0,0,0,0,0,0,0,0,0,0,0,0,0,0,0,0,0,0,0],"id":34,"left_children":[1,3,5,7,9,11,13,-1,-1,-1,-1,-1,15,-1,17,-1,-1,-1,-1],"loss_changes":[1.5174992E2,1.9192421E1,5.5456024E1,2.90271E0,8.81361E0,1.3223479E1,1.8396584E1,0E0,0E0,0E0,0E0,0E0,2.8684115E-1,0E0,7.915184E0,0E0,0E0,0E0,0E0],"parents":[2147483647,0,0,1,1,2,2,3,3,4,4,5,5,6,6,12,12,14,14],"right_children":[2,4,6,8,10,12,14,-1,-1,-1,-1,-1,16,-1,18,-1,-1,-1,-1],"split_conditions":[8.5089797E-1,1.8003991E0,5.288921E-1,3.1315687E0,1.3279659E0,2.036565E0,3.2337046E-1,-1.0134293E-1,3.8923014E-2,-8.126578E-2,8.520755E-2,-1.0287117E-1,1.1179593E0,-8.5377745E-2,-1.5674369E-1,1.4716092E-2,7.979765E-2,-7.230377E-2,9.75963E-2],"split_indices":[17,22,21,3,19,2,27,0,0,0,0,0,8,0,13,0,0,0,0],"split_type":[0,0,0,0,0,0,0,0,0,0,0,0,0,0,0,0,0,0,0],"sum_hessian":[2.8312012E2,1.19425545E2,1.6369456E2,1.0717349E2,1.2252055E1,2.6397648E1,1.3729692E2,1.0616072E2,1.0127729E0,3.8861485E0,8.365908E0,2.1373985E1,5.023664E0,5.2042336E0,1.3209268E2,1.4153743E0,3.60829E0,2.1207323E0,1.2997195E2],"tree_param":{"num_deleted":"0","num_feature":"30","num_nodes":"19","size_leaf_vector":"1"}},{"base_weights":[-9.391305E-3,-7.292978E-1,7.249172E-1,-9.3411505E-1,5.7672846E-1,-7.220382E-1,8.914552E-1,-1.0049453E0,6.277441E-1,-7.7545814E-2,9.070305E-1,-9.551334E-2,6.316338E-2,-8.026772E-2,9.5509034E-1,-1.01998724E-1,2.882499E-2,9.713747E-3,7.753212E-2,2.4850374E-2,9.4261535E-2,-5.9871104E-2,9.793531E-2],"categories":[],"categories_nodes":[],"categories_segments":[],"categories_sizes":[],"default_left":[0,0,0,0,0,0,0,0,0,0,0,0,0,0,0,0,0,0,0,0,0,0,0],"id":35,"left_children":[1,3,5,7,9,11,13,15,17,-1,19,-1,-1,-1,21,-1,-1,-1,-1,-1,-1,-1,-1],"loss_changes":[1.3764915E2,3.570819E1,3.1707611E1,1.3246124E1,8.940039E0,4.9759974E0,1.3277809E1,2.4234772E0,3.602705E-1,0E0,1.23874664E-1,0E0,0E0,0E0,4.8202972E0,0E0,0E0,0E0,0E0,0E0,0E0,0E0,0E0],"parents":[2147483647,0,0,1,1,2,2,3,3,4,4,5,5,6,6,7,7,8,8,10,10,14,14],"right_children":[2,4,6,8,10,12,14,16,18,-1,20,-1,-1,-1,22,-1,-1,-1,-1,-1,-1,-1,-1],"split_conditions":[1.151259E0,1.8457872E0,3.020575E-1,2.42188E0,1.2366784E0,2.7260342E0,2.9621047E-1,2.720961E0,1.8499717E0,-7.7545814E-2,1.2838426E0,-9.551334E-2,6.316338E-2,-8.026772E-2,-2.4157211E-1,-1.01998724E-1,2.882499E-2,9.713747E-3,7.753212E-2,2.4850374E-2,9.4261535E-2,-5.9871104E-2,9.793531E-2],"split_indices":[23,4,1,25,22,27,17,17,14,0,15,0,0,0,21,0,0,0,0,0,0,0,0],"split_type":[0,0,0,0,0,0,0,0,0,0,0,0,0,0,0,0,0,0,0,0,0,0,0],"sum_hessian":[2.5838666E2,1.3047626E2,1.2791041E2,1.1303443E2,1.744183E1,1.2858091E1,1.15052315E2,1.0847181E2,4.5626197E0,3.159555E0,1.4282274E1,1.1220409E1,1.6376815E0,3.7447104E0,1.1130761E2,1.0743345E2,1.0383582E0,1.3536934E0,3.2089262E0,1.1414896E0,1.3140785E1,1.3473345E0,1.0996027E2],"tree_param":{"num_deleted":"0","num_feature":"30","num_nodes":"23","size_leaf_vector":"1"}},{"base_weights":[-9.48916E-3,-8.3670986E-1,6.252582E-1,-9.968109E-1,3.642056E-1,-4.997215E-1,9.04363E-1,-1.0145654E-1,2.708133E-2,-7.8398846E-2,8.516573E-1,-9.83908E-2,5.016463E-1,-7.5007744E-2,9.560122E-1,2.3513792E-2,8.965751E-2,-6.4614974E-2,8.347835E-2,-5.5505823E-2,9.782577E-2],"categories":[],"categories_nodes":[],"categories_segments":[],"categories_sizes":[],"default_left":[0,0,0,0,0,0,0,0,0,0,0,0,0,0,0,0,0,0,0,0,0],"id":36,"left_children":[1,3,5,7,9,11,13,-1,-1,-1,15,-1,17,-1,19,-1,-1,-1,-1,-1,-1],"loss_changes":[1.2483985E2,2.0209366E1,4.2694855E1,2.3306046E0,7.8735685E0,1.3772349E1,9.958542E0,0E0,0E0,0E0,5.2737713E-2,0E0,4.2058625E0,0E0,4.0830994E0,0E0,0E0,0E0,0E0,0E0,0E0],"parents":[2147483647,0,0,1,1,2,2,3,3,4,4,5,5,6,6,10,10,12,12,14,14],"right_children":[2,4,6,8,10,12,14,-1,-1,-1,16,-1,18,-1,20,-1,-1,-1,-1,-1,-1],"split_conditions":[8.631402E-1,1.725579E0,7.3429877E-1,2.671581E0,1.2965443E0,1.3083943E0,3.2337046E-1,-1.0145654E-1,2.708133E-2,-7.8398846E-2,1.5082183E0,-9.83908E-2,1.1312633E0,-7.5007744E-2,-9.904726E-2,2.3513792E-2,8.965751E-2,-6.4614974E-2,8.347835E-2,-5.5505823E-2,9.782577E-2],"split_indices":[13,8,19,22,17,22,27,0,0,0,11,0,1,0,12,0,0,0,0,0,0],"split_type":[0,0,0,0,0,0,0,0,0,0,0,0,0,0,0,0,0,0,0,0,0],"sum_hessian":[2.3575935E2,1.0222225E2,1.3353711E2,9.034746E1,1.1874788E1,2.638746E1,1.0714964E2,8.92964E1,1.051057E0,3.357603E0,8.517185E0,1.7798752E1,8.588708E0,2.8344154E0,1.0431522E2,1.001801E0,7.5153847E0,1.7206752E0,6.868033E0,1.1659273E0,1.031493E2],"tree_param":{"num_deleted":"0","num_feature":"30","num_nodes":"21","size_leaf_vector":"1"}},{"base_weights":[-1.0171206E-2,-7.5448567E-1,6.905458E-1,-9.952501E-1,3.807362E-1,-7.36183E-1,8.615711E-1,-1.01261534E-1,2.4895541E-2,-8.3955914E-2,8.4455276E-1,-9.418998E-2,5.5751264E-2,-5.83631E-1,9.340218E-1,7.2700216E-4,9.278497E-2,-8.0337815E-2,1.8986197E-2,-6.1704993E-2,9.656125E-2],"categories":[],"categories_nodes":[],"categories_segments":[],"categories_sizes":[],"default_left":[0,0,0,0,0,0,0,0,0,0,0,0,0,0,0,0,0,0,0,0,0],"id":37,"left_children":[1,3,5,7,9,11,13,-1,-1,-1,15,-1,-1,17,19,-1,-1,-1,-1,-1,-1],"loss_changes":[1.1321829E2,2.9148205E1,2.7919521E1,2.134346E0,1.1542698E1,3.854136E0,1.1048477E1,0E0,0E0,0E0,9.953165E-1,0E0,0E0,1.0711056E0,5.295311E0,0E0,0E0,0E0,0E0,0E0,0E0],"parents":[2147483647,0,0,1,1,2,2,3,3,4,4,5,5,6,6,10,10,13,13,14,14],"right_children":[2,4,6,8,10,12,14,-1,-1,-1,16,-1,-1,18,20,-1,-1,-1,-1,-1,-1],"split_conditions":[1.143683E0,1.5464965E0,1.7935237E-1,2.671581E0,1.1401114E0,2.5544796E0,3.6712106E-2,-1.01261534E-1,2.4895541E-2,-8.3955914E-2,1.0178225E0,-9.418998E-2,5.5751264E-2,1.1564714E0,8.475366E-2,7.2700216E-4,9.278497E-2,-8.0337815E-2,1.8986197E-2,-6.1704993E-2,9.656125E-2],"split_indices":[27,8,2,22,10,8,9,0,0,0,23,0,0,6,3,0,0,0,0,0,0],"split_type":[0,0,0,0,0,0,0,0,0,0,0,0,0,0,0,0,0,0,0,0,0],"sum_hessian":[2.1507988E2,1.0425819E2,1.1082169E2,8.611724E1,1.8140945E1,1.1508753E1,9.931294E1,8.511543E1,1.0018115E0,4.773037E0,1.3367908E1,1.0164394E1,1.3443582E0,4.404242E0,9.49087E1,1.3079504E0,1.20599575E1,3.399747E0,1.004495E0,1.5245079E0,9.338419E1],"tree_param":{"num_deleted":"0","num_feature":"30","num_nodes":"21","size_leaf_vector":"1"}},{"base_weights":[-1.08299805E-2,-6.7716163E-1,7.660263E-1,-9.2960197E-1,5.45777E-1,-8.67211E-2,8.907024E-1,-1.01258576E-1,3.747516E-1,-7.799151E-2,8.5928786E-1,-7.157883E-2,9.446213E-1,-5.934606E-2,7.8994386E-2,3.360649E-4,9.300803E-2,-5.5462252E-2,9.72146E-2],"categories":[],"categories_nodes":[],"categories_segments":[],"categories_sizes":[],"default_left":[0,0,0,0,0,0,0,0,0,0,0,0,0,0,0,0,0,0,0],"id":38,"left_children":[1,3,5,7,9,-1,11,-1,13,-1,15,-1,17,-1,-1,-1,-1,-1,-1],"loss_changes":[1.02727394E2,3.3483612E1,1.9431343E1,1.0003082E1,8.528101E0,0E0,8.093239E0,0E0,2.9000742E0,0E0,9.5220566E-1,0E0,3.9757538E0,0E0,0E0,0E0,0E0,0E0,0E0],"parents":[2147483647,0,0,1,1,2,2,3,3,4,4,6,6,8,8,10,10,12,12],"right_children":[2,4,6,8,10,-1,12,-1,14,-1,16,-1,18,-1,-1,-1,-1,-1,-1],"split_conditions":[1.223856E0,1.7619137E0,3.2337046E-1,2.1885815E0,7.470389E-1,-8.67211E-2,1.775128E-1,-1.01258576E-1,1.6392565E0,-7.799151E-2,7.6825386E-1,-7.157883E-2,-2.0995508E-1,-5.934606E-2,7.8994386E-2,3.360649E-4,9.300803E-2,-5.5462252E-2,9.72146E-2],"split_indices":[4,14,27,1,28,0,12,0,25,0,1,0,10,0,0,0,0,0,0],"split_type":[0,0,0,0,0,0,0,0,0,0,0,0,0,0,0,0,0,0,0],"sum_hessian":[1.9644977E2,1.0581638E2,9.063338E1,8.7909805E1,1.7906576E1,6.005576E0,8.46278E1,8.286178E1,5.048031E0,3.1402469E0,1.476633E1,2.3495212E0,8.227828E1,1.3861707E0,3.66186E0,1.2080206E0,1.355831E1,1.1380821E0,8.11402E1],"tree_param":{"num_deleted":"0","num_feature":"30","num_nodes":"19","size_leaf_vector":"1"}},{"base_weights":[-1.1781651E-2,-6.587098E-1,7.836371E-1,-9.5315236E-1,4.5979217E-1,-8.29518E-2,8.9084935E-1,-1.0098366E-1,4.75412E-2,-8.286083E-2,8.3615005E-1,-4.5686522E-1,9.485341E-1,-6.660103E-2,6.51895E-2,-1.1813606E-2,9.252109E-2,-6.616363E-2,5.8934707E-3,-1.951853E-2,9.7669244E-2],"categories":[],"categories_nodes":[],"categories_segments":[],"categories_sizes":[],"default_left":[0,0,0,0,0,0,0,0,0,0,0,0,0,0,0,0,0,0,0,0,0],"id":39,"left_children":[1,3,5,7,9,-1,11,-1,13,-1,15,17,19,-1,-1,-1,-1,-1,-1,-1,-1],"loss_changes":[9.325581E1,3.3349503E1,1.4798378E1,4.553734E0,1.1117926E1,0E0,6.3968163E0,0E0,2.6823452E0,0E0,1.5657425E0,4.4282418E-1,2.5701141E0,0E0,0E0,0E0,0E0,0E0,0E0,0E0,0E0],"parents":[2147483647,0,0,1,1,2,2,3,3,4,4,6,6,8,8,10,10,11,11,12,12],"right_children":[2,4,6,8,10,-1,12,-1,14,-1,16,18,20,-1,-1,-1,-1,-1,-1,-1,-1],"split_conditions":[1.2766353E0,1.5611726E0,3.2337046E-1,2.0376205E0,1.0262636E0,-8.29518E-2,7.033287E-2,-1.0098366E-1,1.270885E0,-8.286083E-2,6.042381E-1,4.8843035E-1,1.712338E-1,-6.660103E-2,6.51895E-2,-1.1813606E-2,9.252109E-2,-6.616363E-2,5.8934707E-3,-1.951853E-2,9.7669244E-2],"split_indices":[19,24,27,1,17,0,23,0,26,0,5,4,2,0,0,0,0,0,0,0,0],"split_type":[0,0,0,0,0,0,0,0,0,0,0,0,0,0,0,0,0,0,0,0,0],"sum_hessian":[1.7922433E2,9.893259E1,8.0291756E1,7.843312E1,2.0499466E1,4.583878E0,7.570788E1,7.42198E1,4.2133126E0,4.3627267E0,1.6136738E1,2.8234E0,7.2884476E1,1.8853216E0,2.3279912E0,1.3495749E0,1.4787164E1,1.8186594E0,1.0047406E0,1.6087716E0,7.12757E1],"tree_param":{"num_deleted":"0","num_feature":"30","num_nodes":"21","size_leaf_vector":"1"}},{"base_weights":[-1.2697786E-2,-7.60953E-1,6.698527E-1,-9.8985153E-1,3.003922E-1,-6.029326E-1,8.898069E-1,-1.00512445E-1,-3.4745622E-3,-8.092674E-2,7.7354836E-1,-9.165629E-2,4.9462634E-1,-7.134228E-2,9.4494116E-1,-1.0047768E-2,8.917666E-2,8.218136E-3,6.2333222E-2,-2.1224001E-2,9.73688E-2],"categories":[],"categories_nodes":[],"categories_segments":[],"categories_sizes":[],"default_left":[0,0,0,0,0,0,0,0,0,0,0,0,0,0,0,0,0,0,0,0,0],"id":40,"left_children":[1,3,5,7,9,11,13,-1,-1,-1,15,-1,17,-1,19,-1,-1,-1,-1,-1,-1],"loss_changes":[8.4624596E1,1.9498268E1,2.4798023E1,9.168587E-1,8.390678E0,5.054215E0,7.24144E0,0E0,0E0,0E0,1.2136965E0,0E0,1.409365E-1,0E0,2.6102982E0,0E0,0E0,0E0,0E0,0E0,0E0],"parents":[2147483647,0,0,1,1,2,2,3,3,4,4,5,5,6,6,10,10,12,12,14,14],"right_children":[2,4,6,8,10,12,14,-1,-1,-1,16,-1,18,-1,20,-1,-1,-1,-1,-1,-1],"split_conditions":[9.5264935E-1,1.521595E0,7.5808E-1,2.380538E0,1.2030605E0,1.8190229E0,-2.0350167E-1,-1.00512445E-1,-3.4745622E-3,-8.092674E-2,9.311891E-1,-9.165629E-2,1.4171171E0,-7.134228E-2,5.555237E-2,-1.0047768E-2,8.917666E-2,8.218136E-3,6.2333222E-2,-2.1224001E-2,9.73688E-2],"split_indices":[8,6,16,7,27,3,23,0,0,0,19,0,13,0,17,0,0,0,0,0,0],"split_type":[0,0,0,0,0,0,0,0,0,0,0,0,0,0,0,0,0,0,0,0,0],"sum_hessian":[1.6369798E2,7.803557E1,8.5662415E1,6.424691E1,1.3788659E1,1.2365742E1,7.329668E1,6.3184166E1,1.0627394E0,3.9095376E0,9.879122E0,9.745771E0,2.619971E0,2.039883E0,7.125679E1,1.1949002E0,8.684221E0,1.0128282E0,1.6071428E0,1.5725348E0,6.968426E1],"tree_param":{"num_deleted":"0","num_feature":"30","num_nodes":"21","size_leaf_vector":"1"}},{"base_weights":[-1.3389964E-2,-7.8290284E-1,6.423714E-1,-9.5241994E-1,4.0605426E-1,-6.716975E-1,8.642035E-1,-9.970865E-2,1.675093E-1,-6.881713E-2,8.2303666E-2,-9.540643E-2,6.024445E-2,-7.12093E-2,9.301926E-1,-1.4236325E-2,4.25527E-2,-5.2998424E-2,9.6146695E-2],"categories":[],"categories_nodes":[],"categories_segments":[],"categories_sizes":[],"default_left":[0,0,0,0,0,0,0,0,0,0,0,0,0,0,0,0,0,0,0],"id":41,"left_children":[1,3,5,7,9,11,13,-1,15,-1,-1,-1,-1,-1,17,-1,-1,-1,-1],"loss_changes":[7.649183E1,1.4441761E1,2.4440609E1,3.2350578E0,4.856722E0,5.0304723E0,7.992298E0,0E0,3.171056E-1,0E0,0E0,0E0,0E0,0E0,3.6180382E0,0E0,0E0,0E0,0E0],"parents":[2147483647,0,0,1,1,2,2,3,3,4,4,5,5,6,6,8,8,14,14],"right_children":[2,4,6,8,10,12,14,-1,16,-1,-1,-1,-1,-1,18,-1,-1,-1,-1],"split_conditions":[1.0085638E0,1.7193779E0,3.4876427E-1,2.244075E0,1.3667271E0,2.3261697E0,3.2337046E-1,-9.970865E-2,1.49321E0,-6.881713E-2,8.2303666E-2,-9.540643E-2,6.024445E-2,-7.12093E-2,-2.5895885E-1,-1.4236325E-2,4.25527E-2,-5.2998424E-2,9.6146695E-2],"split_indices":[12,18,5,26,22,3,27,0,6,0,0,0,0,0,9,0,0,0,0],"split_type":[0,0,0,0,0,0,0,0,0,0,0,0,0,0,0,0,0,0,0],"sum_hessian":[1.4958737E2,6.8735176E1,8.085219E1,6.033218E1,8.402996E0,1.138468E1,6.946751E1,5.8123703E1,2.2084785E0,2.1391578E0,6.2638383E0,9.52502E0,1.8596603E0,2.397874E0,6.706963E1,1.2070658E0,1.0014126E0,1.0720105E0,6.599762E1],"tree_param":{"num_deleted":"0","num_feature":"30","num_nodes":"19","size_leaf_vector":"1"}},{"base_weights":[-1.420107E-2,-7.6885456E-1,6.510684E-1,-9.630069E-1,4.406728E-1,-5.9282994E-1,8.851073E-1,-9.959157E-2,4.0345456E-2,-6.822469E-2,8.356035E-2,-9.378351E-2,6.1138876E-2,-6.469544E-2,9.40625E-1,-2.151491E-2,9.714156E-2],"categories":[],"categories_nodes":[],"categories_segments":[],"categories_sizes":[],"default_left":[0,0,0,0,0,0,0,0,0,0,0,0,0,0,0,0,0],"id":42,"left_children":[1,3,5,7,9,11,13,-1,-1,-1,-1,-1,-1,-1,15,-1,-1],"loss_changes":[6.964308E1,1.5684792E1,2.1990992E1,2.9339676E0,4.8604755E0,5.6733646E0,5.921276E0,0E0,0E0,0E0,0E0,0E0,0E0,0E0,2.368576E0,0E0,0E0],"parents":[2147483647,0,0,1,1,2,2,3,3,4,4,5,5,6,6,14,14],"right_children":[2,4,6,8,10,12,14,-1,-1,-1,-1,-1,-1,-1,16,-1,-1],"split_conditions":[9.6055126E-1,1.8060892E0,5.7798374E-1,3.0914536E0,1.1712881E0,2.1577303E0,-5.4139357E-2,-9.959157E-2,4.0345456E-2,-6.822469E-2,8.356035E-2,-9.378351E-2,6.1138876E-2,-6.469544E-2,1.712338E-1,-2.151491E-2,9.714156E-2],"split_indices":[10,14,19,11,23,4,12,0,0,0,0,0,0,0,2,0,0],"split_type":[0,0,0,0,0,0,0,0,0,0,0,0,0,0,0,0,0],"sum_hessian":[1.3672093E2,6.398423E1,7.27367E1,5.5309765E1,8.674465E0,1.1275461E1,6.146124E1,5.4273853E1,1.0359136E0,2.0677242E0,6.606741E0,8.936414E0,2.339048E0,1.776763E0,5.9684475E1,1.3933995E0,5.8291077E1],"tree_param":{"num_deleted":"0","num_feature":"30","num_nodes":"17","size_leaf_vector":"1"}},{"base_weights":[-1.4632939E-2,-6.6974515E-1,7.482924E-1,-9.1659874E-1,5.0284547E-1,-4.0090433E-1,9.209033E-1,-9.9802256E-2,3.2166955E-1,-6.915757E-2,8.120482E-1,-8.498725E-2,6.6505864E-2,-2.7151773E-2,9.602243E-1,-2.4707787E-2,6.594228E-2,1.460168E-2,8.893769E-2,1.4461911E-2,9.7889036E-2],"categories":[],"categories_nodes":[],"categories_segments":[],"categories_sizes":[],"default_left":[0,0,0,0,0,0,0,0,0,0,0,0,0,0,0,0,0,0,0,0,0],"id":43,"left_children":[1,3,5,7,9,11,13,-1,15,-1,17,-1,-1,-1,19,-1,-1,-1,-1,-1,-1],"loss_changes":[6.3405476E1,2.021396E1,1.1996712E1,6.0406E0,5.1830664E0,4.562024E0,2.6644173E0,0E0,9.8055136E-1,0E0,4.057808E-1,0E0,0E0,0E0,6.1735153E-1,0E0,0E0,0E0,0E0,0E0,0E0],"parents":[2147483647,0,0,1,1,2,2,3,3,4,4,5,5,6,6,8,8,10,10,14,14],"right_children":[2,4,6,8,10,12,14,-1,16,-1,18,-1,-1,-1,20,-1,-1,-1,-1,-1,-1],"split_conditions":[1.223856E0,1.7619137E0,7.164211E-1,2.1885815E0,7.470389E-1,2.2271893E0,-2.657664E-2,-9.9802256E-2,1.6104847E0,-6.915757E-2,1.0764444E0,-8.498725E-2,6.6505864E-2,-2.7151773E-2,2.95851E-1,-2.4707787E-2,6.594228E-2,1.460168E-2,8.893769E-2,1.4461911E-2,9.7889036E-2],"split_indices":[4,14,17,1,28,5,22,0,23,0,21,0,0,0,21,0,0,0,0,0,0],"split_type":[0,0,0,0,0,0,0,0,0,0,0,0,0,0,0,0,0,0,0,0,0],"sum_hessian":[1.2485854E2,6.724147E1,5.7617077E1,5.5727943E1,1.1513524E1,7.3513317E0,5.0265747E1,5.2471626E1,3.2563167E0,2.1133208E0,9.400203E0,5.3153157E0,2.0360157E0,1.416123E0,4.884962E1,1.3132995E0,1.943017E0,1.278319E0,8.121884E0,1.28869E0,4.7560932E1],"tree_param":{"num_deleted":"0","num_feature":"30","num_nodes":"21","size_leaf_vector":"1"}},{"base_weights":[-1.4151449E-2,-7.072733E-1,7.002968E-1,-9.2053914E-1,4.8139375E-1,-5.898631E-1,8.7462753E-1,-9.784177E-1,5.173511E-2,-6.489287E-2,8.207815E-2,-8.5942246E-2,5.2064486E-2,-6.081449E-2,9.32787E-1,-9.9384926E-2,-1.2373923E-2,-1.8552942E-2,9.606233E-2],"categories":[],"categories_nodes":[],"categories_segments":[],"categories_sizes":[],"default_left":[0,0,0,0,0,0,0,0,0,0,0,0,0,0,0,0,0,0,0],"id":44,"left_children":[1,3,5,7,9,11,13,15,-1,-1,-1,-1,-1,-1,17,-1,-1,-1,-1],"loss_changes":[5.752264E1,1.5387112E1,1.338332E1,4.6944504E0,4.2246666E0,2.6648545E0,4.9483643E0,5.196457E-1,0E0,0E0,0E0,0E0,0E0,0E0,1.7122955E0,0E0,0E0,0E0,0E0],"parents":[2147483647,0,0,1,1,2,2,3,3,4,4,5,5,6,6,7,7,14,14],"right_children":[2,4,6,8,10,12,14,16,-1,-1,-1,-1,-1,-1,18,-1,-1,-1,-1],"split_conditions":[1.151259E0,1.7748975E0,3.5833406E-1,3.0498466E0,1.3371905E0,2.7260342E0,2.9621047E-1,2.184937E0,5.173511E-2,-6.489287E-2,8.207815E-2,-8.5942246E-2,5.2064486E-2,-6.081449E-2,-1.386923E-1,-9.9384926E-2,-1.2373923E-2,-1.8552942E-2,9.606233E-2],"split_indices":[23,15,1,14,9,27,17,2,0,0,0,0,0,0,26,0,0,0,0],"split_type":[0,0,0,0,0,0,0,0,0,0,0,0,0,0,0,0,0,0,0],"sum_hessian":[1.1416029E2,5.7950077E1,5.6210217E1,4.932581E1,8.624267E0,6.4074397E0,4.9802776E1,4.7724335E1,1.601473E0,1.7809155E0,6.843351E0,5.3378544E0,1.0695852E0,1.5227917E0,4.8279984E1,4.6717987E1,1.0063481E0,1.0349784E0,4.7245007E1],"tree_param":{"num_deleted":"0","num_feature":"30","num_nodes":"19","size_leaf_vector":"1"}},{"base_weights":[-1.4626832E-2,-6.428833E-1,7.6916564E-1,-8.9877903E-1,6.3226426E-1,-7.576894E-2,8.7730443E-1,-9.777609E-1,3.662351E-1,-5.4189365E-2,8.371989E-1,-2.9905874E-1,9.4476193E-1,-9.9039756E-2,-1.9975618E-2,-1.5816692E-3,5.778718E-2,2.3801733E-2,8.822899E-2,-5.609857E-2,1.3537981E-2,8.23632E-3,9.696246E-2],"categories":[],"categories_nodes":[],"categories_segments":[],"categories_sizes":[],"default_left":[0,0,0,0,0,0,0,0,0,0,0,0,0,0,0,0,0,0,0,0,0,0,0],"id":45,"left_children":[1,3,5,7,9,-1,11,13,15,-1,17,19,21,-1,-1,-1,-1,-1,-1,-1,-1,-1,-1],"loss_changes":[5.2420975E1,1.9845676E1,8.48661E0,5.3154488E0,2.9709086E0,0E0,3.8299484E0,2.6397324E-1,3.0372316E-1,0E0,4.125309E-2,4.3825793E-1,8.318176E-1,0E0,0E0,0E0,0E0,0E0,0E0,0E0,0E0,0E0,0E0],"parents":[2147483647,0,0,1,1,2,2,3,3,4,4,6,6,7,7,8,8,10,10,11,11,12,12],"right_children":[2,4,6,8,10,-1,12,14,16,-1,18,20,22,-1,-1,-1,-1,-1,-1,-1,-1,-1,-1],"split_conditions":[1.4208277E0,1.8833483E0,8.5896134E-2,2.115434E0,8.980506E-1,-7.576894E-2,2.365213E-1,2.1106477E0,2.2329571E0,-5.4189365E-2,1.3295343E0,5.2181506E-1,1.7935237E-1,-9.9039756E-2,-1.9975618E-2,-1.5816692E-3,5.778718E-2,2.3801733E-2,8.822899E-2,-5.609857E-2,1.3537981E-2,8.23632E-3,9.696246E-2],"split_indices":[17,5,9,25,13,0,14,18,6,0,21,26,2,0,0,0,0,0,0,0,0,0,0],"split_type":[0,0,0,0,0,0,0,0,0,0,0,0,0,0,0,0,0,0,0,0,0,0,0],"sum_hessian":[1.0445105E2,5.807791E1,4.637314E1,4.8616703E1,9.461209E0,2.6698472E0,4.370329E1,4.5973404E1,2.6432984E0,1.1616123E0,8.299597E0,2.184007E0,4.1519283E1,4.4969986E1,1.0034188E0,1.2721132E0,1.3711852E0,1.0202905E0,7.2793064E0,1.1808019E0,1.0032051E0,1.2842958E0,4.0234985E1],"tree_param":{"num_deleted":"0","num_feature":"30","num_nodes":"23","size_leaf_vector":"1"}},{"base_weights":[-1.4665427E-2,-7.47819E-1,6.547085E-1,-9.70455E-1,2.7517217E-1,-5.604121E-1,8.687305E-1,-9.862732E-2,-1.9233309E-2,-7.035071E-2,7.087046E-1,-8.5507296E-2,4.101482E-2,-3.243496E-1,9.436352E-1,5.9896545E-3,8.265422E-2,-5.9523344E-2,1.5370652E-2,8.701972E-3,9.686485E-2],"categories":[],"categories_nodes":[],"categories_segments":[],"categories_sizes":[],"default_left":[0,0,0,0,0,0,0,0,0,0,0,0,0,0,0,0,0,0,0,0,0],"id":46,"left_children":[1,3,5,7,9,11,13,-1,-1,-1,15,-1,-1,17,19,-1,-1,-1,-1,-1,-1],"loss_changes":[4.793049E1,1.0881201E1,1.3767174E1,2.8412247E-1,4.36331E0,2.7115996E0,4.2213097E0,0E0,0E0,0E0,4.711914E-1,0E0,0E0,5.2301157E-1,8.044548E-1,0E0,0E0,0E0,0E0,0E0,0E0],"parents":[2147483647,0,0,1,1,2,2,3,3,4,4,5,5,6,6,10,10,13,13,14,14],"right_children":[2,4,6,8,10,12,14,-1,-1,-1,16,-1,-1,18,20,-1,-1,-1,-1,-1,-1],"split_conditions":[9.5264935E-1,1.521595E0,7.5808E-1,2.1133997E0,1.2030605E0,1.8190229E0,2.7424425E-1,-9.862732E-2,-1.9233309E-2,-7.035071E-2,1.5947813E0,-8.5507296E-2,4.101482E-2,5.800967E-1,2.9621047E-1,5.9896545E-3,8.265422E-2,-5.9523344E-2,1.5370652E-2,8.701972E-3,9.686485E-2],"split_indices":[8,6,16,11,27,3,23,0,0,0,16,0,0,24,17,0,0,0,0,0,0],"split_type":[0,0,0,0,0,0,0,0,0,0,0,0,0,0,0,0,0,0,0,0,0],"sum_hessian":[9.5669395E1,4.5603493E1,5.0065903E1,3.7494774E1,8.10872E0,7.255269E0,4.2810635E1,3.6485565E1,1.0092083E0,2.2981105E0,5.81061E0,5.6568475E0,1.5984212E0,2.3322625E0,4.047837E1,1.1249559E0,4.6856537E0,1.3322496E0,1.0000128E0,1.275514E0,3.9202858E1],"tree_param":{"num_deleted":"0","num_feature":"30","num_nodes":"21","size_leaf_vector":"1"}},{"base_weights":[-1.53793655E-2,-7.352806E-1,6.590036E-1,-9.6600056E-1,3.2249618E-1,-5.566673E-1,8.507507E-1,-9.8264754E-2,-1.9501675E-2,-6.769888E-2,7.4461865E-1,-8.3906256E-2,4.3872714E-2,-4.379413E-2,9.178291E-1,2.1827124E-2,8.166057E-2,-7.3172557E-3,9.512006E-2],"categories":[],"categories_nodes":[],"categories_segments":[],"categories_sizes":[],"default_left":[0,0,0,0,0,0,0,0,0,0,0,0,0,0,0,0,0,0,0],"id":47,"left_children":[1,3,5,7,9,11,13,-1,-1,-1,15,-1,-1,-1,17,-1,-1,-1,-1],"loss_changes":[4.3538433E1,1.0894972E1,1.1269825E1,2.6850128E-1,4.0965586E0,2.3117585E0,3.8943672E0,0E0,0E0,0E0,6.663203E-2,0E0,0E0,0E0,1.3502922E0,0E0,0E0,0E0,0E0],"parents":[2147483647,0,0,1,1,2,2,3,3,4,4,5,5,6,6,10,10,14,14],"right_children":[2,4,6,8,10,12,14,-1,-1,-1,16,-1,-1,-1,18,-1,-1,-1,-1],"split_conditions":[1.143683E0,1.5464965E0,4.9657556E-1,2.1542585E0,1.1401114E0,1.8411832E0,2.0048264E-1,-9.8264754E-2,-1.9501675E-2,-6.769888E-2,1.3975426E0,-8.3906256E-2,4.3872714E-2,-4.379413E-2,4.8142526E-2,2.1827124E-2,8.166057E-2,-7.3172557E-3,9.512006E-2],"split_indices":[27,8,22,23,10,28,12,0,0,0,1,0,0,0,28,0,0,0,0],"split_type":[0,0,0,0,0,0,0,0,0,0,0,0,0,0,0,0,0,0,0],"sum_hessian":[8.768146E1,4.2365814E1,4.5315643E1,3.485096E1,7.5148525E0,5.914534E0,3.9401108E1,3.384563E1,1.0053289E0,2.052129E0,5.4627233E0,4.72975E0,1.1847836E0,1.6758751E0,3.7725235E1,1.1423433E0,4.32038E0,1.1901374E0,3.6535095E1],"tree_param":{"num_deleted":"0","num_feature":"30","num_nodes":"19","size_leaf_vector":"1"}},{"base_weights":[-1.6121693E-2,-8.062452E-1,5.92995E-1,-9.581229E-1,2.751393E-1,-4.5899987E-1,8.6757064E-1,-9.7729005E-2,-1.8964937E-2,-5.6151308E-2,6.858772E-2,-8.774709E-2,4.05934E-1,-3.5455905E-2,9.222462E-1,-8.326086E-3,6.453409E-2,-1.9328889E-3,9.535487E-2],"categories":[],"categories_nodes":[],"categories_segments":[],"categories_sizes":[],"default_left":[0,0,0,0,0,0,0,0,0,0,0,0,0,0,0,0,0,0,0],"id":48,"left_children":[1,3,5,7,9,11,13,-1,-1,-1,-1,-1,15,-1,17,-1,-1,-1,-1],"loss_changes":[3.967657E1,6.1563454E0,1.3849358E1,2.8134155E-1,2.1705222E0,4.0816083E0,2.81773E0,0E0,0E0,0E0,0E0,0E0,5.2685356E-1,0E0,1.0781975E0,0E0,0E0,0E0,0E0],"parents":[2147483647,0,0,1,1,2,2,3,3,4,4,5,5,6,6,12,12,14,14],"right_children":[2,4,6,8,10,12,14,-1,-1,-1,-1,-1,16,-1,18,-1,-1,-1,-1],"split_conditions":[8.631402E-1,1.725579E0,7.3429877E-1,2.1177766E0,1.2965443E0,1.3083943E0,-2.0117473E-2,-9.7729005E-2,-1.8964937E-2,-5.6151308E-2,6.858772E-2,-8.774709E-2,2.1577303E0,-3.5455905E-2,4.2726025E-1,-8.326086E-3,6.453409E-2,-1.9328889E-3,9.535487E-2],"split_indices":[13,8,19,21,17,22,26,0,0,0,0,0,4,0,27,0,0,0,0],"split_type":[0,0,0,0,0,0,0,0,0,0,0,0,0,0,0,0,0,0,0],"sum_hessian":[8.044673E1,3.4879158E1,4.5567574E1,3.0683697E1,4.1954603E0,9.292624E0,3.6274952E1,2.9671896E1,1.0118008E0,1.2605993E0,2.934861E0,6.252874E0,3.0397508E0,1.3185017E0,3.4956448E1,1.2131225E0,1.8266284E0,1.1370354E0,3.3819412E1],"tree_param":{"num_deleted":"0","num_feature":"30","num_nodes":"19","size_leaf_vector":"1"}},{"base_weights":[-1.6907614E-2,-6.5399927E-1,7.2944546E-1,-8.980643E-1,4.6300778E-1,-3.8221332E-1,8.973082E-1,-9.791984E-2,2.6586387E-2,-5.7516154E-2,7.535905E-1,-7.621164E-2,4.9832806E-2,-9.317438E-3,9.4476104E-1,2.0277474E-2,8.148973E-2,2.5827631E-2,9.6260756E-2],"categories":[],"categories_nodes":[],"categories_segments":[],"categories_sizes":[],"default_left":[0,0,0,0,0,0,0,0,0,0,0,0,0,0,0,0,0,0,0],"id":49,"left_children":[1,3,5,7,9,11,13,-1,-1,-1,15,-1,-1,-1,17,-1,-1,-1,-1],"loss_changes":[3.607156E1,1.1569387E1,6.8640156E0,3.4631672E0,2.8456602E0,2.1480098E0,1.5290699E0,0E0,0E0,0E0,6.0345173E-2,0E0,0E0,0E0,1.109314E-1,0E0,0E0,0E0,0E0],"parents":[2147483647,0,0,1,1,2,2,3,3,4,4,5,5,6,6,10,10,14,14],"right_children":[2,4,6,8,10,12,14,-1,-1,-1,16,-1,-1,-1,18,-1,-1,-1,-1],"split_conditions":[1.223856E0,1.7619137E0,4.9657556E-1,2.1885815E0,7.470389E-1,2.2007089E0,1.537251E-1,-9.791984E-2,2.6586387E-2,-5.7516154E-2,1.2243123E0,-7.621164E-2,4.9832806E-2,-9.317438E-3,3.1270385E-1,2.0277474E-2,8.148973E-2,2.5827631E-2,9.6260756E-2],"split_indices":[4,14,22,1,28,16,2,0,0,0,2,0,0,0,21,0,0,0,0],"split_type":[0,0,0,0,0,0,0,0,0,0,0,0,0,0,0,0,0,0,0],"sum_hessian":[7.385774E1,3.9912186E1,3.3945553E1,3.2916065E1,6.996124E0,4.285855E0,2.9659698E1,3.0919472E1,1.9965925E0,1.3158017E0,5.680322E0,3.0880358E0,1.197819E0,1.3119458E0,2.8347752E1,1.0003281E0,4.679994E0,1.1103196E0,2.7237432E1],"tree_param":{"num_deleted":"0","num_feature":"30","num_nodes":"19","size_leaf_vector":"1"}},{"base_weights":[-1.5901748E-2,-7.6119936E-1,6.1629385E-1,-9.258281E-1,3.437791E-1,-4.7527117E-1,8.6819726E-1,-9.696984E-2,1.1531733E-2,-5.040543E-2,6.94028E-2,-8.5420355E-2,5.000123E-2,-3.169069E-2,9.212397E-1,1.4278255E-3,9.5564656E-2],"categories":[],"categories_nodes":[],"categories_segments":[],"categories_sizes":[],"default_left":[0,0,0,0,0,0,0,0,0,0,0,0,0,0,0,0,0],"id":50,"left_children":[1,3,5,7,9,11,13,-1,-1,-1,-1,-1,-1,-1,15,-1,-1],"loss_changes":[3.2894264E1,6.145092E0,1.0802803E1,1.3975124E0,1.7997475E0,3.2843533E0,2.244112E0,0E0,0E0,0E0,0E0,0E0,0E0,0E0,9.219284E-1,0E0,0E0],"parents":[2147483647,0,0,1,1,2,2,3,3,4,4,5,5,6,6,14,14],"right_children":[2,4,6,8,10,12,14,-1,-1,-1,-1,-1,-1,-1,16,-1,-1],"split_conditions":[1.0085638E0,1.7193779E0,6.1669797E-1,2.1135757E0,1.3667271E0,1.6224399E0,1.3922118E-1,-9.696984E-2,1.1531733E-2,-5.040543E-2,6.94028E-2,-8.5420355E-2,5.000123E-2,-3.169069E-2,2.84148E-1,1.4278255E-3,9.5564656E-2],"split_indices":[12,18,5,28,22,3,3,0,0,0,0,0,0,0,17,0,0],"split_type":[0,0,0,0,0,0,0,0,0,0,0,0,0,0,0,0,0],"sum_hessian":[6.781779E1,3.1031082E1,3.678671E1,2.7148418E1,3.8826632E0,6.7313304E0,3.0055376E1,2.6116577E1,1.0318402E0,1.0066862E0,2.875977E0,4.9372005E0,1.79413E0,1.0744648E0,2.8980911E1,1.1109647E0,2.7869947E1],"tree_param":{"num_deleted":"0","num_feature":"30","num_nodes":"17","size_leaf_vector":"1"}},{"base_weights":[-1.6265E-2,-6.2865406E-1,7.439187E-1,-9.1515857E-1,4.181733E-1,-3.5034436E-1,8.898063E-1,-9.71559E-2,5.9631706E-4,-6.0917433E-2,7.3898304E-1,-6.7968756E-2,3.3380102E-2,-9.451004E-3,9.3437004E-1,1.3100073E-2,8.213607E-2,2.4435544E-2,9.537338E-2],"categories":[],"categories_nodes":[],"categories_segments":[],"categories_sizes":[],"default_left":[0,0,0,0,0,0,0,0,0,0,0,0,0,0,0,0,0,0,0],"id":51,"left_children":[1,3,5,7,9,11,13,-1,-1,-1,15,-1,-1,-1,17,-1,-1,-1,-1],"loss_changes":[2.991176E1,1.105136E1,4.8897495E0,1.4729939E0,3.19558E0,1.148658E0,1.21064E0,0E0,0E0,0E0,2.3295283E-1,0E0,0E0,0E0,9.523201E-2,0E0,0E0,0E0,0E0],"parents":[2147483647,0,0,1,1,2,2,3,3,4,4,5,5,6,6,10,10,14,14],"right_children":[2,4,6,8,10,12,14,-1,-1,-1,16,-1,-1,-1,18,-1,-1,-1,-1],"split_conditions":[1.2766353E0,1.5611726E0,8.275073E-1,2.0376205E0,1.0262636E0,1.4664423E0,2.7424425E-1,-9.71559E-2,5.9631706E-4,-6.0917433E-2,1.3002396E0,-6.7968756E-2,3.3380102E-2,-9.451004E-3,4.6710128E-1,1.3100073E-2,8.213607E-2,2.4435544E-2,9.537338E-2],"split_indices":[19,24,16,1,17,5,23,0,0,0,18,0,0,0,13,0,0,0,0],"split_type":[0,0,0,0,0,0,0,0,0,0,0,0,0,0,0,0,0,0,0],"sum_hessian":[6.224879E1,3.4571606E1,2.7677183E1,2.724166E1,7.3299475E0,3.0909963E0,2.4586187E1,2.561829E1,1.6233684E0,1.5303509E0,5.7995963E0,2.0909448E0,1.0000517E0,1.0163537E0,2.3569834E1,1.0011231E0,4.7984734E0,1.0151392E0,2.2554695E1],"tree_param":{"num_deleted":"0","num_feature":"30","num_nodes":"19","size_leaf_vector":"1"}},{"base_weights":[-1.5808553E-2,-7.308372E-1,6.310806E-1,-9.474593E-2,2.4783088E-1,-4.1794258E-1,8.661484E-1,-5.8282822E-2,6.303767E-1,-8.007914E-2,5.2122723E-2,-1.703309E-2,9.264582E-1,1.9034123E-2,7.0642546E-2,2.2864927E-2,9.523126E-2],"categories":[],"categories_nodes":[],"categories_segments":[],"categories_sizes":[],"default_left":[0,0,0,0,0,0,0,0,0,0,0,0,0,0,0,0,0],"id":52,"left_children":[1,3,5,-1,7,9,11,-1,13,-1,-1,-1,15,-1,-1,-1,-1],"loss_changes":[2.7409336E1,6.1997232E0,8.037011E0,0E0,2.2396045E0,2.7085838E0,1.7675686E0,0E0,1.6608477E-2,0E0,0E0,0E0,2.2411156E-1,0E0,0E0,0E0,0E0],"parents":[2147483647,0,0,1,1,2,2,4,4,5,5,6,6,8,8,12,12],"right_children":[2,4,6,-1,8,10,12,-1,14,-1,-1,-1,16,-1,-1,-1,-1],"split_conditions":[9.5264935E-1,1.521595E0,8.5089797E-1,-9.474593E-2,1.2030605E0,1.9452577E0,2.7424425E-1,-5.8282822E-2,1.369219E0,-8.007914E-2,5.2122723E-2,-1.703309E-2,7.342367E-1,1.9034123E-2,7.0642546E-2,2.2864927E-2,9.523126E-2],"split_indices":[8,6,17,0,27,22,23,0,23,0,0,0,16,0,0,0,0],"split_type":[0,0,0,0,0,0,0,0,0,0,0,0,0,0,0,0,0],"sum_hessian":[5.7260624E1,2.7136238E1,3.0124384E1,2.2244457E1,4.891782E0,5.372203E0,2.475218E1,1.3773832E0,3.5143983E0,3.9211166E0,1.4510863E0,1.2607505E0,2.349143E1,1.0340472E0,2.4803512E0,1.1909655E0,2.2300465E1],"tree_param":{"num_deleted":"0","num_feature":"30","num_nodes":"17","size_leaf_vector":"1"}},{"base_weights":[-1.5325528E-2,-6.9034714E-1,6.638795E-1,-9.044467E-1,3.6645496E-1,-4.0577698E-1,8.568518E-1,-9.6131094E-2,1.1363954E-2,-5.043567E-2,6.841735E-2,-7.47746E-2,4.3440234E-2,-1.86562E-2,9.148498E-1,1.6456064E-2,9.440004E-2],"categories":[],"categories_nodes":[],"categories_segments":[],"categories_sizes":[],"default_left":[0,0,0,0,0,0,0,0,0,0,0,0,0,0,0,0,0],"id":53,"left_children":[1,3,5,7,9,11,13,-1,-1,-1,-1,-1,-1,-1,15,-1,-1],"loss_changes":[2.507505E1,6.5353556E0,5.9772205E0,1.4459019E0,1.819953E0,1.7173991E0,1.5883312E0,0E0,0E0,0E0,0E0,0E0,0E0,0E0,3.3373833E-1,0E0,0E0],"parents":[2147483647,0,0,1,1,2,2,3,3,4,4,5,5,6,6,14,14],"right_children":[2,4,6,8,10,12,14,-1,-1,-1,-1,-1,-1,-1,16,-1,-1],"split_conditions":[1.0834435E0,1.7619137E0,5.288921E-1,1.9735818E0,8.7909776E-1,2.036565E0,3.234154E-2,-9.6131094E-2,1.1363954E-2,-5.043567E-2,6.841735E-2,-7.47746E-2,4.3440234E-2,-1.86562E-2,6.9976705E-1,1.6456064E-2,9.440004E-2],"split_indices":[4,14,21,25,1,2,22,0,0,0,0,0,0,0,17,0,0],"split_type":[0,0,0,0,0,0,0,0,0,0,0,0,0,0,0,0,0],"sum_hessian":[5.2692307E1,2.6419313E1,2.6272993E1,2.2088524E1,4.3307905E0,3.8468587E0,2.2426134E1,2.097287E1,1.115653E0,1.0006762E0,3.3301141E0,2.8122394E0,1.0346191E0,1.0641868E0,2.1361946E1,1.0474488E0,2.0314499E1],"tree_param":{"num_deleted":"0","num_feature":"30","num_nodes":"17","size_leaf_vector":"1"}},{"base_weights":[-1.5237188E-2,-7.1257615E-1,6.343083E-1,-9.367295E-2,2.6703364E-1,-3.2837552E-1,8.60339E-1,-5.525383E-2,6.4730935E-2,-7.173245E-2,5.2963473E-2,-1.0252017E-2,9.1837925E-1,2.6295835E-2,9.4026916E-2],"categories":[],"categories_nodes":[],"categories_segments":[],"categories_sizes":[],"default_left":[0,0,0,0,0,0,0,0,0,0,0,0,0,0,0],"id":54,"left_children":[1,3,5,-1,7,9,11,-1,-1,-1,-1,-1,13,-1,-1],"loss_changes":[2.2876947E1,5.596257E0,5.975175E0,0E0,2.0131497E0,2.2815719E0,1.2936182E0,0E0,0E0,0E0,0E0,0E0,4.4618607E-2,0E0,0E0],"parents":[2147483647,0,0,1,1,2,2,4,4,5,5,6,6,12,12],"right_children":[2,4,6,-1,8,10,12,-1,-1,-1,-1,-1,14,-1,-1],"split_conditions":[1.143683E0,1.5464965E0,6.9999176E-1,-9.367295E-2,1.1401114E0,2.0842605E0,3.778581E-1,-5.525383E-2,6.4730935E-2,-7.173245E-2,5.2963473E-2,-1.0252017E-2,2.6931226E-1,2.6295835E-2,9.4026916E-2],"split_indices":[27,8,20,0,10,24,13,0,0,0,0,0,4,0,0],"split_type":[0,0,0,0,0,0,0,0,0,0,0,0,0,0,0],"sum_hessian":[4.85083E1,2.3346708E1,2.5161594E1,1.9034927E1,4.3117805E0,4.6983085E0,2.0463285E1,1.2229906E0,3.0887897E0,3.3456452E0,1.3526635E0,1.1198113E0,1.9343475E1,1.0457171E0,1.8297758E1],"tree_param":{"num_deleted":"0","num_feature":"30","num_nodes":"15","size_leaf_vector":"1"}},{"base_weights":[-1.4764528E-2,-7.2918904E-1,6.1391133E-1,-9.355431E-2,2.3156382E-1,-4.6944052E-1,8.5649556E-1,-5.3144503E-2,6.2305756E-2,-7.7373095E-2,3.9832007E-2,-1.1632223E-2,9.181597E-1,2.5429038E-2,9.410605E-2],"categories":[],"categories_nodes":[],"categories_segments":[],"categories_sizes":[],"default_left":[0,0,0,0,0,0,0,0,0,0,0,0,0,0,0],"id":55,"left_children":[1,3,5,-1,7,9,11,-1,-1,-1,-1,-1,13,-1,-1],"loss_changes":[2.0987963E1,4.5511713E0,6.9377384E0,0E0,1.7252808E0,1.6801528E0,1.3469439E0,0E0,0E0,0E0,0E0,0E0,5.796814E-2,0E0,0E0],"parents":[2147483647,0,0,1,1,2,2,4,4,5,5,6,6,12,12],"right_children":[2,4,6,-1,8,10,12,-1,-1,-1,-1,-1,14,-1,-1],"split_conditions":[9.6055126E-1,1.5110223E0,6.1669797E-1,-9.355431E-2,1.2187088E0,1.8601694E0,2.993901E-1,-5.3144503E-2,6.2305756E-2,-7.7373095E-2,3.9832007E-2,-1.1632223E-2,8.405385E-1,2.5429038E-2,9.410605E-2],"split_indices":[10,22,5,0,14,19,25,0,0,0,0,0,16,0,0],"split_type":[0,0,0,0,0,0,0,0,0,0,0,0,0,0,0],"sum_hessian":[4.4732372E1,2.0863407E1,2.3868965E1,1.7196188E1,3.6672199E0,4.1958113E0,1.9673155E1,1.1223382E0,2.5448816E0,3.1867123E0,1.009099E0,1.119856E0,1.8553299E1,1.0222871E0,1.7531012E1],"tree_param":{"num_deleted":"0","num_feature":"30","num_nodes":"15","size_leaf_vector":"1"}},{"base_weights":[-1.47862835E-2,-6.784728E-1,6.562857E-1,-8.97564E-1,3.379279E-1,-4.817379E-1,8.2669276E-1,-9.473623E-2,-4.364208E-3,-3.8236257E-2,6.60767E-2,-5.9402656E-2,-1.045863E-2,-2.1451332E-2,9.0094334E-1,2.2510067E-2,9.2907935E-2],"categories":[],"categories_nodes":[],"categories_segments":[],"categories_sizes":[],"default_left":[0,0,0,0,0,0,0,0,0,0,0,0,0,0,0,0,0],"id":56,"left_children":[1,3,5,7,9,11,13,-1,-1,-1,-1,-1,-1,-1,15,-1,-1],"loss_changes":[1.9247225E1,5.139166E0,4.5675335E0,7.299833E-1,1.3170803E0,8.321041E-2,1.667367E0,0E0,0E0,0E0,0E0,0E0,0E0,0E0,1.3296223E-1,0E0,0E0],"parents":[2147483647,0,0,1,1,2,2,3,3,4,4,5,5,6,6,14,14],"right_children":[2,4,6,8,10,12,14,-1,-1,-1,-1,-1,-1,-1,16,-1,-1],"split_conditions":[1.1149262E0,1.7092249E0,3.5833406E-1,1.8326864E0,1.3371905E0,4.7292918E-1,4.447086E-1,-9.473623E-2,-4.364208E-3,-3.8236257E-2,6.60767E-2,-5.9402656E-2,-1.045863E-2,-2.1451332E-2,3.7759018E-1,2.2510067E-2,9.2907935E-2],"split_indices":[23,16,1,5,9,7,16,0,0,0,0,0,0,0,5,0,0],"split_type":[0,0,0,0,0,0,0,0,0,0,0,0,0,0,0,0,0],"sum_hessian":[4.121539E1,2.0716175E1,2.0499214E1,1.7138739E1,3.5774364E0,2.4318292E0,1.8067385E1,1.6090937E1,1.0478033E0,1.0501217E0,2.527315E0,1.4308045E0,1.0010247E0,1.0769144E0,1.699047E1,1.0387814E0,1.5951689E1],"tree_param":{"num_deleted":"0","num_feature":"30","num_nodes":"17","size_leaf_vector":"1"}},{"base_weights":[-1.5618892E-2,-7.3938847E-1,5.935592E-1,-8.946454E-1,2.7967402E-1,-4.1059175E-1,8.348632E-1,-9.3749575E-2,-1.28371855E-2,-1.2555835E-2,5.2581985E-2,-7.4891046E-2,3.9989304E-2,-1.2923245E-2,9.0151125E-1,2.555193E-2,9.303158E-2],"categories":[],"categories_nodes":[],"categories_segments":[],"categories_sizes":[],"default_left":[0,0,0,0,0,0,0,0,0,0,0,0,0,0,0,0,0],"id":57,"left_children":[1,3,5,7,9,11,13,-1,-1,-1,-1,-1,-1,-1,15,-1,-1],"loss_changes":[1.7683477E1,3.1487417E0,5.623071E0,4.0948296E-1,3.8360682E-1,1.6410025E0,1.2666321E0,0E0,0E0,0E0,0E0,0E0,0E0,0E0,7.614517E-2,0E0,0E0],"parents":[2147483647,0,0,1,1,2,2,3,3,4,4,5,5,6,6,14,14],"right_children":[2,4,6,8,10,12,14,-1,-1,-1,-1,-1,-1,-1,16,-1,-1],"split_conditions":[1.0085638E0,1.7193779E0,6.1669797E-1,1.8102542E0,1.6787151E0,1.6224399E0,2.993901E-1,-9.3749575E-2,-1.28371855E-2,-1.2555835E-2,5.2581985E-2,-7.4891046E-2,3.9989304E-2,-1.2923245E-2,5.031214E-1,2.555193E-2,9.303158E-2],"split_indices":[12,18,5,21,25,3,25,0,0,0,0,0,0,0,8,0,0],"split_type":[0,0,0,0,0,0,0,0,0,0,0,0,0,0,0,0,0],"sum_hessian":[3.8111877E1,1.7320042E1,2.0791834E1,1.5136106E1,2.1839366E0,3.8924444E0,1.689939E1,1.4122898E1,1.0132067E0,1.0104029E0,1.1735338E0,2.7997315E0,1.0927129E0,1.0320002E0,1.586739E1,1.0986662E0,1.47687235E1],"tree_param":{"num_deleted":"0","num_feature":"30","num_nodes":"17","size_leaf_vector":"1"}},{"base_weights":[-1.5150712E-2,-6.052046E-1,7.18564E-1,-8.465118E-1,5.07638E-1,-3.6543727E-2,8.415886E-1,-9.2749864E-2,2.1116978E-2,-6.639582E-4,6.796916E-2,2.8206173E-3,9.0245716E-2],"categories":[],"categories_nodes":[],"categories_segments":[],"categories_sizes":[],"default_left":[0,0,0,0,0,0,0,0,0,0,0,0,0],"id":58,"left_children":[1,3,5,7,9,-1,11,-1,-1,-1,-1,-1,-1],"loss_changes":[1.613032E1,5.971512E0,2.5235615E0,1.6806927E0,3.85221E-1,0E0,7.283764E-1,0E0,0E0,0E0,0E0,0E0,0E0],"parents":[2147483647,0,0,1,1,2,2,3,3,4,4,6,6],"right_children":[2,4,6,8,10,-1,12,-1,-1,-1,-1,-1,-1],"split_conditions":[1.4208277E0,1.8833483E0,2.9004917E-1,2.047309E0,1.6181433E0,-3.6543727E-2,3.7759018E-1,-9.2749864E-2,2.1116978E-2,-6.639582E-4,6.796916E-2,2.8206173E-3,9.0245716E-2],"split_indices":[17,5,9,25,4,0,5,0,0,0,0,0,0],"split_type":[0,0,0,0,0,0,0,0,0,0,0,0,0],"sum_hessian":[3.5253895E1,1.9636976E1,1.561692E1,1.6334377E1,3.3025985E0,1.3909017E0,1.4226019E1,1.5286938E1,1.0474395E0,1.0689268E0,2.2336717E0,1.0923526E0,1.3133667E1],"tree_param":{"num_deleted":"0","num_feature":"30","num_nodes":"13","size_leaf_vector":"1"}},{"base_weights":[-1.3365946E-2,-6.749323E-1,6.369407E-1,-8.9978397E-1,4.2147747E-1,-3.981847E-1,8.255799E-1,-9.3113475E-2,-2.387039E-2,-2.5388882E-3,6.092022E-2,-5.8057267E-2,1.6985749E-3,-2.0341508E-3,8.9457795E-2],"categories":[],"categories_nodes":[],"categories_segments":[],"categories_sizes":[],"default_left":[0,0,0,0,0,0,0,0,0,0,0,0,0,0,0],"id":59,"left_children":[1,3,5,7,9,11,13,-1,-1,-1,-1,-1,-1,-1,-1],"loss_changes":[1.4911231E1,4.6124434E0,3.7437353E0,7.9660416E-2,3.1773072E-1,2.650829E-1,9.0062046E-1,0E0,0E0,0E0,0E0,0E0,0E0,0E0,0E0],"parents":[2147483647,0,0,1,1,2,2,3,3,4,4,5,5,6,6],"right_children":[2,4,6,8,10,12,14,-1,-1,-1,-1,-1,-1,-1,-1],"split_conditions":[1.0408964E0,1.8690665E0,4.9657556E-1,1.6392565E0,1.7677026E0,6.220347E-1,4.6710128E-1,-9.3113475E-2,-2.387039E-2,-2.5388882E-3,6.092022E-2,-5.8057267E-2,1.6985749E-3,-2.0341508E-3,8.9457795E-2],"split_indices":[21,3,22,25,18,15,13,0,0,0,0,0,0,0,0],"split_type":[0,0,0,0,0,0,0,0,0,0,0,0,0,0,0],"sum_hessian":[3.266023E1,1.6171183E1,1.6489046E1,1.3567995E1,2.6031876E0,2.3705008E0,1.4118546E1,1.2563677E1,1.0043186E0,1.0258867E0,1.5773008E0,1.3701749E0,1.0003259E0,1.1179218E0,1.3000624E1],"tree_param":{"num_deleted":"0","num_feature":"30","num_nodes":"15","size_leaf_vector":"1"}},{"base_weights":[-1.3921666E-2,-6.9396806E-1,6.1080694E-1,-9.040575E-2,2.1775618E-1,-2.9455224E-1,8.283933E-1,-3.389403E-2,5.715063E-2,-6.580061E-2,3.414164E-2,8.470975E-4,8.9381196E-2],"categories":[],"categories_nodes":[],"categories_segments":[],"categories_sizes":[],"default_left":[0,0,0,0,0,0,0,0,0,0,0,0,0],"id":60,"left_children":[1,3,5,-1,7,9,11,-1,-1,-1,-1,-1,-1],"loss_changes":[1.3725854E1,3.1580358E0,3.563488E0,0E0,9.2256826E-1,1.1498716E0,7.352085E-1,0E0,0E0,0E0,0E0,0E0,0E0],"parents":[2147483647,0,0,1,1,2,2,4,4,5,5,6,6],"right_children":[2,4,6,-1,8,10,12,-1,-1,-1,-1,-1,-1],"split_conditions":[1.143683E0,1.5464965E0,6.9999176E-1,-9.040575E-2,1.3533229E0,1.2456849E0,3.3788478E-1,-3.389403E-2,5.715063E-2,-6.580061E-2,3.414164E-2,8.470975E-4,8.9381196E-2],"split_indices":[27,8,20,0,1,4,5,0,0,0,0,0,0],"split_type":[0,0,0,0,0,0,0,0,0,0,0,0,0],"sum_hessian":[3.0310219E1,1.4459521E1,1.5850698E1,1.1758427E1,2.7010946E0,3.002754E0,1.2847944E1,1.0657653E0,1.6353295E0,1.8887107E0,1.1140432E0,1.032806E0,1.1815138E1],"tree_param":{"num_deleted":"0","num_feature":"30","num_nodes":"13","size_leaf_vector":"1"}},{"base_weights":[-1.3863356E-2,-6.660662E-1,6.303354E-1,-8.5441846E-1,3.7710197E-2,-5.112636E-2,7.881976E-1,-9.203058E-2,-5.032864E-3,-1.3156058E-2,8.752811E-2],"categories":[],"categories_nodes":[],"categories_segments":[],"categories_sizes":[],"default_left":[0,0,0,0,0,0,0,0,0,0,0],"id":61,"left_children":[1,3,5,7,-1,-1,9,-1,-1,-1,-1],"loss_changes":[1.2648231E1,3.2593946E0,3.134336E0,6.4075756E-1,0E0,0E0,1.2131319E0,0E0,0E0,0E0,0E0],"parents":[2147483647,0,0,1,1,2,2,3,3,6,6],"right_children":[2,4,6,8,-1,-1,10,-1,-1,-1,-1],"split_conditions":[1.0259552E0,1.8943785E0,1.7935237E-1,1.8144019E0,3.7710197E-2,-5.112636E-2,4.869847E-1,-9.203058E-2,-5.032864E-3,-1.3156058E-2,8.752811E-2],"split_indices":[19,24,2,1,0,0,13,0,0,0,0],"split_type":[0,0,0,0,0,0,0,0,0,0,0],"sum_hessian":[2.8104927E1,1.3948834E1,1.4156093E1,1.1968726E1,1.9801086E0,1.4477615E0,1.2708331E1,1.0928694E1,1.0400317E0,1.0549916E0,1.1653339E1],"tree_param":{"num_deleted":"0","num_feature":"30","num_nodes":"11","size_leaf_vector":"1"}},{"base_weights":[-1.4881191E-2,-6.1515874E-1,6.750423E-1,-8.3995E-1,3.4919474E-1,-2.8582478E-2,8.351459E-1,-9.166309E-2,1.3946675E-3,-1.1425143E-2,5.8368005E-2,1.642012E-2,8.9021556E-2],"categories":[],"categories_nodes":[],"categories_segments":[],"categories_sizes":[],"default_left":[0,0,0,0,0,0,0,0,0,0,0,0,0],"id":62,"left_children":[1,3,5,7,9,-1,11,-1,-1,-1,-1,-1,-1],"loss_changes":[1.16487665E1,3.5510101E0,2.2534833E0,8.299875E-1,4.5215943E-1,0E0,2.7803993E-1,0E0,0E0,0E0,0E0,0E0,0E0],"parents":[2147483647,0,0,1,1,2,2,3,3,4,4,6,6],"right_children":[2,4,6,8,10,-1,12,-1,-1,-1,-1,-1,-1],"split_conditions":[1.223856E0,1.7619137E0,4.9657556E-1,1.8646635E0,1.7708174E0,-2.8582478E-2,8.5089797E-1,-9.166309E-2,1.3946675E-3,-1.1425143E-2,5.8368005E-2,1.642012E-2,8.9021556E-2],"split_indices":[4,14,22,1,21,0,17,0,0,0,0,0,0],"split_type":[0,0,0,0,0,0,0,0,0,0,0,0,0],"sum_hessian":[2.6124544E1,1.4027815E1,1.2096729E1,1.1480667E1,2.5471475E0,1.6155719E0,1.0481157E1,1.046723E1,1.0134376E0,1.0280417E0,1.5191059E0,1.0970379E0,9.384119E0],"tree_param":{"num_deleted":"0","num_feature":"30","num_nodes":"13","size_leaf_vector":"1"}},{"base_weights":[-1.3212414E-2,-5.651991E-1,7.249404E-1,-8.177867E-1,4.4468972E-1,-1.5129347E-2,8.521744E-2,-9.0319574E-2,7.853899E-4,1.6419545E-3,6.0672592E-2],"categories":[],"categories_nodes":[],"categories_segments":[],"categories_sizes":[],"default_left":[0,0,0,0,0,0,0,0,0,0,0],"id":63,"left_children":[1,3,5,7,9,-1,-1,-1,-1,-1,-1],"loss_changes":[1.0726485E1,4.202411E0,1.3855362E0,8.8081837E-1,2.4393016E-1,0E0,0E0,0E0,0E0,0E0,0E0],"parents":[2147483647,0,0,1,1,2,2,3,3,4,4],"right_children":[2,4,6,8,10,-1,-1,-1,-1,-1,-1],"split_conditions":[1.4424579E0,1.8642228E0,8.1838065E-1,1.5677915E0,1.5164604E0,-1.5129347E-2,8.521744E-2,-9.0319574E-2,7.853899E-4,1.6419545E-3,6.0672592E-2],"split_indices":[3,21,12,26,18,0,0,0,0,0,0],"split_type":[0,0,0,0,0,0,0,0,0,0,0],"sum_hessian":[2.4320251E1,1.4048882E1,1.0271371E1,1.1390241E1,2.6586409E0,1.2783742E0,8.992996E0,1.0237301E1,1.1529394E0,1.0320944E0,1.6265466E0],"tree_param":{"num_deleted":"0","num_feature":"30","num_nodes":"11","size_leaf_vector":"1"}},{"base_weights":[-1.1203964E-2,-6.4723366E-1,6.213458E-1,-8.358092E-1,3.347779E-2,-3.114312E-2,8.0176175E-1,-8.987224E-2,-1.2648973E-2,5.7410966E-3,8.78155E-2],"categories":[],"categories_nodes":[],"categories_segments":[],"categories_sizes":[],"default_left":[0,0,0,0,0,0,0,0,0,0,0],"id":64,"left_children":[1,3,5,7,-1,-1,9,-1,-1,-1,-1],"loss_changes":[9.922996E0,2.555666E0,2.3322673E0,3.591709E-1,0E0,0E0,5.5513334E-1,0E0,0E0,0E0,0E0],"parents":[2147483647,0,0,1,1,2,2,3,3,6,6],"right_children":[2,4,6,8,-1,-1,10,-1,-1,-1,-1],"split_conditions":[1.1149262E0,1.7748975E0,8.275073E-1,1.4868584E0,3.347779E-2,-3.114312E-2,6.3246137E-1,-8.987224E-2,-1.2648973E-2,5.7410966E-3,8.78155E-2],"split_indices":[23,15,16,26,0,0,24,0,0,0,0],"split_type":[0,0,0,0,0,0,0,0,0,0,0],"sum_hessian":[2.2664816E1,1.1289746E1,1.137507E1,9.595923E0,1.6938227E0,1.7258722E0,9.649198E0,8.568884E0,1.0270393E0,1.0611562E0,8.588041E0],"tree_param":{"num_deleted":"0","num_feature":"30","num_nodes":"11","size_leaf_vector":"1"}},{"base_weights":[-1.1151109E-2,-6.7845434E-1,5.851353E-1,-8.738477E-2,1.830854E-2,-3.132299E-1,7.989331E-1,-5.1826973E-2,5.551177E-3,9.091407E-3,8.662515E-2],"categories":[],"categories_nodes":[],"categories_segments":[],"categories_sizes":[],"default_left":[0,0,0,0,0,0,0,0,0,0,0],"id":65,"left_children":[1,3,5,-1,-1,7,9,-1,-1,-1,-1],"loss_changes":[9.218635E0,1.9991302E0,2.6021461E0,0E0,0E0,2.6105717E-1,4.0610743E-1,0E0,0E0,0E0,0E0],"parents":[2147483647,0,0,1,1,2,2,5,5,6,6],"right_children":[2,4,6,-1,-1,8,10,-1,-1,-1,-1],"split_conditions":[9.5264935E-1,1.521595E0,8.5089797E-1,-8.738477E-2,1.830854E-2,5.461605E-1,5.8228034E-1,-5.1826973E-2,5.551177E-3,9.091407E-3,8.662515E-2],"split_indices":[8,6,17,0,0,9,13,0,0,0,0],"split_type":[0,0,0,0,0,0,0,0,0,0,0],"sum_hessian":[2.11703E1,9.925211E0,1.1245089E1,8.07871E0,1.8465014E0,2.072307E0,9.172781E0,1.0711708E0,1.0011364E0,1.0005056E0,8.172276E0],"tree_param":{"num_deleted":"0","num_feature":"30","num_nodes":"11",