{"learner":{"attributes":{"scikit_learn":"{\"_estimator_type\": \"classifier\"}"},"feature_names":["Time","V1","V2","V3","V4","V5","V6","V7","V8","V9","V10","V11","V12","V13","V14","V15","V16","V17","V18","V19","V20","V21","V22","V23","V24","V25","V26","V27","V28","Amount"],"feature_types":["float","float","float","float","float","float","float","float","float","float","float","float","float","float","float","float","float","float","float","float","float","float","float","float","float","float","float","float","float","float"],"gradient_booster":{"model":{"gbtree_model_param":{"num_parallel_tree":"1","num_trees":"200"},"iteration_indptr":[0,1,2,3,4,5,6,7,8,9,10,11,12,13,14,15,16,17,18,19,20,21,22,23,24,25,26,27,28,29,30,31,32,33,34,35,36,37,38,39,40,41,42,43,44,45,46,47,48,49,50,51,52,53,54,55,56,57,58,59,60,61,62,63,64,65,66,67,68,69,70,71,72,73,74,75,76,77,78,79,80,81,82,83,84,85,86,87,88,89,90,91,92,93,94,95,96,97,98,99,100,101,102,103,104,105,106,107,108,109,110,111,112,113,114,115,116,117,118,119,120,121,122,123,124,125,126,127,128,129,130,131,132,133,134,135,136,137,138,139,140,141,142,143,144,145,146,147,148,149,150,151,152,153,154,155,156,157,158,159,160,161,162,163,164,165,166,167,168,169,170,171,172,173,174,175,176,177,178,179,180,181,182,183,184,185,186,187,188,189,190,191,192,193,194,195,196,197,198,199,200],"tree_info":[0,0,0,0,0,0,0,0,0,0,0,0,0,0,0,0,0,0,0,0,0,0,0,0,0,0,0,0,0,0,0,0,0,0,0,0,0,0,0,0,0,0,0,0,0,0,0,0,0,0,0,0,0,0,0,0,0,0,0,0,0,0,0,0,0,0,0,0,0,0,0,0,0,0,0,0,0,0,0,0,0,0,0,0,0,0,0,0,0,0,0,0,0,0,0,0,0,0,0,0,0,0,0,0,0,0,0,0,0,0,0,0,0,0,0,0,0,0,0,0,0,0,0,0,0,0,0,0,0,0,0,0,0,0,0,0,0,0,0,0,0,0,0,0,0,0,0,0,0,0,0,0,0,0,0,0,0,0,0,0,0,0,0,0,0,0,0,0,0,0,0,0,0,0,0,0,0,0,0,0,0,0,0,0,0,0,0,0,0,0,0,0,0,0,0,0,0,0,0,0],"trees":[{"base_weights":[3.7567855E-9,1.8677425E0,-1.5291424E0,-1.1748894E0,1.9100101E0,-1.7436994E0,-1.5908578E-1,-1.9962424E-1,1.391178E0,1.9940448E0,1.113529E0,5.689281E-2,-1.8015854E0,9.9632746E-1,-8.879444E-1,1.92546E-1,-1.9175258E-1,1.9954444E-1,-1.882353E-1,1.3045855E-1,-1.9928508E-1,1.086319E-1,-1.9964476E-1,-1.8321171E-1,1.9277513E-2,1.3660388E-1,-9.117731E-2,7.1580294E-3,-1.609746E-1],"categories":[],"categories_nodes":[],"categories_segments":[],"categories_sizes":[],"default_left":[0,0,0,0,0,0,0,0,0,0,0,0,0,0,0,0,0,0,0,0,0,0,0,0,0,0,0,0,0],"id":0,"left_children":[1,3,5,7,9,11,13,-1,15,17,19,21,23,25,27,-1,-1,-1,-1,-1,-1,-1,-1,-1,-1,-1,-1,-1,-1],"loss_changes":[3.2481075E5,6.5862188E3,1.8381312E4,1.4824966E3,3.3774844E3,5.63525E3,7.132012E3,0E0,3.0566745E2,2.5157812E2,2.8640518E3,3.5637107E3,3.1899062E3,2.312266E3,3.5966938E3,0E0,0E0,0E0,0E0,0E0,0E0,0E0,0E0,0E0,0E0,0E0,0E0,0E0,0E0],"parents":[2147483647,0,0,1,1,2,2,3,3,4,4,5,5,6,6,8,8,9,9,10,10,11,11,12,12,13,13,14,14],"right_children":[2,4,6,8,10,12,14,-1,16,18,20,22,24,26,28,-1,-1,-1,-1,-1,-1,-1,-1,-1,-1,-1,-1,-1,-1],"split_conditions":[-1.7859976E0,-4.8604634E-1,1.620582E0,1.66793E5,-1.4160796E0,-9.853448E-1,-2.201951E-1,-1.9962424E-1,-1.0690001E0,5.767415E-1,4.7627756E-1,-7.4986964E-2,2.4990346E0,3.6880842E-1,1.06149286E-1,1.92546E-1,-1.9175258E-1,1.9954444E-1,-1.882353E-1,1.3045855E-1,-1.9928508E-1,1.086319E-1,-1.9964476E-1,-1.8321171E-1,1.9277513E-2,1.3660388E-1,-9.117731E-2,7.1580294E-3,-1.609746E-1],"split_indices":[14,4,4,0,12,20,8,0,7,10,26,12,7,13,6,0,0,0,0,0,0,0,0,0,0,0,0,0,0],"split_type":[0,0,0,0,0,0,0,0,0,0,0,0,0,0,0,0,0,0,0,0,0,0,0,0,0,0,0,0,0],"sum_hessian":[1.137255E5,5.1194594E4,6.2530906E4,7.010717E2,5.0493523E4,5.4063973E4,8.466936E3,5.3125E2,1.698217E2,4.5673156E4,4.8203643E3,1.6839302E3,5.238004E4,3.274969E3,5.191967E3,1.465717E2,2.325E1,4.5657156E4,1.6E1,4.5416143E3,2.7875E2,1.1219302E3,5.62E2,5.1590324E4,7.897151E2,2.7436472E3,5.313217E2,2.2293237E3,2.9626433E3],"tree_param":{"num_deleted":"0","num_feature":"30","num_nodes":"29","size_leaf_vector":"1"}},{"base_weights":[2.4584771E-5,1.6974896E0,-1.3871475E0,-1.0684582E0,1.7359002E0,-1.5826908E0,-1.4380696E-1,-1.8155865E-1,1.2640567E0,1.7520462E0,-1.9622277E0,5.12702E-2,-1.6353765E0,7.6722795E-1,-9.307157E-1,-1.7850238E-1,1.750661E-1,1.7656119E-1,-2.0653145E-1,-2.1193269E-1,-1.8062145E-1,-1.9069476E-1,9.396811E-2,-1.6632996E-1,1.7353876E-2,-2.0830961E-2,1.4341442E-1,-1.6931452E-1,1.4365588E-2],"categories":[],"categories_nodes":[],"categories_segments":[],"categories_sizes":[],"default_left":[0,0,0,0,0,0,0,0,0,0,0,0,0,0,0,0,0,0,0,0,0,0,0,0,0,0,0,0,0],"id":1,"left_children":[1,3,5,7,9,11,13,-1,15,17,19,21,23,25,27,-1,-1,-1,-1,-1,-1,-1,-1,-1,-1,-1,-1,-1,-1],"loss_changes":[2.655476E5,5.389922E3,1.5088094E4,1.2139014E3,2.9902031E3,4.6165E3,6.0477295E3,0E0,2.54254E2,2.5827344E3,1.5130005E0,2.917643E3,2.6243281E3,2.5439583E3,3.707828E3,0E0,0E0,0E0,0E0,0E0,0E0,0E0,0E0,0E0,0E0,0E0,0E0,0E0,0E0],"parents":[2147483647,0,0,1,1,2,2,3,3,4,4,5,5,6,6,8,8,9,9,10,10,11,11,12,12,13,13,14,14],"right_children":[2,4,6,8,10,12,14,-1,16,18,20,22,24,26,28,-1,-1,-1,-1,-1,-1,-1,-1,-1,-1,-1,-1,-1,-1],"split_conditions":[-1.7859976E0,-4.8604634E-1,1.620582E0,1.66793E5,1.9941158E0,-9.853448E-1,-5.725717E-1,-1.8155865E-1,1.327541E0,5.767415E-1,4.7627756E-1,3.127109E-2,2.4990346E0,5.0019497E-1,9.419254E-2,-1.7850238E-1,1.750661E-1,1.7656119E-1,-2.0653145E-1,-2.1193269E-1,-1.8062145E-1,-1.9069476E-1,9.396811E-2,-1.6632996E-1,1.7353876E-2,-2.0830961E-2,1.4341442E-1,-1.6931452E-1,1.4365588E-2],"split_indices":[14,4,4,0,1,20,12,0,11,10,26,28,7,11,28,0,0,0,0,0,0,0,0,0,0,0,0,0,0],"split_type":[0,0,0,0,0,0,0,0,0,0,0,0,0,0,0,0,0,0,0,0,0,0,0,0,0,0,0,0,0],"sum_hessian":[1.1277257E5,5.0714117E4,6.205845E4,6.942515E2,5.0019867E4,5.3624516E4,8.433935E3,5.2599243E2,1.6825914E2,4.9802953E4,2.169139E2,1.6750637E3,5.1949453E4,3.9087021E3,4.525232E3,2.2789698E1,1.4546944E2,4.9627133E4,1.7582028E2,1.01810524E2,1.1510338E2,5.224167E2,1.1526471E3,5.115981E4,7.896417E2,1.5874027E3,2.3212996E3,2.6465369E3,1.8786952E3],"tree_param":{"num_deleted":"0","num_feature":"30","num_nodes":"29","size_leaf_vector":"1"}},{"base_weights":[9.614918E-5,1.5675108E0,-1.2742045E0,1.6781777E0,6.5620524E-1,-1.4803147E0,-2.4936478E-1,-1.6330563E-1,1.6806593E0,-1.3275576E-1,1.5450217E0,-1.5153614E0,2.6699352E-1,7.0740527E-1,-1.0220064E0,1.6818307E-1,-1.5717272E-1,4.772537E-2,-2.0378816E-1,1.6208987E-1,-2.1064663E-1,-1.5621912E-1,-4.427957E-2,1.2607352E-1,-1.9978246E-1,1.3019308E-1,-4.789772E-2,-1.5906431E-1,-4.4676973E-3],"categories":[],"categories_nodes":[],"categories_segments":[],"categories_sizes":[],"default_left":[0,0,0,0,0,0,0,0,0,0,0,0,0,0,0,0,0,0,0,0,0,0,0,0,0,0,0,0,0],"id":2,"left_children":[1,3,5,7,9,11,13,-1,15,17,19,21,23,25,27,-1,-1,-1,-1,-1,-1,-1,-1,-1,-1,-1,-1,-1,-1],"loss_changes":[2.2042902E5,4.989883E3,1.2857578E4,3.6535938E2,3.7592998E3,3.1038672E3,7.5362275E3,0E0,1.7064062E2,3.3023445E3,7.018579E2,2.4947812E3,2.247228E3,3.213234E3,3.1342485E3,0E0,0E0,0E0,0E0,0E0,0E0,0E0,0E0,0E0,0E0,0E0,0E0,0E0,0E0],"parents":[2147483647,0,0,1,1,2,2,3,3,4,4,5,5,6,6,8,8,9,9,10,10,11,11,12,12,13,13,14,14],"right_children":[2,4,6,8,10,12,14,-1,16,18,20,22,24,26,28,-1,-1,-1,-1,-1,-1,-1,-1,-1,-1,-1,-1,-1,-1],"split_conditions":[-1.7859976E0,-1.4160796E0,1.3935225E0,-4.9830067E-1,1.8959074E0,2.4990346E0,-5.575814E-1,-1.6330563E-1,5.767415E-1,2.2414032E-2,2.0826507E-1,6.777285E-1,-3.3360067E-1,2.7736297E-1,9.419254E-2,1.6818307E-1,-1.5717272E-1,4.772537E-2,-2.0378816E-1,1.6208987E-1,-2.1064663E-1,-1.5621912E-1,-4.427957E-2,1.2607352E-1,-1.9978246E-1,1.3019308E-1,-4.789772E-2,-1.5906431E-1,-4.4676973E-3],"split_indices":[14,12,4,4,4,7,12,0,10,27,23,21,26,14,28,0,0,0,0,0,0,0,0,0,0,0,0,0,0],"split_type":[0,0,0,0,0,0,0,0,0,0,0,0,0,0,0,0,0,0,0,0,0,0,0,0,0,0,0,0,0],"sum_hessian":[1.1035832E5,4.94875E4,6.087082E4,4.412787E4,5.359628E3,5.0678242E4,1.0192579E4,3.255459E1,4.4095316E4,2.8397578E3,2.5198704E3,4.968188E4,9.963632E2,4.5537314E3,5.638848E3,4.407992E4,1.5392477E1,2.1515837E3,6.881742E2,2.4691187E3,5.0751644E1,4.7603004E4,2.0788755E3,6.92817E2,3.0354623E2,3.0334812E3,1.5202499E3,3.564372E3,2.0744758E3],"tree_param":{"num_deleted":"0","num_feature":"30","num_nodes":"29","size_leaf_vector":"1"}},{"base_weights":[2.4454077E-4,1.4648937E0,-1.1813998E0,1.5719428E0,6.016959E-1,-1.475647E0,-5.435194E-1,-1.53146E-1,1.574272E0,-1.2031699E-1,1.4350563E0,-1.5469664E0,-8.826867E-1,4.8665756E-1,-1.0445614E0,1.5753737E-1,-1.4763522E-1,4.886593E-2,-1.8135273E-1,-2.0157917E-1,1.5089066E-1,-4.502291E-2,-1.5719372E-1,-1.4759883E-1,5.9894066E-2,1.10753134E-1,-5.8635067E-2,8.85642E-3,-1.2903099E-1],"categories":[],"categories_nodes":[],"categories_segments":[],"categories_sizes":[],"default_left":[0,0,0,0,0,0,0,0,0,0,0,0,0,0,0,0,0,0,0,0,0,0,0,0,0,0,0,0,0],"id":3,"left_children":[1,3,5,7,9,11,13,-1,15,17,19,21,23,25,27,-1,-1,-1,-1,-1,-1,-1,-1,-1,-1,-1,-1,-1,-1],"loss_changes":[1.8508328E5,4.4115938E3,1.11086875E4,3.0951562E2,3.1712566E3,1.7115391E3,9.645506E3,0E0,1.4498438E2,2.9134893E3,6.2653467E2,9.894219E2,3.825638E3,4.074525E3,3.5009404E3,0E0,0E0,0E0,0E0,0E0,0E0,0E0,0E0,0E0,0E0,0E0,0E0,0E0,0E0],"parents":[2147483647,0,0,1,1,2,2,3,3,4,4,5,5,6,6,8,8,9,9,10,10,11,11,12,12,13,13,14,14],"right_children":[2,4,6,8,10,12,14,-1,16,18,20,22,24,26,28,-1,-1,-1,-1,-1,-1,-1,-1,-1,-1,-1,-1,-1,-1],"split_conditions":[-1.7859976E0,-1.4160796E0,7.413282E-1,-4.9830067E-1,1.8959074E0,1.0663408E0,-5.575814E-1,-1.53146E-1,5.767415E-1,-1.1814422E-1,5.4089034E-1,-9.853448E-1,1.5378694E-1,3.4057415E-1,1.54E0,1.5753737E-1,-1.4763522E-1,4.886593E-2,-1.8135273E-1,-2.0157917E-1,1.5089066E-1,-4.502291E-2,-1.5719372E-1,-1.4759883E-1,5.9894066E-2,1.10753134E-1,-5.8635067E-2,8.85642E-3,-1.2903099E-1],"split_indices":[14,12,4,4,4,7,12,0,10,26,18,20,4,14,29,0,0,0,0,0,0,0,0,0,0,0,0,0,0],"split_type":[0,0,0,0,0,0,0,0,0,0,0,0,0,0,0,0,0,0,0,0,0,0,0,0,0,0,0,0,0],"sum_hessian":[1.06939625E5,4.7751438E4,5.9188184E4,4.2482207E4,5.2692334E3,4.0503195E4,1.8684988E4,3.1369162E1,4.2450836E4,2.8236846E3,2.4455486E3,3.6153195E4,4.35E3,6.1140693E3,1.2570919E4,4.2435996E4,1.4840753E1,2.0772844E3,7.4640015E2,5.068871E1,2.3948599E3,8.052449E2,3.5347953E4,3.1061714E3,1.2438287E3,3.8730044E3,2.241065E3,2.2405532E3,1.0330366E4],"tree_param":{"num_deleted":"0","num_feature":"30","num_nodes":"29","size_leaf_vector":"1"}},{"base_weights":[3.5147805E-4,1.3824059E0,-1.1025867E0,1.4873049E0,5.5587965E-1,-1.3872786E0,-4.992782E-1,-1.4494982E-1,1.489514E0,-1.10175855E-1,1.3454856E0,-1.4444985E0,-6.597059E-1,4.4169974E-1,-9.642876E-1,1.4905612E-1,-1.3982691E-1,4.3567453E-2,-1.8368146E-1,1.4172108E-1,-1.9182587E-1,-1.4575736E-1,2.84241E-2,5.137852E-2,-1.5689002E-1,1.4945678E-1,-1.1889171E-2,7.958009E-3,-1.1977992E-1],"categories":[],"categories_nodes":[],"categories_segments":[],"categories_sizes":[],"default_left":[0,0,0,0,0,0,0,0,0,0,0,0,0,0,0,0,0,0,0,0,0,0,0,0,0,0,0,0,0],"id":4,"left_children":[1,3,5,7,9,11,13,-1,15,17,19,21,23,25,27,-1,-1,-1,-1,-1,-1,-1,-1,-1,-1,-1,-1,-1,-1],"loss_changes":[1.5679298E5,3.9574453E3,9.825039E3,2.649922E2,2.7050767E3,1.6171016E3,8.0262617E3,0E0,1.2450781E2,2.6310918E3,5.536367E2,8.1484375E2,3.0261968E3,3.581134E3,2.9924463E3,0E0,0E0,0E0,0E0,0E0,0E0,0E0,0E0,0E0,0E0,0E0,0E0,0E0,0E0],"parents":[2147483647,0,0,1,1,2,2,3,3,4,4,5,5,6,6,8,8,9,9,10,10,11,11,12,12,13,13,14,14],"right_children":[2,4,6,8,10,12,14,-1,16,18,20,22,24,26,28,-1,-1,-1,-1,-1,-1,-1,-1,-1,-1,-1,-1,-1,-1],"split_conditions":[-1.7859976E0,-1.4160796E0,7.413282E-1,-4.9830067E-1,1.8959074E0,3.0477E2,-5.575814E-1,-1.4494982E-1,5.767415E-1,2.2414032E-2,2.0826507E-1,1.7888348E0,-3.3360067E-1,-7.233957E-1,1.54E0,1.4905612E-1,-1.3982691E-1,4.3567453E-2,-1.8368146E-1,1.4172108E-1,-1.9182587E-1,-1.4575736E-1,2.84241E-2,5.137852E-2,-1.5689002E-1,1.4945678E-1,-1.1889171E-2,7.958009E-3,-1.1977992E-1],"split_indices":[14,12,4,4,4,29,12,0,10,27,23,22,26,14,29,0,0,0,0,0,0,0,0,0,0,0,0,0,0],"split_type":[0,0,0,0,0,0,0,0,0,0,0,0,0,0,0,0,0,0,0,0,0,0,0,0,0,0,0,0,0],"sum_hessian":[1.028589E5,4.5652746E4,5.7206152E4,4.0510527E4,5.142218E3,3.886505E4,1.8341104E4,2.9957449E1,4.048057E4,2.7898008E3,2.3524172E3,3.603045E4,2.8346003E3,6.066064E3,1.227504E4,4.046638E4,1.4191652E1,2.1202605E3,6.695402E2,2.3023848E3,5.0032284E1,3.576014E4,2.7030988E2,1.2376318E3,1.5969685E3,2.107056E3,3.959008E3,2.2440623E3,1.0030978E4],"tree_param":{"num_deleted":"0","num_feature":"30","num_nodes":"29","size_leaf_vector":"1"}},{"base_weights":[4.894218E-4,1.3141242E0,-1.0349514E0,1.4185134E0,5.1482075E-1,-1.2013105E0,-6.144489E-2,-1.3820486E-1,1.4206259E0,-1.0076195E-1,1.270736E0,1.512271E-1,-1.2490304E0,7.17746E-1,-7.252997E-1,1.4216302E-1,-1.3330922E-1,4.454552E-2,-1.669535E-1,-1.867141E-1,1.3417944E-1,9.590144E-2,-1.5643668E-1,-1.3227047E-1,-6.295696E-2,1.04639925E-1,-9.655597E-2,3.4989577E-2,-1.2603469E-1],"categories":[],"categories_nodes":[],"categories_segments":[],"categories_sizes":[],"default_left":[0,0,0,0,0,0,0,0,0,0,0,0,0,0,0,0,0,0,0,0,0,0,0,0,0,0,0,0,0],"id":5,"left_children":[1,3,5,7,9,11,13,-1,15,17,19,21,23,25,27,-1,-1,-1,-1,-1,-1,-1,-1,-1,-1,-1,-1,-1,-1],"loss_changes":[1.3376412E5,3.6161484E3,8.906336E3,2.2879688E2,2.3308926E3,3.0316328E3,4.1527773E3,0E0,1.07828125E2,2.3671428E3,5.0380298E2,2.220955E3,2.069664E3,2.0442542E3,2.4942334E3,0E0,0E0,0E0,0E0,0E0,0E0,0E0,0E0,0E0,0E0,0E0,0E0,0E0,0E0],"parents":[2147483647,0,0,1,1,2,2,3,3,4,4,5,5,6,6,8,8,9,9,10,10,11,11,12,12,13,13,14,14],"right_children":[2,4,6,8,10,12,14,-1,16,18,20,22,24,26,28,-1,-1,-1,-1,-1,-1,-1,-1,-1,-1,-1,-1,-1,-1],"split_conditions":[-1.7859976E0,-1.4160796E0,1.620582E0,-4.9830067E-1,1.8959074E0,-9.853448E-1,-1.1611094E-1,-1.3820486E-1,5.767415E-1,-1.1814422E-1,5.4089034E-1,-7.4986964E-2,1.0663408E0,4.5705283E-1,-9.190497E-2,1.4216302E-1,-1.3330922E-1,4.454552E-2,-1.669535E-1,-1.867141E-1,1.3417944E-1,9.590144E-2,-1.5643668E-1,-1.3227047E-1,-6.295696E-2,1.04639925E-1,-9.655597E-2,3.4989577E-2,-1.2603469E-1],"split_indices":[14,12,4,4,4,20,8,0,10,26,18,12,7,13,6,0,0,0,0,0,0,0,0,0,0,0,0,0,0],"split_type":[0,0,0,0,0,0,0,0,0,0,0,0,0,0,0,0,0,0,0,0,0,0,0,0,0,0,0,0,0],"sum_hessian":[9.834016E4,4.3346895E4,5.4993258E4,3.8339035E4,5.00786E3,4.6967E4,8.026258E3,2.8406103E1,3.831063E4,2.7606113E3,2.2472488E3,1.6005289E3,4.5366473E4,3.6923403E3,4.3339175E3,3.829715E4,1.3482341E1,2.0481873E3,7.124241E2,4.920316E1,2.1980454E3,1.0884658E3,5.1206305E2,4.0543395E4,4.8230796E3,3.0895137E3,6.028267E2,1.4401777E3,2.8937397E3],"tree_param":{"num_deleted":"0","num_feature":"30","num_nodes":"29","size_leaf_vector":"1"}},{"base_weights":[6.95132E-4,1.1946067E0,-1.0276703E0,-5.8829E-1,1.2835097E0,-1.2676828E0,-5.213726E-1,8.119029E-1,-1.221088E0,1.344311E0,4.2805552E-1,-1.3290226E0,-5.3536206E-1,2.779767E-1,-8.945432E-1,1.3055596E-1,-1.6388552E-1,-1.5119612E-1,6.418016E-2,1.3525133E-1,-1.948437E-1,-4.122063E-2,1.3237254E-1,-1.3468353E-1,3.0788496E-2,5.3135723E-2,-1.4429176E-1,1.05303265E-1,-3.3560127E-2,1.99418E-2,-1.15667306E-1],"categories":[],"categories_nodes":[],"categories_segments":[],"categories_sizes":[],"default_left":[0,0,0,0,0,0,0,0,0,0,0,0,0,0,0,0,0,0,0,0,0,0,0,0,0,0,0,0,0,0,0],"id":6,"left_children":[1,3,5,7,9,11,13,15,17,19,21,23,25,27,29,-1,-1,-1,-1,-1,-1,-1,-1,-1,-1,-1,-1,-1,-1,-1,-1],"loss_changes":[1.1490518E5,6.8653125E3,6.1092344E3,1.8241508E3,2.1450312E3,1.5314883E3,4.8241484E3,7.7773254E2,7.691045E2,1.0427969E3,2.0617947E3,9.180781E2,2.5545193E3,2.448337E3,3.1617676E3,0E0,0E0,0E0,0E0,0E0,0E0,0E0,0E0,0E0,0E0,0E0,0E0,0E0,0E0,0E0,0E0],"parents":[2147483647,0,0,1,1,2,2,3,3,4,4,5,5,6,6,7,7,8,8,9,9,10,10,11,11,12,12,13,13,14,14],"right_children":[2,4,6,8,10,12,14,16,18,20,22,24,26,28,30,-1,-1,-1,-1,-1,-1,-1,-1,-1,-1,-1,-1,-1,-1,-1,-1],"split_conditions":[-1.3363411E0,7.986521E-2,7.413282E-1,-1.6016932E0,-2.761215E-1,3.0477E2,-5.725717E-1,1.4806494E-1,1.66793E5,5.767415E-1,1.8959074E0,1.2022438E0,-3.3360067E-1,-3.435655E-1,1.54E0,1.3055596E-1,-1.6388552E-1,-1.5119612E-1,6.418016E-2,1.3525133E-1,-1.948437E-1,-4.122063E-2,1.3237254E-1,-1.3468353E-1,3.0788496E-2,5.3135723E-2,-1.4429176E-1,1.05303265E-1,-3.3560127E-2,1.99418E-2,-1.15667306E-1],"split_indices":[14,4,4,10,12,29,12,16,0,10,4,26,26,8,29,0,0,0,0,0,0,0,0,0,0,0,0,0,0,0,0],"split_type":[0,0,0,0,0,0,0,0,0,0,0,0,0,0,0,0,0,0,0,0,0,0,0,0,0,0,0,0,0,0,0],"sum_hessian":[9.358597E4,4.3307117E4,5.0278855E4,2.0566504E3,4.1250465E4,3.410821E4,1.61706455E4,6.4007434E2,1.416576E3,3.8512617E4,2.7378477E3,3.1471328E4,2.6368826E3,5.1466113E3,1.1024034E4,5.3314923E2,1.0692507E2,1.2254255E3,1.9115057E2,3.8417508E4,9.510839E1,1.4128961E3,1.3249515E3,3.113272E4,3.3860638E2,1.2123407E3,1.424542E3,2.2737512E3,2.87286E3,2.130972E3,8.8930625E3],"tree_param":{"num_deleted":"0","num_feature":"30","num_nodes":"31","size_leaf_vector":"1"}},{"base_weights":[7.464188E-4,1.2081213E0,-9.2309016E-1,1.3146018E0,4.4059944E-1,-1.2019312E0,-3.767476E-1,-1.2742388E-1,1.3165554E0,-9.13845E-2,1.1448005E0,-1.2771828E0,-6.285992E-1,7.6980543E-1,-6.754718E-1,-2.6850027E-1,1.3172704E-1,3.9269526E-2,-1.6961189E-1,-2.3723643E-1,1.2102484E-1,-1.2924032E-1,6.0519625E-2,-1.22700565E-1,7.150742E-2,1.05907336E-1,-1.534913E-1,-2.2332312E-3,-1.0907062E-1],"categories":[],"categories_nodes":[],"categories_segments":[],"categories_sizes":[],"default_left":[0,0,0,0,0,0,0,0,0,0,0,0,0,0,0,0,0,0,0,0,0,0,0,0,0,0,0,0,0],"id":7,"left_children":[1,3,5,7,9,11,13,-1,15,17,19,21,23,25,27,-1,-1,-1,-1,-1,-1,-1,-1,-1,-1,-1,-1,-1,-1],"loss_changes":[9.895731E4,3.1423945E3,7.6563516E3,1.7248047E2,1.7558889E3,1.4348789E3,5.8179883E3,0E0,1.0008984E2,2.0753877E3,4.6716675E2,8.435156E2,3.1068374E3,2.3424275E3,3.6544844E3,0E0,0E0,0E0,0E0,0E0,0E0,0E0,0E0,0E0,0E0,0E0,0E0,0E0,0E0],"parents":[2147483647,0,0,1,1,2,2,3,3,4,4,5,5,6,6,8,8,9,9,10,10,11,11,12,12,13,13,14,14],"right_children":[2,4,6,8,10,12,14,-1,16,18,20,22,24,26,28,-1,-1,-1,-1,-1,-1,-1,-1,-1,-1,-1,-1,-1,-1],"split_conditions":[-1.7859976E0,-1.4160796E0,7.413282E-1,-4.9830067E-1,1.8959074E0,1.0663408E0,-8.069166E-1,-1.2742388E-1,-7.0277715E-1,2.2414032E-2,-1.987277E-2,1.7888348E0,1.5378694E-1,1.2329714E0,-1.1611094E-1,-2.6850027E-1,1.3172704E-1,3.9269526E-2,-1.6961189E-1,-2.3723643E-1,1.2102484E-1,-1.2924032E-1,6.0519625E-2,-1.22700565E-1,7.150742E-2,1.05907336E-1,-1.534913E-1,-2.2332312E-3,-1.0907062E-1],"split_indices":[14,12,4,4,4,7,14,0,11,27,11,22,4,3,8,0,0,0,0,0,0,0,0,0,0,0,0,0,0],"split_type":[0,0,0,0,0,0,0,0,0,0,0,0,0,0,0,0,0,0,0,0,0,0,0,0,0,0,0,0,0],"sum_hessian":[8.871577E4,3.845634E4,5.025943E4,3.3770543E4,4.685795E3,3.3275277E4,1.6984156E4,2.4974594E1,3.374557E4,2.6697903E3,2.0160045E3,2.9413443E4,3.8618328E3,3.5101274E3,1.3474028E4,5.3576345E0,3.374021E4,2.0516504E3,6.181399E2,3.6184757E1,1.9798197E3,2.9177834E4,2.3560852E2,2.6719597E3,1.1898732E3,3.1191765E3,3.90951E2,5.2372285E3,8.2368E3],"tree_param":{"num_deleted":"0","num_feature":"30","num_nodes":"29","size_leaf_vector":"1"}},{"base_weights":[8.102398E-4,1.1653898E0,-8.7418187E-1,1.275216E0,4.0917754E-1,-1.1537218E0,-3.4758142E-1,-1.4454702E-1,1.2777832E0,-2.1125071E-1,1.1006726E0,-1.2307699E0,-5.860906E-1,3.9620984E-1,-7.424605E-1,1.2788509E-1,-1.850671E-1,5.1587462E-2,-1.2660466E-1,1.1646088E-1,-1.825962E-1,-1.2504773E-1,3.8711168E-2,-1.1669365E-1,6.3381486E-2,8.877792E-2,-4.3361556E-2,-1.0238804E-1,5.653879E-3],"categories":[],"categories_nodes":[],"categories_segments":[],"categories_sizes":[],"default_left":[0,0,0,0,0,0,0,0,0,0,0,0,0,0,0,0,0,0,0,0,0,0,0,0,0,0,0,0,0],"id":8,"left_children":[1,3,5,7,9,11,13,-1,15,17,19,21,23,25,27,-1,-1,-1,-1,-1,-1,-1,-1,-1,-1,-1,-1,-1,-1],"loss_changes":[8.554118E4,2.9904805E3,7.055574E3,2.2147266E2,1.9602344E3,1.368668E3,4.88252E3,0E0,1.0730859E2,1.8481571E3,4.064292E2,8.7946484E2,2.653653E3,2.352126E3,2.4416372E3,0E0,0E0,0E0,0E0,0E0,0E0,0E0,0E0,0E0,0E0,0E0,0E0,0E0,0E0],"parents":[2147483647,0,0,1,1,2,2,3,3,4,4,5,5,6,6,8,8,9,9,10,10,11,11,12,12,13,13,14,14],"right_children":[2,4,6,8,10,12,14,-1,16,18,20,22,24,26,28,-1,-1,-1,-1,-1,-1,-1,-1,-1,-1,-1,-1,-1,-1],"split_conditions":[-1.7859976E0,-1.7696148E0,7.413282E-1,-4.8604634E-1,2.1870494E0,1.0663408E0,-5.575814E-1,-1.4454702E-1,3.1570253E-1,-1.1702472E-1,5.767415E-1,1.2022438E0,1.5378694E-1,3.4057415E-1,5.5362684E-1,1.2788509E-1,-1.850671E-1,5.1587462E-2,-1.2660466E-1,1.1646088E-1,-1.825962E-1,-1.2504773E-1,3.8711168E-2,-1.1669365E-1,6.3381486E-2,8.877792E-2,-4.3361556E-2,-1.0238804E-1,5.653879E-3],"split_indices":[14,10,4,4,4,7,12,0,12,22,10,26,4,14,17,0,0,0,0,0,0,0,0,0,0,0,0,0,0],"split_type":[0,0,0,0,0,0,0,0,0,0,0,0,0,0,0,0,0,0,0,0,0,0,0,0,0,0,0,0,0],"sum_hessian":[8.394437E4,3.6012645E4,4.7931723E4,3.1445121E4,4.5675225E3,3.130998E4,1.6621742E4,2.9112223E1,3.141601E4,2.4078384E3,2.1596838E3,2.7566979E4,3.7430015E3,5.7642466E3,1.0857496E4,3.140588E4,1.0127133E1,1.4256057E3,9.822327E2,2.1141006E3,4.558325E1,2.7235451E4,3.315277E2,2.5356978E3,1.2073038E3,3.619857E3,2.1443896E3,8.0292046E3,2.8282913E3],"tree_param":{"num_deleted":"0","num_feature":"30","num_nodes":"29","size_leaf_vector":"1"}},{"base_weights":[9.292104E-4,1.0754106E0,-8.7176996E-1,1.2398568E0,2.6498207E-1,-1.1063172E0,-3.562827E-1,-1.3622902E-1,1.2439853E0,-2.911359E-1,1.0711586E0,1.4475046E-1,-1.1531503E0,1.5274914E-1,-9.443292E-1,-1.6843343E-1,1.2456598E-1,2.2941291E-2,-1.427718E-1,1.163434E-1,-1.7931649E-1,-1.4300036E-1,1.21477365E-1,-7.104914E-2,-1.21667065E-1,4.267443E-2,-1.1827823E-1,1.8878679E-1,-1.11048184E-1],"categories":[],"categories_nodes":[],"categories_segments":[],"categories_sizes":[],"default_left":[0,0,0,0,0,0,0,0,0,0,0,0,0,0,0,0,0,0,0,0,0,0,0,0,0,0,0,0,0],"id":9,"left_children":[1,3,5,7,9,11,13,-1,15,17,19,21,23,25,27,-1,-1,-1,-1,-1,-1,-1,-1,-1,-1,-1,-1,-1,-1],"loss_changes":[7.4285305E4,4.731582E3,5.285035E3,3.1877734E2,2.6860422E3,1.7605117E3,4.0926057E3,0E0,1.4660938E2,2.0982192E3,6.484951E2,1.8299911E3,8.134375E2,2.6824504E3,2.9873115E3,0E0,0E0,0E0,0E0,0E0,0E0,0E0,0E0,0E0,0E0,0E0,0E0,0E0,0E0],"parents":[2147483647,0,0,1,1,2,2,3,3,4,4,5,5,6,6,8,8,9,9,10,10,11,11,12,12,13,13,14,14],"right_children":[2,4,6,8,10,12,14,-1,16,18,20,22,24,26,28,-1,-1,-1,-1,-1,-1,-1,-1,-1,-1,-1,-1,-1,-1],"split_conditions":[-1.3819888E0,-1.7696148E0,8.9254093E-1,-4.8604634E-1,2.1870494E0,-9.853448E-1,-4.3405853E-2,-1.3622902E-1,-5.3077763E-1,-1.1814422E-1,5.767415E-1,-2.027623E0,-1.0107267E0,1.2776982E0,9.120405E-1,-1.6843343E-1,1.2456598E-1,2.2941291E-2,-1.427718E-1,1.163434E-1,-1.7931649E-1,-1.4300036E-1,1.21477365E-1,-7.104914E-2,-1.21667065E-1,4.267443E-2,-1.1827823E-1,1.8878679E-1,-1.11048184E-1],"split_indices":[14,10,4,4,4,20,12,0,11,26,10,1,10,3,4,0,0,0,0,0,0,0,0,0,0,0,0,0,0],"split_type":[0,0,0,0,0,0,0,0,0,0,0,0,0,0,0,0,0,0,0,0,0,0,0,0,0,0,0,0,0],"sum_hessian":[7.921884E4,3.550468E4,4.3714168E4,2.9515148E4,5.9895317E3,3.0043297E4,1.3670872E4,4.6231503E1,2.9468916E4,3.5448538E3,2.4446777E3,1.0840021E3,2.8959293E4,7.3281396E3,6.342732E3,1.626723E1,2.9452648E4,2.4318684E3,1.1129854E3,2.3689548E3,7.572309E1,4.3842914E2,6.4557294E2,3.6356235E3,2.532367E4,6.0812104E3,1.2469293E3,3.5090643E2,5.9918257E3],"tree_param":{"num_deleted":"0","num_feature":"30","num_nodes":"29","size_leaf_vector":"1"}},{"base_weights":[9.475151E-4,1.0335926E0,-8.362647E-1,1.2087269E0,2.4341652E-1,-9.567987E-1,9.445305E-2,-1.3129197E-1,1.2129651E0,-8.95009E-1,6.205418E-1,4.145518E-1,-1.0231836E0,-6.1869335E-1,1.1213619E0,-1.5908949E-1,1.21470846E-1,-1.3988107E-1,2.5537604E-2,7.132211E-2,-1.6553436E-1,1.0016656E-1,-1.3406156E-1,-1.05616085E-1,4.600383E-2,-1.1485913E-1,6.6554755E-2,1.2847479E-1,-1.6772701E-1],"categories":[],"categories_nodes":[],"categories_segments":[],"categories_sizes":[],"default_left":[0,0,0,0,0,0,0,0,0,0,0,0,0,0,0,0,0,0,0,0,0,0,0,0,0,0,0,0,0],"id":10,"left_children":[1,3,5,7,9,11,13,-1,15,17,19,21,23,25,27,-1,-1,-1,-1,-1,-1,-1,-1,-1,-1,-1,-1,-1,-1],"loss_changes":[6.4527363E4,4.6243594E3,4.6241914E3,2.9394922E2,2.6041218E3,3.3226562E3,3.4624531E3,0E0,1.3542578E2,8.751682E2,9.621332E2,1.7384507E3,1.7030508E3,1.8996295E3,8.881719E2,0E0,0E0,0E0,0E0,0E0,0E0,0E0,0E0,0E0,0E0,0E0,0E0,0E0,0E0],"parents":[2147483647,0,0,1,1,2,2,3,3,4,4,5,5,6,6,8,8,9,9,10,10,11,11,12,12,13,13,14,14],"right_children":[2,4,6,8,10,12,14,-1,16,18,20,22,24,26,28,-1,-1,-1,-1,-1,-1,-1,-1,-1,-1,-1,-1,-1,-1],"split_conditions":[-1.3363411E0,-1.7696148E0,2.4474049E0,-4.8604634E-1,3.7293696E-1,-9.853448E-1,6.3544345E-1,-1.3129197E-1,-5.3077763E-1,1.5636E5,5.767415E-1,-7.4986964E-2,2.4990346E0,1.3904194E0,1.3374665E0,-1.5908949E-1,1.21470846E-1,-1.3988107E-1,2.5537604E-2,7.132211E-2,-1.6553436E-1,1.0016656E-1,-1.3406156E-1,-1.05616085E-1,4.600383E-2,-1.1485913E-1,6.6554755E-2,1.2847479E-1,-1.6772701E-1],"split_indices":[14,10,4,4,4,20,11,0,11,0,10,12,7,5,14,0,0,0,0,0,0,0,0,0,0,0,0,0,0],"split_type":[0,0,0,0,0,0,0,0,0,0,0,0,0,0,0,0,0,0,0,0,0,0,0,0,0,0,0,0,0],"sum_hessian":[7.463553E4,3.3417305E4,4.121823E4,2.7354035E4,6.063268E3,3.6492227E4,4.726007E3,4.5380657E1,2.7308654E4,1.5084243E3,4.5548433E3,1.684722E3,3.4807504E4,2.7893289E3,1.9366779E3,1.6402369E1,2.7292252E4,1.0488661E3,4.5955835E2,4.3772773E3,1.7756625E2,1.262753E3,4.2196902E2,3.4050727E4,7.567781E2,1.9746592E3,8.146697E2,1.8303612E3,1.063167E2],"tree_param":{"num_deleted":"0","num_feature":"30","num_nodes":"29","size_leaf_vector":"1"}},{"base_weights":[1.1069194E-3,1.0636582E0,-7.5045633E-1,1.1849027E0,3.1383893E-1,-1.0393553E0,-2.5995785E-1,-1.753556E0,1.186526E0,-1.7298216E0,4.6824953E-1,-1.1293062E0,-4.2787334E-1,5.045069E-1,-5.8974344E-1,-1.0819508E-1,-2.4332248E-1,1.1883166E-1,-1.1903663E-1,-1.4692508E-1,-1.9566436E-1,6.0650107E-2,-1.4755104E-1,-1.1529987E-1,6.198438E-2,4.0317003E-2,-1.2803297E-1,1.0462751E-1,-6.109188E-2,4.2209968E-2,-9.769326E-2],"categories":[],"categories_nodes":[],"categories_segments":[],"categories_sizes":[],"default_left":[0,0,0,0,0,0,0,0,0,0,0,0,0,0,0,0,0,0,0,0,0,0,0,0,0,0,0,0,0,0,0],"id":11,"left_children":[1,3,5,7,9,11,13,15,17,19,21,23,25,27,29,-1,-1,-1,-1,-1,-1,-1,-1,-1,-1,-1,-1,-1,-1,-1,-1],"loss_changes":[5.6094984E4,2.64525E3,5.8298496E3,1.2156641E2,1.2794637E3,1.423666E3,3.8454004E3,3.8648262E0,1.0798047E2,1.3961121E1,1.0134936E3,9.361035E2,2.353898E3,2.7786816E3,4.17501E3,0E0,0E0,0E0,0E0,0E0,0E0,0E0,0E0,0E0,0E0,0E0,0E0,0E0,0E0,0E0,0E0],"parents":[2147483647,0,0,1,1,2,2,3,3,4,4,5,5,6,6,7,7,8,8,9,9,10,10,11,11,12,12,13,13,14,14],"right_children":[2,4,6,8,10,12,14,16,18,20,22,24,26,28,30,-1,-1,-1,-1,-1,-1,-1,-1,-1,-1,-1,-1,-1,-1,-1,-1],"split_conditions":[-1.7859976E0,-1.4160796E0,7.413282E-1,-7.0277715E-1,-1.8385863E-1,1.0663408E0,-4.254906E-1,-4.9830067E-1,5.767415E-1,-4.8604634E-1,4.7627756E-1,1.2022438E0,-2.137598E-1,-8.215705E-2,3.99E0,-1.0819508E-1,-2.4332248E-1,1.1883166E-1,-1.1903663E-1,-1.4692508E-1,-1.9566436E-1,6.0650107E-2,-1.4755104E-1,-1.1529987E-1,6.198438E-2,4.0317003E-2,-1.2803297E-1,1.0462751E-1,-6.109188E-2,4.2209968E-2,-9.769326E-2],"split_indices":[14,12,4,11,28,7,14,4,10,4,26,26,26,13,29,0,0,0,0,0,0,0,0,0,0,0,0,0,0,0,0],"split_type":[0,0,0,0,0,0,0,0,0,0,0,0,0,0,0,0,0,0,0,0,0,0,0,0,0,0,0,0,0,0,0],"sum_hessian":[7.02419E4,2.9100102E4,4.1141797E4,2.5049123E4,4.0509783E3,2.5891078E4,1.5250719E4,1.3234171E1,2.5035889E4,2.8385733E2,3.7671208E3,2.2570102E4,3.3209766E3,4.596108E3,1.065461E4,7.960244E0,5.2739263E0,2.5017541E4,1.8347252E1,1.3558089E2,1.4827644E2,3.5176155E3,2.4950534E2,2.2268807E4,3.012939E2,1.6818755E3,1.6391011E3,3.0935945E3,1.5025134E3,2.9486912E3,7.7059194E3],"tree_param":{"num_deleted":"0","num_feature":"30","num_nodes":"31","size_leaf_vector":"1"}},{"base_weights":[1.0412883E-3,1.0348461E0,-7.129824E-1,1.1622657E0,2.8978506E-1,-1.0052418E0,-2.3983586E-1,-1.6455445E0,1.1639031E0,5.872994E-1,-7.1790284E-1,-1.0806211E0,-2.36254E-1,2.5151405E-1,-6.766945E-1,-1.05354846E-1,-2.1620364E-1,1.1656716E-1,-1.1589631E-1,-7.2299264E-2,8.547243E-2,-1.4707993E-1,1.1646773E-1,-3.8721707E-2,-1.1425722E-1,1.0140889E-1,-1.0498635E-1,4.8194814E-2,-1.0133246E-1,3.337259E-2,-9.715971E-2],"categories":[],"categories_nodes":[],"categories_segments":[],"categories_sizes":[],"default_left":[0,0,0,0,0,0,0,0,0,0,0,0,0,0,0,0,0,0,0,0,0,0,0,0,0,0,0,0,0,0,0],"id":12,"left_children":[1,3,5,7,9,11,13,15,17,19,21,23,25,27,29,-1,-1,-1,-1,-1,-1,-1,-1,-1,-1,-1,-1,-1,-1,-1,-1],"loss_changes":[4.8846594E4,2.5660664E3,5.412123E3,1.0805078E2,1.1844384E3,1.4022129E3,3.2084287E3,1.9627686E0,9.613086E1,1.0692302E3,1.2783275E3,9.4609766E2,2.1996565E3,2.0509883E3,2.3579697E3,0E0,0E0,0E0,0E0,0E0,0E0,0E0,0E0,0E0,0E0,0E0,0E0,0E0,0E0,0E0,0E0],"parents":[2147483647,0,0,1,1,2,2,3,3,4,4,5,5,6,6,7,7,8,8,9,9,10,10,11,11,12,12,13,13,14,14],"right_children":[2,4,6,8,10,12,14,16,18,20,22,24,26,28,30,-1,-1,-1,-1,-1,-1,-1,-1,-1,-1,-1,-1,-1,-1,-1,-1],"split_conditions":[-1.7859976E0,-1.4160796E0,7.413282E-1,-7.0277715E-1,4.0447035E-1,3.0477E2,-2.1248002E-1,-4.9830067E-1,5.767415E-1,-2.8465273E-2,3.4139E2,-1.3300555E0,-4.9439192E-1,1.2776982E0,1.54E0,-1.05354846E-1,-2.1620364E-1,1.1656716E-1,-1.1589631E-1,-7.2299264E-2,8.547243E-2,-1.4707993E-1,1.1646773E-1,-3.8721707E-2,-1.1425722E-1,1.0140889E-1,-1.0498635E-1,4.8194814E-2,-1.0133246E-1,3.337259E-2,-9.715971E-2],"split_indices":[14,12,4,11,15,29,12,4,10,27,29,6,26,3,29,0,0,0,0,0,0,0,0,0,0,0,0,0,0,0,0],"split_type":[0,0,0,0,0,0,0,0,0,0,0,0,0,0,0,0,0,0,0,0,0,0,0,0,0,0,0,0,0,0,0],"sum_hessian":[6.617135E4,2.7032168E4,3.9139184E4,2.3083834E4,3.948334E3,2.419375E4,1.4945433E4,1.2868918E1,2.3070965E4,3.0486528E3,8.9968097E2,2.2033527E4,2.1602227E3,7.034224E3,7.911209E3,7.412558E0,5.4563603E0,2.305391E4,1.705363E1,5.164614E2,2.5321914E3,6.4281854E2,2.5686243E2,1.8076937E3,2.0225834E4,8.5146204E2,1.3087606E3,5.9507144E3,1.0835094E3,1.7872954E3,6.1239136E3],"tree_param":{"num_deleted":"0","num_feature":"30","num_nodes":"31","size_leaf_vector":"1"}},{"base_weights":[1.0326394E-3,9.4869584E-1,-7.256629E-1,1.1451308E0,2.1646334E-1,-9.6906036E-1,-2.6500204E-1,-1.2565558E-1,1.1487643E0,-2.60648E-1,9.710672E-1,2.326546E-1,-1.021588E0,1.4604191E-1,-7.8690505E-1,-1.417972E-1,1.1500889E-1,1.8010153E-2,-1.3347049E-1,1.0560002E-1,-1.5782046E-1,-1.3222708E-1,1.13524534E-1,-4.987268E-2,-1.10990725E-1,7.540553E-2,-2.9758817E-2,1.7837073E-1,-9.707955E-2],"categories":[],"categories_nodes":[],"categories_segments":[],"categories_sizes":[],"default_left":[0,0,0,0,0,0,0,0,0,0,0,0,0,0,0,0,0,0,0,0,0,0,0,0,0,0,0,0,0],"id":13,"left_children":[1,3,5,7,9,11,13,-1,15,17,19,21,23,25,27,-1,-1,-1,-1,-1,-1,-1,-1,-1,-1,-1,-1,-1,-1],"loss_changes":[4.287741E4,3.8865684E3,3.9509043E3,1.87375E2,2.0585918E3,1.4556387E3,2.6138525E3,0E0,7.39668E1,1.6586953E3,4.8120312E2,1.3578323E3,1.019584E3,1.8388982E3,2.5393354E3,0E0,0E0,0E0,0E0,0E0,0E0,0E0,0E0,0E0,0E0,0E0,0E0,0E0,0E0],"parents":[2147483647,0,0,1,1,2,2,3,3,4,4,5,5,6,6,8,8,9,9,10,10,11,11,12,12,13,13,14,14],"right_children":[2,4,6,8,10,12,14,-1,16,18,20,22,24,26,28,-1,-1,-1,-1,-1,-1,-1,-1,-1,-1,-1,-1,-1,-1],"split_conditions":[-1.3363411E0,-1.8875681E0,8.9254093E-1,-4.8604634E-1,2.1870494E0,-9.853448E-1,-4.3405853E-2,-1.2565558E-1,-5.3077763E-1,-1.1814422E-1,5.767415E-1,-2.027623E0,-6.485516E-1,7.65E0,9.120405E-1,-1.417972E-1,1.1500889E-1,1.8010153E-2,-1.3347049E-1,1.0560002E-1,-1.5782046E-1,-1.3222708E-1,1.13524534E-1,-4.987268E-2,-1.10990725E-1,7.540553E-2,-2.9758817E-2,1.7837073E-1,-9.707955E-2],"split_indices":[14,10,4,4,4,20,12,0,11,26,10,1,14,29,4,0,0,0,0,0,0,0,0,0,0,0,0,0,0],"split_type":[0,0,0,0,0,0,0,0,0,0,0,0,0,0,0,0,0,0,0,0,0,0,0,0,0,0,0,0,0],"sum_hessian":[6.225985E4,2.702153E4,3.523832E4,2.1305398E4,5.71613E3,2.3055488E4,1.2182833E4,3.1663548E1,2.1273736E4,3.502358E3,2.213772E3,9.6541876E2,2.2090068E4,6.8156426E3,5.3671904E3,1.0421933E1,2.1263314E4,2.4838987E3,1.0184593E3,2.1429617E3,7.081041E1,3.5440594E2,6.110128E2,3.1931104E3,1.8896959E4,2.8748467E3,3.9407961E3,3.577326E2,5.009458E3],"tree_param":{"num_deleted":"0","num_feature":"30","num_nodes":"29","size_leaf_vector":"1"}},{"base_weights":[1.081572E-3,8.573216E-1,-7.463144E-1,1.130841E0,1.4892519E-1,-8.6336166E-1,1.7763114E-1,1.1330504E0,-1.3127764E-1,-8.49663E-1,4.2414725E-1,-9.459826E-1,2.9005244E-1,-4.5218956E-1,1.0979058E0,1.13856964E-1,8.19232E-2,-1.2428798E-1,1.04580335E-2,1.0048387E-1,1.0685826E-3,-9.847623E-2,8.434812E-2,1.8655531E-1,-9.38285E-2,4.3895155E-2,-1.4557873E-1,-1.5331313E-1,1.2555629E-1],"categories":[],"categories_nodes":[],"categories_segments":[],"categories_sizes":[],"default_left":[0,0,0,0,0,0,0,0,0,0,0,0,0,0,0,0,0,0,0,0,0,0,0,0,0,0,0,0,0],"id":14,"left_children":[1,3,5,7,9,11,13,15,-1,17,19,21,23,25,27,-1,-1,-1,-1,-1,-1,-1,-1,-1,-1,-1,-1,-1,-1],"loss_changes":[3.744875E4,5.284289E3,3.3791543E3,1.077168E2,2.0886243E3,2.6430312E3,2.0372155E3,3.3115234E1,0E0,6.1626135E2,1.4302871E3,1.7966699E3,3.590613E3,1.8670586E3,5.942832E2,0E0,0E0,0E0,0E0,0E0,0E0,0E0,0E0,0E0,0E0,0E0,0E0,0E0,0E0],"parents":[2147483647,0,0,1,1,2,2,3,3,4,4,5,5,6,6,7,7,9,9,10,10,11,11,12,12,13,13,14,14],"right_children":[2,4,6,8,10,12,14,16,-1,18,20,22,24,26,28,-1,-1,-1,-1,-1,-1,-1,-1,-1,-1,-1,-1,-1,-1],"split_conditions":[-9.9395156E-1,-1.9415451E0,2.7407496E0,5.767415E-1,-2.9450953E-1,6.777285E-1,6.7342496E-1,2.482231E0,-1.3127764E-1,1.5636E5,-7.287119E-1,3.0202103E0,-1.3385137E0,7.65E0,-1.1522684E-1,1.13856964E-1,8.19232E-2,-1.2428798E-1,1.04580335E-2,1.0048387E-1,1.0685826E-3,-9.847623E-2,8.434812E-2,1.8655531E-1,-9.38285E-2,4.3895155E-2,-1.4557873E-1,-1.5331313E-1,1.2555629E-1],"split_indices":[14,12,4,10,4,21,11,17,0,0,19,7,13,29,23,0,0,0,0,0,0,0,0,0,0,0,0,0,0],"split_type":[0,0,0,0,0,0,0,0,0,0,0,0,0,0,0,0,0,0,0,0,0,0,0,0,0,0,0,0,0],"sum_hessian":[5.851621E4,2.7272193E4,3.1244018E4,1.9674906E4,7.5972876E3,2.7731059E4,3.5129592E3,1.965767E4,1.7237116E1,1.6410344E3,5.956253E3,2.5877586E4,1.853473E3,2.0859075E3,1.4270518E3,1.931534E4,3.423306E2,1.1619325E3,4.7910202E2,2.4765703E3,3.4796826E3,2.5329125E4,5.484615E2,8.1176337E2,1.0417096E3,1.1051531E3,9.8075433E2,8.018428E1,1.3468676E3],"tree_param":{"num_deleted":"0","num_feature":"30","num_nodes":"29","size_leaf_vector":"1"}},{"base_weights":[1.2002251E-3,1.0346184E0,-5.74383E-1,-1.190144E0,1.0730702E0,9.6345514E-2,-7.8556263E-1,-1.16550826E-1,-1.489284E-1,-1.2898701E0,1.08844E0,-1.0191779E0,3.9951235E-1,-8.887791E-1,1.2674288E-1,-1.2162528E-1,-1.523274E-1,1.0978029E-1,-1.303231E-1,-1.202176E-1,3.2277618E-2,5.104087E-1,3.3357393E-2,9.241077E-3,-9.878152E-2,1.3328066E-1,-4.66303E-2],"categories":[],"categories_nodes":[],"categories_segments":[],"categories_sizes":[],"default_left":[0,0,0,0,0,0,0,0,0,0,0,0,0,0,0,0,0,0,0,0,0,0,0,0,0,0,0],"id":15,"left_children":[1,3,5,7,9,11,13,-1,-1,15,17,19,21,23,25,-1,-1,-1,-1,-1,-1,-1,-1,-1,-1,-1,-1],"loss_changes":[3.2692746E4,1.68325E3,5.000258E3,7.295227E-1,7.033613E2,2.8594565E3,2.528254E3,0E0,0E0,3.0142212E-1,4.3145703E2,4.4410657E2,2.060628E3,2.3438457E3,1.9530247E3,0E0,0E0,0E0,0E0,0E0,0E0,0E0,0E0,0E0,0E0,0E0,0E0],"parents":[2147483647,0,0,1,1,2,2,3,3,4,4,5,5,6,6,9,9,10,10,11,11,12,12,13,13,14,14],"right_children":[2,4,6,8,10,12,14,-1,-1,16,18,20,22,24,26,-1,-1,-1,-1,-1,-1,-1,-1,-1,-1,-1,-1],"split_conditions":[-1.6016932E0,-1.32018E0,-8.069166E-1,2.4990346E0,-8.085281E-1,-2.7838778E-1,1.278442E0,-1.16550826E-1,-1.489284E-1,2.4990346E0,8.01032E-1,1.66793E5,-2.6251218E-1,-5.0159526E-1,-1.2069566E0,-1.2162528E-1,-1.523274E-1,1.0978029E-1,-1.303231E-1,-1.202176E-1,3.2277618E-2,5.104087E-1,3.3357393E-2,9.241077E-3,-9.878152E-2,1.3328066E-1,-4.66303E-2],"split_indices":[10,4,14,7,11,4,7,0,0,7,14,0,4,20,13,0,0,0,0,0,0,0,0,0,0,0,0],"split_type":[0,0,0,0,0,0,0,0,0,0,0,0,0,0,0,0,0,0,0,0,0,0,0,0,0,0,0],"sum_hessian":[5.4960594E4,1.9660604E4,3.5299992E4,3.3352286E2,1.932708E4,8.452981E3,2.684701E4,3.1266913E2,2.0853727E1,1.2436533E2,1.9202715E4,1.8058541E3,6.6471274E3,2.4118334E4,2.7286753E3,9.926679E1,2.509854E1,1.9128373E4,7.434242E1,1.5892386E3,2.1661545E2,9.082105E1,6.556306E3,2.2111965E3,2.1907137E4,8.990503E2,1.8296251E3],"tree_param":{"num_deleted":"0","num_feature":"30","num_nodes":"27","size_leaf_vector":"1"}},{"base_weights":[1.0572673E-3,1.0701302E0,-5.172923E-1,-1.2081817E0,1.0959293E0,-8.472275E-1,-8.722642E-2,-1.1658513E-1,-1.4574756E-1,1.1019331E0,-1.6884968E0,-2.8119823E-1,-9.914542E-1,4.3889448E-1,-4.7643897E-1,-1.2804155E-1,1.1067708E-1,-1.9100721E-1,-1.3414262E-1,2.7312947E-2,-1.1764921E-1,1.6460141E-2,-1.0512507E-1,-1.3921161E-1,5.9507173E-2,3.5333607E-2,-7.999439E-2],"categories":[],"categories_nodes":[],"categories_segments":[],"categories_sizes":[],"default_left":[0,0,0,0,0,0,0,0,0,0,0,0,0,0,0,0,0,0,0,0,0,0,0,0,0,0,0],"id":16,"left_children":[1,3,5,7,9,11,13,-1,-1,15,17,19,21,23,25,-1,-1,-1,-1,-1,-1,-1,-1,-1,-1,-1,-1],"loss_changes":[2.8764342E4,9.975781E2,4.960167E3,3.085327E-1,2.8204883E2,1.6146084E3,3.108043E3,0E0,0E0,1.9416797E2,2.4134827E-1,1.9945334E3,1.089919E3,1.8464243E3,2.34212E3,0E0,0E0,0E0,0E0,0E0,0E0,0E0,0E0,0E0,0E0,0E0,0E0],"parents":[2147483647,0,0,1,1,2,2,3,3,4,4,5,5,6,6,9,9,10,10,11,11,12,12,13,13,14,14],"right_children":[2,4,6,8,10,12,14,-1,-1,16,18,20,22,24,26,-1,-1,-1,-1,-1,-1,-1,-1,-1,-1,-1,-1],"split_conditions":[-2.0208135E0,-4.8604634E-1,7.413282E-1,2.4990346E0,1.63692E3,-8.771465E-1,-4.254906E-1,-1.1658513E-1,-1.4574756E-1,-5.3077763E-1,-3.0589217E-1,7.111466E-2,-9.853448E-1,-1.0503635E0,3.99E0,-1.2804155E-1,1.1067708E-1,-1.9100721E-1,-1.3414262E-1,2.7312947E-2,-1.1764921E-1,1.6460141E-2,-1.0512507E-1,-1.3921161E-1,5.9507173E-2,3.5333607E-2,-7.999439E-2],"split_indices":[10,4,4,7,29,10,14,0,0,11,12,8,20,11,29,0,0,0,0,0,0,0,0,0,0,0,0],"split_type":[0,0,0,0,0,0,0,0,0,0,0,0,0,0,0,0,0,0,0,0,0,0,0,0,0,0,0],"sum_hessian":[5.1904812E4,1.694841E4,3.4956402E4,1.892573E2,1.6759152E4,1.978042E4,1.5175982E4,1.6663843E2,2.261886E1,1.6723695E4,3.5456154E1,4.0172703E3,1.5763149E4,6.4529854E3,8.722997E3,3.3356174E1,1.669034E4,1.8891872E1,1.656428E1,2.4815164E3,1.5357539E3,7.751579E2,1.4987992E4,5.0653174E2,5.9464536E3,2.4468496E3,6.2761475E3],"tree_param":{"num_deleted":"0","num_feature":"30","num_nodes":"27","size_leaf_vector":"1"}},{"base_weights":[9.761613E-4,1.0787672E0,-4.8152813E-1,1.0884104E0,-1.4035425E-1,-8.205047E-1,-5.7098202E-2,1.0892266E0,-2.3829709E-1,-9.454835E-1,-1.777138E-1,4.1617727E-1,-3.892309E-1,1.0899394E-1,-2.242723E-1,-9.787088E-2,1.17781475E-1,5.473092E-2,-1.0201681E-1,-1.35155E-1,5.625555E-2,4.1155297E-2,-7.539283E-2],"categories":[],"categories_nodes":[],"categories_segments":[],"categories_sizes":[],"default_left":[0,0,0,0,0,0,0,0,0,0,0,0,0,0,0,0,0,0,0,0,0,0,0],"id":17,"left_children":[1,3,5,7,-1,9,11,13,-1,15,17,19,21,-1,-1,-1,-1,-1,-1,-1,-1,-1,-1],"loss_changes":[2.5432707E4,3.6354492E2,4.8602217E3,4.528125E1,0E0,1.5086572E3,2.3582239E3,3.8216797E1,0E0,1.1104443E3,1.8687059E3,1.6016108E3,2.574858E3,0E0,0E0,0E0,0E0,0E0,0E0,0E0,0E0,0E0,0E0],"parents":[2147483647,0,0,1,1,2,2,3,3,5,5,6,6,7,7,9,9,10,10,11,11,12,12],"right_children":[2,4,6,8,-1,10,12,14,-1,16,18,20,22,-1,-1,-1,-1,-1,-1,-1,-1,-1,-1],"split_conditions":[-3.6156354E0,5.767415E-1,7.413282E-1,1.9602777E0,-1.4035425E-1,1.0663408E0,-4.254906E-1,-1.7279367E-1,-2.3829709E-1,1.2022438E0,-7.0378727E-1,-1.0503635E0,3.99E0,1.0899394E-1,-2.242723E-1,-9.787088E-2,1.17781475E-1,5.473092E-2,-1.0201681E-1,-1.35155E-1,5.625555E-2,4.1155297E-2,-7.539283E-2],"split_indices":[14,10,4,1,0,7,14,3,0,26,10,11,29,0,0,0,0,0,0,0,0,0,0],"split_type":[0,0,0,0,0,0,0,0,0,0,0,0,0,0,0,0,0,0,0,0,0,0,0],"sum_hessian":[4.8903406E4,1.5122463E4,3.378094E4,1.5064502E4,5.7960724E1,1.878062E4,1.5000324E4,1.5061646E4,2.8550766E0,1.5723086E4,3.0575327E3,6.185701E3,8.814623E3,1.5059098E4,2.548534E0,1.5481373E4,2.4171317E2,1.6434858E3,1.4140469E3,4.724121E2,5.713289E3,2.7581934E3,6.0564297E3],"tree_param":{"num_deleted":"0","num_feature":"30","num_nodes":"23","size_leaf_vector":"1"}},{"base_weights":[9.831835E-4,1.0439897E0,-4.652221E-1,-1.1849728E0,1.0704706E0,-6.245246E-1,3.3073378E-1,-1.1317881E-1,-1.3738666E-1,1.076944E0,-1.5952155E-1,-2.0792626E-1,-8.4960645E-1,-2.996679E-1,9.704007E-1,-1.2480878E-1,1.0819637E-1,3.214686E-2,-6.73161E-2,-1.0012716E-1,2.3919694E-2,2.8863713E-2,-1.2947306E-1,1.158989E-1,-2.5176141E-2],"categories":[],"categories_nodes":[],"categories_segments":[],"categories_sizes":[],"default_left":[0,0,0,0,0,0,0,0,0,0,0,0,0,0,0,0,0,0,0,0,0,0,0,0,0],"id":18,"left_children":[1,3,5,7,9,11,13,-1,-1,15,-1,17,19,21,23,-1,-1,-1,-1,-1,-1,-1,-1,-1,-1],"loss_changes":[2.2460682E4,8.4348047E2,4.047897E3,1.3287354E-1,2.4506055E2,2.494001E3,2.1472412E3,0E0,0E0,1.6553906E2,0E0,2.2985056E3,2.8518848E3,1.570571E3,6.094402E2,0E0,0E0,0E0,0E0,0E0,0E0,0E0,0E0,0E0,0E0],"parents":[2147483647,0,0,1,1,2,2,3,3,4,4,5,5,6,6,9,9,11,11,12,12,13,13,14,14],"right_children":[2,4,6,8,10,12,14,-1,-1,16,-1,18,20,22,24,-1,-1,-1,-1,-1,-1,-1,-1,-1,-1],"split_conditions":[-2.0208135E0,-4.8604634E-1,2.4474049E0,1.6768488E0,1.63692E3,-4.254906E-1,6.1035293E-1,-1.1317881E-1,-1.3738666E-1,-5.3077763E-1,-1.5952155E-1,7.745E4,1.278442E0,-1.0022274E0,9.1830873E-1,-1.2480878E-1,1.0819637E-1,3.214686E-2,-6.73161E-2,-1.0012716E-1,2.3919694E-2,2.8863713E-2,-1.2947306E-1,1.158989E-1,-2.5176141E-2],"split_indices":[10,4,4,7,29,14,11,0,0,11,0,0,7,9,10,0,0,0,0,0,0,0,0,0,0],"split_type":[0,0,0,0,0,0,0,0,0,0,0,0,0,0,0,0,0,0,0,0,0,0,0,0,0],"sum_hessian":[4.6189152E4,1.4267745E4,3.1921406E4,1.6700237E2,1.4100743E4,2.659825E4,5.3231562E3,1.3576755E2,3.1234821E1,1.4067178E4,3.356525E1,9.33053E3,1.726772E4,2.6812622E3,2.641894E3,2.9771757E1,1.4037406E4,4.364469E3,4.9660605E3,1.5156563E4,2.111157E3,1.6854773E3,9.9578485E2,2.288772E3,3.5312207E2],"tree_param":{"num_deleted":"0","num_feature":"30","num_nodes":"25","size_leaf_vector":"1"}},{"base_weights":[1.1117099E-3,1.0559267E0,-4.3021312E-1,1.0663443E0,-1.3491246E-1,-7.6109076E-1,-3.9956532E-2,1.0742514E0,5.261154E-1,-1.8314694E-1,-9.0368676E-1,1.2320303E0,-1.4957306E-1,1.0746986E-1,-1.4250195E-1,-3.3727536E-1,1.03131555E-1,-6.3705266E-2,1.2216737E-1,2.7424727E-2,-9.7437814E-2,9.980219E-2,3.0448714E-1,6.919598E-2,-3.130434E-2],"categories":[],"categories_nodes":[],"categories_segments":[],"categories_sizes":[],"default_left":[0,0,0,0,0,0,0,0,0,0,0,0,0,0,0,0,0,0,0,0,0,0,0,0,0],"id":19,"left_children":[1,3,5,7,-1,9,11,13,15,17,19,21,23,-1,-1,-1,-1,-1,-1,-1,-1,-1,-1,-1,-1],"loss_changes":[1.9866906E4,3.1896973E2,4.0020312E3,5.3339844E1,0E0,1.3821006E3,1.9831187E3,1.54296875E1,3.6590765E2,2.1181592E3,1.1204932E3,4.7567407E2,1.8015272E3,0E0,0E0,0E0,0E0,0E0,0E0,0E0,0E0,0E0,0E0,0E0,0E0],"parents":[2147483647,0,0,1,1,2,2,3,3,5,5,6,6,7,7,8,8,9,9,10,10,11,11,12,12],"right_children":[2,4,6,8,-1,10,12,14,16,18,20,22,24,-1,-1,-1,-1,-1,-1,-1,-1,-1,-1,-1,-1],"split_conditions":[-3.6156354E0,5.767415E-1,7.413282E-1,1.1079726E0,-1.3491246E-1,-9.746951E-1,-2.150176E0,3.1570253E-1,3.1120643E-1,-1.0425562E0,-9.853448E-1,6.959755E-1,-1.4724427E0,1.0746986E-1,-1.4250195E-1,-3.3727536E-1,1.03131555E-1,-6.3705266E-2,1.2216737E-1,2.7424727E-2,-9.7437814E-2,9.980219E-2,3.0448714E-1,6.919598E-2,-3.130434E-2],"split_indices":[14,10,4,7,0,10,16,12,26,10,20,24,19,0,0,0,0,0,0,0,0,0,0,0,0],"split_type":[0,0,0,0,0,0,0,0,0,0,0,0,0,0,0,0,0,0,0,0,0,0,0,0,0],"sum_hessian":[4.3664617E4,1.2672434E4,3.0992182E4,1.2618334E4,5.4100204E1,1.6771541E4,1.4220641E4,1.2435332E4,1.8300139E2,3.319568E3,1.3451974E4,1.1274545E3,1.3093186E4,1.2433678E4,1.6544834E0,2.0341366E1,1.6266002E2,2.5093342E3,8.1023395E2,7.61425E2,1.2690548E4,9.999302E2,1.2752427E2,2.1291665E3,1.096402E4],"tree_param":{"num_deleted":"0","num_feature":"30","num_nodes":"25","size_leaf_vector":"1"}},{"base_weights":[1.2912141E-3,1.0219247E0,-4.1321528E-1,-1.1550701E-1,1.0490447E0,-9.769476E-1,-1.9807856E-1,1.0560204E0,-1.5162776E-1,2.576707E-1,-1.0602618E0,2.6903716E-1,-5.152644E-1,-1.20959654E-1,1.0612547E-1,-1.1373065E-1,1.22938074E-1,-1.10968284E-1,1.4999251E-2,4.583079E-2,-9.175346E-2,-7.0153825E-2,5.981954E-2],"categories":[],"categories_nodes":[],"categories_segments":[],"categories_sizes":[],"default_left":[0,0,0,0,0,0,0,0,0,0,0,0,0,0,0,0,0,0,0,0,0,0,0],"id":20,"left_children":[1,3,5,-1,7,9,11,13,-1,15,17,19,21,-1,-1,-1,-1,-1,-1,-1,-1,-1,-1],"loss_changes":[1.7529107E4,7.077617E2,3.5735361E3,0E0,2.1312695E2,8.3746045E2,3.16028E3,1.4108789E2,0E0,6.9991895E2,4.562129E2,1.937777E3,2.63522E3,0E0,0E0,0E0,0E0,0E0,0E0,0E0,0E0,0E0,0E0],"parents":[2147483647,0,0,1,1,2,2,4,4,5,5,6,6,7,7,9,9,10,10,11,11,12,12],"right_children":[2,4,6,-1,8,10,12,14,-1,16,18,20,22,-1,-1,-1,-1,-1,-1,-1,-1,-1,-1],"split_conditions":[-2.0208135E0,-4.8604634E-1,-2.7838778E-1,-1.1550701E-1,1.63692E3,-1.6016932E0,-4.254906E-1,-5.3077763E-1,-1.5162776E-1,1.354425E0,1.8243738E0,2.7292082E-1,1.278442E0,-1.20959654E-1,1.0612547E-1,-1.1373065E-1,1.22938074E-1,-1.10968284E-1,1.4999251E-2,4.583079E-2,-9.175346E-2,-7.0153825E-2,5.981954E-2],"split_indices":[10,4,4,0,29,10,14,11,0,7,16,8,7,0,0,0,0,0,0,0,0,0,0],"split_type":[0,0,0,0,0,0,0,0,0,0,0,0,0,0,0,0,0,0,0,0,0,0,0],"sum_hessian":[4.143217E4,1.1966286E4,2.9465885E4,1.4672472E2,1.1819562E4,8.1379946E3,2.132789E4,1.1788096E4,3.1465815E1,5.1431824E2,7.6236763E3,8.625449E3,1.2702441E4,2.664088E1,1.1761455E4,2.1109787E2,3.032204E2,7.3246562E3,2.9901996E2,7.4394004E3,1.1860493E3,1.0882283E4,1.8201575E3],"tree_param":{"num_deleted":"0","num_feature":"30","num_nodes":"23","size_leaf_vector":"1"}},{"base_weights":[1.2101966E-3,1.0366889E0,-3.816207E-1,1.0478307E0,-1.3062286E-1,-9.6372384E-1,-1.7358969E-1,1.0567712E0,4.6146962E-1,-1.0128926E0,4.8916718E-1,2.2363862E-1,-4.798745E-1,1.0572892E-1,-1.35895E-1,-2.9421604E-1,1.0076553E-1,5.7349E-4,-1.0933825E-1,-1.349788E-1,1.622012E-1,8.188943E-2,-8.969323E-3,7.616649E-2,-6.2485706E-2],"categories":[],"categories_nodes":[],"categories_segments":[],"categories_sizes":[],"default_left":[0,0,0,0,0,0,0,0,0,0,0,0,0,0,0,0,0,0,0,0,0,0,0,0,0],"id":21,"left_children":[1,3,5,7,-1,9,11,13,15,17,19,21,23,-1,-1,-1,-1,-1,-1,-1,-1,-1,-1,-1,-1],"loss_changes":[1.5568476E4,2.7808984E2,3.4719634E3,5.482422E1,0E0,5.3976416E2,2.570254E3,1.4441406E1,3.0084262E2,5.986997E2,5.183799E2,1.7155541E3,2.1475557E3,0E0,0E0,0E0,0E0,0E0,0E0,0E0,0E0,0E0,0E0,0E0,0E0],"parents":[2147483647,0,0,1,1,2,2,3,3,5,5,6,6,7,7,8,8,9,9,10,10,11,11,12,12],"right_children":[2,4,6,8,-1,10,12,14,16,18,20,22,24,-1,-1,-1,-1,-1,-1,-1,-1,-1,-1,-1,-1],"split_conditions":[-3.6156354E0,5.767415E-1,-2.9450953E-1,1.1079726E0,-1.3062286E-1,3.0202103E0,-2.1248002E-1,3.1570253E-1,3.1120643E-1,-1.7859976E0,-7.6918113E-1,-8.785603E-1,-1.3385137E0,1.0572892E-1,-1.35895E-1,-2.9421604E-1,1.0076553E-1,5.7349E-4,-1.0933825E-1,-1.349788E-1,1.622012E-1,8.188943E-2,-8.969323E-3,7.616649E-2,-6.2485706E-2],"split_indices":[14,10,4,7,0,7,12,12,26,14,1,19,13,0,0,0,0,0,0,0,0,0,0,0,0],"split_type":[0,0,0,0,0,0,0,0,0,0,0,0,0,0,0,0,0,0,0,0,0,0,0,0,0],"sum_hessian":[3.9271348E4,1.0599682E4,2.8671666E4,1.0550064E4,4.961806E1,7.547883E3,2.1123783E4,1.039083E4,1.5923438E2,7.3011016E3,2.4678128E2,9.196668E3,1.1927115E4,1.0389164E4,1.6654167E0,2.1412533E1,1.3782184E2,5.347378E2,6.766364E3,9.399957E1,1.527817E2,3.1709695E3,6.025698E3,1.2467219E3,1.0680394E4],"tree_param":{"num_deleted":"0","num_feature":"30","num_nodes":"25","size_leaf_vector":"1"}},{"base_weights":[1.2728507E-3,1.0041522E0,-3.677459E-1,-1.1255652E-1,1.0309409E0,-9.448187E-1,-1.7308648E-1,1.0396606E0,-1.2410358E-1,2.511007E-1,-1.0326687E0,2.5314757E-1,-4.7169927E-1,1.04481116E-1,-1.610177E-1,-1.11595765E-1,1.08348824E-1,-1.09022975E-1,1.810897E-2,6.27208E-2,-2.5978068E-2,-6.582539E-2,5.9652265E-2],"categories":[],"categories_nodes":[],"categories_segments":[],"categories_sizes":[],"default_left":[0,0,0,0,0,0,0,0,0,0,0,0,0,0,0,0,0,0,0,0,0,0,0],"id":22,"left_children":[1,3,5,-1,7,9,11,13,-1,15,17,19,21,-1,-1,-1,-1,-1,-1,-1,-1,-1,-1],"loss_changes":[1.3826125E4,5.744873E2,3.0677012E3,0E0,1.9791113E2,7.2397705E2,2.599541E3,1.3663086E2,0E0,5.385294E2,4.4854346E2,1.6145745E3,2.393721E3,0E0,0E0,0E0,0E0,0E0,0E0,0E0,0E0,0E0,0E0],"parents":[2147483647,0,0,1,1,2,2,4,4,5,5,6,6,7,7,9,9,10,10,11,11,12,12],"right_children":[2,4,6,-1,8,10,12,14,-1,16,18,20,22,-1,-1,-1,-1,-1,-1,-1,-1,-1,-1],"split_conditions":[-2.0208135E0,-4.8604634E-1,-2.7838778E-1,-1.1255652E-1,8.01032E-1,-1.6016932E0,-4.254906E-1,4.213738E0,-1.2410358E-1,1.354425E0,1.8243738E0,-1.4415756E-1,6.224646E-1,1.04481116E-1,-1.610177E-1,-1.11595765E-1,1.08348824E-1,-1.09022975E-1,1.810897E-2,6.27208E-2,-2.5978068E-2,-6.582539E-2,5.9652265E-2],"split_indices":[10,4,4,0,14,10,14,7,0,7,16,13,20,0,0,0,0,0,0,0,0,0,0],"split_type":[0,0,0,0,0,0,0,0,0,0,0,0,0,0,0,0,0,0,0,0,0,0,0],"sum_hessian":[3.73577E4,1.0048163E4,2.7309535E4,1.2431133E2,9.923853E3,6.8875034E3,2.0422033E4,9.886451E3,3.740114E1,4.7119415E2,6.416309E3,8.413261E3,1.2008771E4,9.867876E3,1.8575006E1,1.7819606E2,2.929981E2,6.125898E3,2.904116E2,4.8650957E3,3.5481648E3,1.02236875E4,1.7850841E3],"tree_param":{"num_deleted":"0","num_feature":"30","num_nodes":"23","size_leaf_vector":"1"}},{"base_weights":[1.2276451E-3,1.0201478E0,-3.3698177E-1,1.0320152E0,-1.2671074E-1,-9.3311566E-1,-1.4946237E-1,1.0476391E0,6.031114E-1,7.811878E-3,-1.0164065E0,4.7804585E-1,-3.1671935E-1,1.0491409E-1,-4.51598E-1,-2.3364107E-1,9.459213E-2,-1.2468403E-1,1.0630695E-1,-1.0761934E-1,4.8189323E-2,9.496377E-2,-6.732651E-2,2.6923746E-2,-5.8559697E-2],"categories":[],"categories_nodes":[],"categories_segments":[],"categories_sizes":[],"default_left":[0,0,0,0,0,0,0,0,0,0,0,0,0,0,0,0,0,0,0,0,0,0,0,0,0],"id":23,"left_children":[1,3,5,7,-1,9,11,13,15,17,19,21,23,-1,-1,-1,-1,-1,-1,-1,-1,-1,-1,-1,-1],"loss_changes":[1.224335E4,2.4163965E2,2.9816938E3,5.8396484E1,0E0,5.0022168E2,2.1299685E3,7.574121E1,3.1657324E2,6.89849E2,5.257739E2,2.3195469E3,2.5245435E3,0E0,0E0,0E0,0E0,0E0,0E0,0E0,0E0,0E0,0E0,0E0,0E0],"parents":[2147483647,0,0,1,1,2,2,3,3,5,5,6,6,7,7,8,8,9,9,10,10,11,11,12,12],"right_children":[2,4,6,8,-1,10,12,14,16,18,20,22,24,-1,-1,-1,-1,-1,-1,-1,-1,-1,-1,-1,-1],"split_conditions":[-3.6156354E0,5.767415E-1,-2.9450953E-1,7.6753706E-1,-1.2671074E-1,-1.7859976E0,-4.4057715E-1,1.9360064E0,3.5906222E0,1.4104919E-1,3.0202103E0,-8.215705E-2,-6.434785E-1,1.0491409E-1,-4.51598E-1,-2.3364107E-1,9.459213E-2,-1.2468403E-1,1.0630695E-1,-1.0761934E-1,4.8189323E-2,9.496377E-2,-6.732651E-2,2.6923746E-2,-5.8559697E-2],"split_indices":[14,10,4,7,0,14,8,16,4,23,7,13,19,0,0,0,0,0,0,0,0,0,0,0,0],"split_type":[0,0,0,0,0,0,0,0,0,0,0,0,0,0,0,0,0,0,0,0,0,0,0,0,0],"sum_hessian":[3.55263E4,8.852985E3,2.6673314E4,8.807834E3,4.5150658E1,6.381673E3,2.0291643E4,8.496872E3,3.109619E2,5.190403E2,5.8626323E3,4.2699507E3,1.6021692E4,8.495391E3,1.4817435E0,3.186979E1,2.7909213E2,2.3703508E2,2.8200522E2,5.637943E3,2.2468956E2,3.0292898E3,1.2406609E3,5.0394253E3,1.0982267E4],"tree_param":{"num_deleted":"0","num_feature":"30","num_nodes":"25","size_leaf_vector":"1"}},{"base_weights":[1.283082E-3,9.87005E-1,-3.2587013E-1,-1.1073668E-1,1.0136861E0,-9.1740733E-1,-1.5063976E-1,1.0232675E0,-1.2177303E-1,2.5466874E-1,-1.0103713E0,2.3775941E-1,-4.3068162E-1,1.0288651E-1,-1.5384363E-1,-1.0945926E-1,9.804338E-2,-1.0745777E-1,1.7572297E-2,4.0841844E-2,-8.5022055E-2,-6.0895145E-2,5.1645786E-2],"categories":[],"categories_nodes":[],"categories_segments":[],"categories_sizes":[],"default_left":[0,0,0,0,0,0,0,0,0,0,0,0,0,0,0,0,0,0,0,0,0,0,0],"id":24,"left_children":[1,3,5,-1,7,9,11,13,-1,15,17,19,21,-1,-1,-1,-1,-1,-1,-1,-1,-1,-1],"loss_changes":[1.0914443E4,4.7240527E2,2.6338784E3,0E0,1.7930469E2,6.3300195E2,2.132524E3,1.2050293E2,0E0,4.19744E2,4.0994287E2,1.525509E3,1.9238159E3,0E0,0E0,0E0,0E0,0E0,0E0,0E0,0E0,0E0,0E0],"parents":[2147483647,0,0,1,1,2,2,4,4,5,5,6,6,7,7,9,9,10,10,11,11,12,12],"right_children":[2,4,6,-1,8,10,12,14,-1,16,18,20,22,-1,-1,-1,-1,-1,-1,-1,-1,-1,-1],"split_conditions":[-2.0208135E0,-4.8604634E-1,-2.7838778E-1,-1.1073668E-1,8.01032E-1,-1.6016932E0,-4.254906E-1,4.213738E0,-1.2177303E-1,1.354425E0,1.8243738E0,2.7292082E-1,1.278442E0,1.0288651E-1,-1.5384363E-1,-1.0945926E-1,9.804338E-2,-1.0745777E-1,1.7572297E-2,4.0841844E-2,-8.5022055E-2,-6.0895145E-2,5.1645786E-2],"split_indices":[10,4,4,0,14,10,14,7,0,7,16,8,7,0,0,0,0,0,0,0,0,0,0],"split_type":[0,0,0,0,0,0,0,0,0,0,0,0,0,0,0,0,0,0,0,0,0,0,0],"sum_hessian":[3.3843117E4,8.432809E3,2.5410309E4,1.0556819E2,8.32724E3,5.8060825E3,1.9604227E4,8.292177E3,3.506415E1,4.2654373E2,5.379539E3,8.21321E3,1.1391017E4,8.274693E3,1.7482727E1,1.4901097E2,2.7753275E2,5.103374E3,2.7616495E2,7.100119E3,1.1130902E3,9.586929E3,1.8040872E3],"tree_param":{"num_deleted":"0","num_feature":"30","num_nodes":"23","size_leaf_vector":"1"}},{"base_weights":[1.1907666E-3,1.0053751E0,-2.9703698E-1,1.0181335E0,-1.2379656E-1,-9.069078E-1,-1.2877224E-1,1.0360024E0,5.501879E-1,2.449104E-2,-9.9676454E-1,1.6612513E-1,-4.5191538E-1,1.0377636E-1,-3.504741E-1,-2.1495937E-1,9.173309E-2,-1.216531E-1,9.867178E-2,-1.0625358E-1,4.153144E-2,3.690511E-2,-5.5532496E-2,-5.2432563E-2,2.0338908E-1],"categories":[],"categories_nodes":[],"categories_segments":[],"categories_sizes":[],"default_left":[0,0,0,0,0,0,0,0,0,0,0,0,0,0,0,0,0,0,0,0,0,0,0,0,0],"id":25,"left_children":[1,3,5,7,-1,9,11,13,15,17,19,21,23,-1,-1,-1,-1,-1,-1,-1,-1,-1,-1,-1,-1],"loss_changes":[9.66094E3,2.1268164E2,2.5523137E3,6.0851074E1,0E0,4.501504E2,1.8578685E3,6.0210938E1,2.718891E2,5.674598E2,4.5600146E2,1.4926028E3,1.6754901E3,0E0,0E0,0E0,0E0,0E0,0E0,0E0,0E0,0E0,0E0,0E0,0E0],"parents":[2147483647,0,0,1,1,2,2,3,3,5,5,6,6,7,7,8,8,9,9,10,10,11,11,12,12],"right_children":[2,4,6,8,-1,10,12,14,16,18,20,22,24,-1,-1,-1,-1,-1,-1,-1,-1,-1,-1,-1,-1],"split_conditions":[-3.6156354E0,5.767415E-1,-2.9450953E-1,7.6753706E-1,-1.2379656E-1,-1.7859976E0,-4.3405853E-2,1.9360064E0,3.5906222E0,1.4104919E-1,3.0202103E0,1.0939026E0,1.2022438E0,1.0377636E-1,-3.504741E-1,-2.1495937E-1,9.173309E-2,-1.216531E-1,9.867178E-2,-1.0625358E-1,4.153144E-2,3.690511E-2,-5.5532496E-2,-5.2432563E-2,2.0338908E-1],"split_indices":[14,10,4,7,0,14,12,16,4,23,7,1,26,0,0,0,0,0,0,0,0,0,0,0,0],"split_type":[0,0,0,0,0,0,0,0,0,0,0,0,0,0,0,0,0,0,0,0,0,0,0,0,0],"sum_hessian":[3.2257523E4,7.38582E3,2.4871705E4,7.3445957E3,4.122426E1,5.3773306E3,1.9494373E4,7.0732837E3,2.7131198E2,4.731967E2,4.904134E3,1.0192908E4,9.301466E3,7.0713125E3,1.9712387E0,3.1897703E1,2.3941428E2,2.0654416E2,2.6665253E2,4.6861133E3,2.1802052E2,7.9556655E3,2.2372422E3,9.038955E3,2.62511E2],"tree_param":{"num_deleted":"0","num_feature":"30","num_nodes":"25","size_leaf_vector":"1"}},{"base_weights":[1.1595676E-3,9.713098E-1,-2.8671455E-1,-7.947713E-1,1.0026234E0,-8.9170015E-1,-1.301161E-1,9.197773E-2,-1.1489635E0,1.0115228E0,-1.3981172E-1,2.5873682E-1,-9.903879E-1,5.6388575E-1,-2.7487183E-1,-1.0927381E-1,-1.4388251E-1,-1.1824856E-1,1.0183436E-1,8.674903E-2,-1.17600374E-1,-1.0621877E-1,1.7160598E-2,8.207199E-2,-7.468924E-2,2.545677E-2,-5.253997E-2],"categories":[],"categories_nodes":[],"categories_segments":[],"categories_sizes":[],"default_left":[0,0,0,0,0,0,0,0,0,0,0,0,0,0,0,0,0,0,0,0,0,0,0,0,0,0,0],"id":26,"left_children":[1,3,5,7,9,11,13,-1,15,17,-1,19,21,23,25,-1,-1,-1,-1,-1,-1,-1,-1,-1,-1,-1,-1],"loss_changes":[8.61723E3,3.912627E2,2.2541677E3,7.6095116E1,1.49646E2,5.5572144E2,1.8991616E3,0E0,1.0398865E-1,1.0465625E2,0E0,3.3931302E2,3.7613574E2,1.0989993E3,2.0747861E3,0E0,0E0,0E0,0E0,0E0,0E0,0E0,0E0,0E0,0E0,0E0,0E0],"parents":[2147483647,0,0,1,1,2,2,3,3,4,4,5,5,6,6,8,8,9,9,11,11,12,12,13,13,14,14],"right_children":[2,4,6,8,10,12,14,-1,16,18,-1,20,22,24,26,-1,-1,-1,-1,-1,-1,-1,-1,-1,-1,-1,-1],"split_conditions":[-2.0208135E0,-2.9450953E-1,-2.7838778E-1,-3.5256164E0,1.63692E3,-1.6016932E0,-3.5429665E-1,9.197773E-2,-4.8604634E-1,-5.3077763E-1,-1.3981172E-1,-6.4416933E-1,1.8243738E0,2.875973E-1,-8.069166E-1,-1.0927381E-1,-1.4388251E-1,-1.1824856E-1,1.0183436E-1,8.674903E-2,-1.17600374E-1,-1.0621877E-1,1.7160598E-2,8.207199E-2,-7.468924E-2,2.545677E-2,-5.253997E-2],"split_indices":[10,4,4,12,29,10,20,0,4,11,0,11,16,12,14,0,0,0,0,0,0,0,0,0,0,0,0],"split_type":[0,0,0,0,0,0,0,0,0,0,0,0,0,0,0,0,0,0,0,0,0,0,0,0,0,0,0],"sum_hessian":[3.085304E4,7.059568E3,2.3793473E4,1.2256469E2,6.9370034E3,4.891496E3,1.8901975E4,2.0711082E1,1.0185361E2,6.91196E3,2.5043484E1,3.8632718E2,4.505169E3,3.2616697E3,1.5640306E4,8.9301445E1,1.2552164E1,2.0887428E1,6.8910723E3,2.7151852E2,1.1480864E2,4.2430747E3,2.6209427E2,2.7275974E3,5.340722E2,5.0237075E3,1.0616599E4],"tree_param":{"num_deleted":"0","num_feature":"30","num_nodes":"27","size_leaf_vector":"1"}},{"base_weights":[1.1190505E-3,9.8607916E-1,-2.6185656E-1,-7.8587824E-1,1.0347744E0,-4.187156E-1,3.8390672E-1,1.00706816E-1,-1.3051172E0,2.527175E-1,9.9948066E-1,-4.3113012E-2,-6.9440967E-1,6.885174E-1,-7.2874224E-1,-2.730543E-1,-1.235004E-1,1.0188911E-1,-1.3552536E-1,3.9096676E-2,-4.690836E-2,-9.427353E-2,1.8976154E-2,5.86864E-2,3.76692E-1,1.1265824E-1,-1.342247E-1],"categories":[],"categories_nodes":[],"categories_segments":[],"categories_sizes":[],"default_left":[0,0,0,0,0,0,0,0,0,0,0,0,0,0,0,0,0,0,0,0,0,0,0,0,0,0,0],"id":27,"left_children":[1,3,5,7,9,11,13,-1,15,-1,17,19,21,23,25,-1,-1,-1,-1,-1,-1,-1,-1,-1,-1,-1,-1],"loss_changes":[7.6355586E3,5.3681934E2,2.3569248E3,1.5651982E2,3.159453E2,1.9384553E3,1.5417926E3,0E0,9.591293E0,0E0,2.7142578E2,1.465605E3,2.3705225E3,1.1151669E3,1.114603E3,0E0,0E0,0E0,0E0,0E0,0E0,0E0,0E0,0E0,0E0,0E0,0E0],"parents":[2147483647,0,0,1,1,2,2,3,3,4,4,5,5,6,6,8,8,10,10,11,11,12,12,13,13,14,14],"right_children":[2,4,6,8,10,12,14,-1,16,-1,18,20,22,24,26,-1,-1,-1,-1,-1,-1,-1,-1,-1,-1,-1,-1],"split_conditions":[-2.9738042E0,5.0019497E-1,2.4474049E0,-3.6156354E0,5.126387E-1,-4.254906E-1,8.682013E-1,1.00706816E-1,-8.6456865E-1,2.527175E-1,-3.5869166E-1,7.745E4,2.015E2,8.542331E-1,-1.8798271E0,-2.730543E-1,-1.235004E-1,1.0188911E-1,-1.3552536E-1,3.9096676E-2,-4.690836E-2,-9.427353E-2,1.8976154E-2,5.86864E-2,3.76692E-1,1.1265824E-1,-1.342247E-1],"split_indices":[12,11,4,14,11,14,3,0,14,0,3,0,29,3,8,0,0,0,0,0,0,0,0,0,0,0,0],"split_type":[0,0,0,0,0,0,0,0,0,0,0,0,0,0,0,0,0,0,0,0,0,0,0,0,0,0,0],"sum_hessian":[2.9476596E4,6.210979E3,2.3265615E4,1.6571416E2,6.0452646E3,1.8719025E4,4.546591E3,3.700284E1,1.2871132E2,1.3803027E2,5.9072344E3,7.9242593E3,1.0794767E4,3.5696943E3,9.7689636E2,4.2552805E0,1.2445604E2,5.859501E3,4.7733627E1,3.9248125E3,3.9994465E3,8.427718E3,2.3670486E3,3.4567383E3,1.12955956E2,2.4255115E2,7.343452E2],"tree_param":{"num_deleted":"0","num_feature":"30","num_nodes":"27","size_leaf_vector":"1"}},{"base_weights":[6.4889377E-4,9.84241E-1,-2.4558437E-1,9.994044E-1,-1.2193006E-1,-8.6734426E-1,-9.864343E-2,1.0240268E0,5.0952816E-1,8.586081E-2,-9.7295666E-1,-2.3583871E-1,4.9582466E-1,1.02597654E-1,-3.01316E-1,-1.9440202E-1,8.5622735E-2,-1.1786778E-1,9.513928E-2,-1.04897276E-1,3.566041E-2,2.8125608E-2,-4.7810894E-2,1.1389506E-1,-5.4738414E-2],"categories":[],"categories_nodes":[],"categories_segments":[],"categories_sizes":[],"default_left":[0,0,0,0,0,0,0,0,0,0,0,0,0,0,0,0,0,0,0,0,0,0,0,0,0],"id":28,"left_children":[1,3,5,7,-1,9,11,13,15,17,19,21,23,-1,-1,-1,-1,-1,-1,-1,-1,-1,-1,-1,-1],"loss_changes":[6.836779E3,1.9006494E2,2.0625708E3,6.719141E1,0E0,4.3452905E2,1.4895509E3,4.5159668E1,2.31891E2,4.7325952E2,3.9303857E2,1.859055E3,2.2983032E3,0E0,0E0,0E0,0E0,0E0,0E0,0E0,0E0,0E0,0E0,0E0,0E0],"parents":[2147483647,0,0,1,1,2,2,3,3,5,5,6,6,7,7,8,8,9,9,10,10,11,11,12,12],"right_children":[2,4,6,8,-1,10,12,14,16,18,20,22,24,-1,-1,-1,-1,-1,-1,-1,-1,-1,-1,-1,-1],"split_conditions":[-3.6156354E0,5.767415E-1,-2.9450953E-1,5.3382194E-1,-1.2193006E-1,-1.7859976E0,3.2355127E-1,1.7391944E0,2.327142E0,1.4104919E-1,3.0202103E0,-6.434785E-1,-4.586391E-1,1.02597654E-1,-3.01316E-1,-1.9440202E-1,8.5622735E-2,-1.1786778E-1,9.513928E-2,-1.04897276E-1,3.566041E-2,2.8125608E-2,-4.7810894E-2,1.1389506E-1,-5.4738414E-2],"split_indices":[14,10,4,7,0,14,21,16,4,23,7,19,16,0,0,0,0,0,0,0,0,0,0,0,0],"split_type":[0,0,0,0,0,0,0,0,0,0,0,0,0,0,0,0,0,0,0,0,0,0,0,0,0],"sum_hessian":[2.8226629E4,5.650881E3,2.2575748E4,5.6128037E3,3.8077213E1,4.314528E3,1.8261219E4,5.343154E3,2.6964993E2,4.303739E2,3.884154E3,1.4837521E4,3.4236978E3,5.34132E3,1.833807E0,3.2814983E1,2.3683495E2,1.7473094E2,2.5564296E2,3.674292E3,2.0986218E2,4.733759E3,1.0103763E4,2.1179282E3,1.3057697E3],"tree_param":{"num_deleted":"0","num_feature":"30","num_nodes":"25","size_leaf_vector":"1"}},{"base_weights":[6.866829E-4,9.4898695E-1,-2.3799126E-1,-8.118912E-1,9.820693E-1,-9.217976E-2,-8.310024E-1,8.777004E-2,-1.1338363E-1,9.938237E-1,-1.1818401E-1,-7.848234E-1,4.687894E-2,-1.1164641E0,7.083537E-1,1.0008186E-1,-1.4637622E-1,5.0357103E-2,-9.340739E-2,-4.722151E-2,2.509003E-2,-5.3100396E-2,-1.1513881E-1,1.2790033E-1,-1.2501459E-1],"categories":[],"categories_nodes":[],"categories_segments":[],"categories_sizes":[],"default_left":[0,0,0,0,0,0,0,0,0,0,0,0,0,0,0,0,0,0,0,0,0,0,0,0,0],"id":29,"left_children":[1,3,5,7,9,11,13,-1,-1,15,-1,17,19,21,23,-1,-1,-1,-1,-1,-1,-1,-1,-1,-1],"loss_changes":[6.133742E3,3.1823828E2,1.8720067E3,5.5954796E1,1.372334E2,1.673936E3,1.8783625E3,0E0,0E0,9.293359E1,0E0,5.592294E2,1.5330161E3,7.309326E1,7.493002E2,0E0,0E0,0E0,0E0,0E0,0E0,0E0,0E0,0E0,0E0],"parents":[2147483647,0,0,1,1,2,2,3,3,4,4,5,5,6,6,9,9,11,11,12,12,13,13,14,14],"right_children":[2,4,6,8,10,12,14,-1,-1,16,-1,18,20,22,24,-1,-1,-1,-1,-1,-1,-1,-1,-1,-1],"split_conditions":[-2.0208135E0,-2.9450953E-1,2.7292082E-1,-3.5256164E0,8.01032E-1,-2.7838778E-1,3.745749E0,8.777004E-2,-1.1338363E-1,4.213738E0,-1.1818401E-1,-1.6016932E0,-1.6638564E-1,-1.8988332E0,6.1827168E-2,1.0008186E-1,-1.4637622E-1,5.0357103E-2,-9.340739E-2,-4.722151E-2,2.509003E-2,-5.3100396E-2,-1.1513881E-1,1.2790033E-1,-1.2501459E-1],"split_indices":[10,4,8,12,14,4,4,0,0,7,0,10,18,13,3,0,0,0,0,0,0,0,0,0,0],"split_type":[0,0,0,0,0,0,0,0,0,0,0,0,0,0,0,0,0,0,0,0,0,0,0,0,0],"sum_hessian":[2.709788E4,5.448252E3,2.1649629E4,1.0003696E2,5.348215E3,1.737786E4,4.271769E3,1.5734567E1,8.430239E1,5.319858E3,2.8356733E1,2.9047615E3,1.4473099E4,3.603755E3,6.680139E2,5.3053506E3,1.4507677E1,3.0131415E2,2.6034473E3,4.0831003E3,1.0389998E4,2.0378157E2,3.3999734E3,5.1755927E2,1.5045468E2],"tree_param":{"num_deleted":"0","num_feature":"30","num_nodes":"25","size_leaf_vector":"1"}},{"base_weights":[4.0253275E-4,9.967786E-1,-2.1011852E-1,1.017318E0,-1.2928852E-1,-3.5931188E-1,3.4419763E-1,1.0203898E0,-1.7441654E-1,-9.153999E-1,-1.2517731E-1,-2.1329491E-1,9.059462E-1,1.0230537E-1,-1.0735261E-1,3.872893E-2,-1.0430666E-1,5.740072E-3,-1.136986E-1,-8.635223E-2,5.036948E-2,9.936092E-2,-1.3890843E-1],"categories":[],"categories_nodes":[],"categories_segments":[],"categories_sizes":[],"default_left":[0,0,0,0,0,0,0,0,0,0,0,0,0,0,0,0,0,0,0,0,0,0,0],"id":30,"left_children":[1,3,5,7,-1,9,11,13,-1,15,17,19,21,-1,-1,-1,-1,-1,-1,-1,-1,-1,-1],"loss_changes":[5.467607E3,2.1514209E2,1.77979E3,4.0010254E1,0E0,2.2075889E3,1.4295503E3,2.6213379E1,0E0,8.35916E2,2.2045894E3,1.0687751E3,4.5880115E2,0E0,0E0,0E0,0E0,0E0,0E0,0E0,0E0,0E0,0E0],"parents":[2147483647,0,0,1,1,2,2,3,3,5,5,6,6,7,7,9,9,10,10,11,11,12,12],"right_children":[2,4,6,8,-1,10,12,14,-1,16,18,20,22,-1,-1,-1,-1,-1,-1,-1,-1,-1,-1],"split_conditions":[-1.6137081E0,-8.570009E-1,2.4474049E0,1.1664499E0,-1.2928852E-1,-1.5947673E-1,6.1035293E-1,2.0712814E0,-1.7441654E-1,-1.6409154E0,2.7292082E-1,9.419254E-2,1.3374665E0,1.0230537E-1,-1.0735261E-1,3.872893E-2,-1.0430666E-1,5.740072E-3,-1.136986E-1,-8.635223E-2,5.036948E-2,9.936092E-2,-1.3890843E-1],"split_indices":[17,12,4,16,0,18,11,10,0,19,8,28,14,0,0,0,0,0,0,0,0,0,0],"split_type":[0,0,0,0,0,0,0,0,0,0,0,0,0,0,0,0,0,0,0,0,0,0,0],"sum_hessian":[2.6064246E4,4.545778E3,2.1518469E4,4.5059136E3,3.9864594E1,1.695532E4,4.563148E3,4.5015366E3,4.3768353E0,5.02282E3,1.1932501E4,2.290561E3,2.2725867E3,4.4963276E3,5.2087245E0,4.4813153E2,4.5746885E3,1.0109258E4,1.8232437E3,1.2010984E3,1.0894628E3,2.189521E3,8.306578E1],"tree_param":{"num_deleted":"0","num_feature":"30","num_nodes":"23","size_leaf_vector":"1"}},{"base_weights":[1.9797467E-4,9.919313E-1,-1.9602057E-1,1.0125403E0,-1.2652569E-1,-8.174071E-1,-7.1712255E-2,1.0156969E0,-1.647244E-1,1.7820354E-1,-9.4212544E-1,-5.024611E-1,1.1514306E-1,1.01839915E-1,-1.0485704E-1,-1.1708268E-1,9.781842E-2,-1.0387202E-1,4.1461617E-2,-1.0473966E-1,1.8452546E-2,-4.35162E-2,3.4200616E-2],"categories":[],"categories_nodes":[],"categories_segments":[],"categories_sizes":[],"default_left":[0,0,0,0,0,0,0,0,0,0,0,0,0,0,0,0,0,0,0,0,0,0,0],"id":31,"left_children":[1,3,5,7,-1,9,11,13,-1,15,17,19,21,-1,-1,-1,-1,-1,-1,-1,-1,-1,-1],"loss_changes":[4.8692363E3,1.9354175E2,1.6134971E3,3.6063965E1,0E0,4.3255103E2,1.4011913E3,2.3892578E1,0E0,4.203983E2,4.0600098E2,1.9719523E3,1.5160127E3,0E0,0E0,0E0,0E0,0E0,0E0,0E0,0E0,0E0,0E0],"parents":[2147483647,0,0,1,1,2,2,3,3,5,5,6,6,7,7,9,9,10,10,11,11,12,12],"right_children":[2,4,6,8,-1,10,12,14,-1,16,18,20,22,-1,-1,-1,-1,-1,-1,-1,-1,-1,-1],"split_conditions":[-1.6137081E0,-8.570009E-1,-2.9450953E-1,1.1664499E0,-1.2652569E-1,-1.7859976E0,-1.6426414E-2,2.0712814E0,-1.647244E-1,-1.8931006E0,3.0202103E0,5.0985235E-1,-6.833655E-2,1.01839915E-1,-1.0485704E-1,-1.1708268E-1,9.781842E-2,-1.0387202E-1,4.1461617E-2,-1.0473966E-1,1.8452546E-2,-4.35162E-2,3.4200616E-2],"split_indices":[17,12,4,16,0,14,28,10,0,14,7,22,18,0,0,0,0,0,0,0,0,0,0],"split_type":[0,0,0,0,0,0,0,0,0,0,0,0,0,0,0,0,0,0,0,0,0,0,0],"sum_hessian":[2.502022E4,4.1320156E3,2.0888205E4,4.0951765E3,3.6839043E1,3.481162E3,1.7407043E4,4.0909397E3,4.2369866E0,3.8748566E2,3.0936765E3,5.2659673E3,1.2141076E4,4.0860974E3,4.8421597E0,1.44071E2,2.4341464E2,2.8882769E3,2.0539969E2,2.9362964E3,2.329671E3,3.5438328E3,8.597244E3],"tree_param":{"num_deleted":"0","num_feature":"30","num_nodes":"23","size_leaf_vector":"1"}},{"base_weights":[-9.533024E-5,9.601099E-1,-1.903089E-1,9.909418E-1,-2.3669527E-1,-8.062909E-1,-7.392578E-2,9.963689E-1,-1.113983E-1,-1.8658837E0,8.4584916E-1,1.5828504E-1,-9.328557E-1,4.9701807E-1,-1.9431987E-1,1.0102712E-1,6.010328E-2,-6.4162415E-1,-1.4063646E-1,9.9556096E-2,-2.394015E-1,-1.1510476E-1,9.49541E-2,-1.0349788E-1,3.654545E-2,9.7717725E-2,-4.1634096E-3,2.7778296E-2,-4.5338918E-2],"categories":[],"categories_nodes":[],"categories_segments":[],"categories_sizes":[],"default_left":[0,0,0,0,0,0,0,0,0,0,0,0,0,0,0,0,0,0,0,0,0,0,0,0,0,0,0,0,0],"id":32,"left_children":[1,3,5,7,9,11,13,15,-1,17,19,21,23,25,27,-1,-1,-1,-1,-1,-1,-1,-1,-1,-1,-1,-1,-1,-1],"loss_changes":[4.413853E3,1.47677E2,1.4459741E3,4.5611572E1,1.7999077E2,3.9145557E2,1.1663356E3,2.075122E1,0E0,7.607019E1,3.2196316E1,3.8716266E2,3.760852E2,7.642962E2,1.7139521E3,0E0,0E0,0E0,0E0,0E0,0E0,0E0,0E0,0E0,0E0,0E0,0E0,0E0,0E0],"parents":[2147483647,0,0,1,1,2,2,3,3,4,4,5,5,6,6,7,7,9,9,10,10,11,11,12,12,13,13,14,14],"right_children":[2,4,6,8,10,12,14,16,-1,18,20,22,24,26,28,-1,-1,-1,-1,-1,-1,-1,-1,-1,-1,-1,-1,-1,-1],"split_conditions":[-3.6156354E0,1.1079726E0,-2.9450953E-1,5.767415E-1,3.4150946E-1,-1.7859976E0,-3.5429665E-1,5.3382194E-1,-1.113983E-1,-1.363662E0,6.2954E4,1.5636E5,3.0202103E0,-6.327378E-1,-5.4359263E-1,1.0102712E-1,6.010328E-2,-6.4162415E-1,-1.4063646E-1,9.9556096E-2,-2.394015E-1,-1.1510476E-1,9.49541E-2,-1.0349788E-1,3.654545E-2,9.7717725E-2,-4.1634096E-3,2.7778296E-2,-4.5338918E-2],"split_indices":[14,7,4,10,26,14,20,7,0,9,0,0,7,16,10,0,0,0,0,0,0,0,0,0,0,0,0,0,0],"split_type":[0,0,0,0,0,0,0,0,0,0,0,0,0,0,0,0,0,0,0,0,0,0,0,0,0,0,0,0,0],"sum_hessian":[2.416442E4,3.994746E3,2.0169674E4,3.8945862E3,1.0015987E2,3.204303E3,1.6965371E4,3.885096E3,9.490154E0,3.9695713E1,6.0464157E1,3.7164792E2,2.832655E3,2.9539155E3,1.4011455E4,3.751612E3,1.3348395E2,2.4519997E0,3.7243713E1,5.8455677E1,2.0084789E0,1.3982216E2,2.3182574E2,2.6262788E3,2.0637625E2,1.561324E3,1.3925916E3,4.9645205E3,9.046935E3],"tree_param":{"num_deleted":"0","num_feature":"30","num_nodes":"29","size_leaf_vector":"1"}},{"base_weights":[-8.528142E-5,9.413111E-1,-1.7915593E-1,-9.07083E-1,1.006806E0,-3.1570467E-1,3.3962587E-1,9.718358E-2,-1.2790916E0,2.0810917E-1,9.612917E-1,5.202544E-1,-4.3814015E-1,6.045561E-1,-6.745611E-1,-2.563537E-1,-1.20294645E-1,9.868305E-2,-1.3533507E-1,1.1545414E-1,-1.146336E-1,-6.0126646E-3,-7.772281E-2,1.0313415E-1,3.365557E-3,1.00680545E-1,-1.284864E-1],"categories":[],"categories_nodes":[],"categories_segments":[],"categories_sizes":[],"default_left":[0,0,0,0,0,0,0,0,0,0,0,0,0,0,0,0,0,0,0,0,0,0,0,0,0,0,0],"id":33,"left_children":[1,3,5,7,9,11,13,-1,15,-1,17,19,21,23,25,-1,-1,-1,-1,-1,-1,-1,-1,-1,-1,-1,-1],"loss_changes":[3.9355972E3,4.5260376E2,1.3896106E3,9.085723E1,1.7421411E2,1.5895728E3,1.0986931E3,0E0,7.4253693E0,0E0,2.0582593E2,2.0988315E3,1.736169E3,7.897594E2,8.705282E2,0E0,0E0,0E0,0E0,0E0,0E0,0E0,0E0,0E0,0E0,0E0,0E0],"parents":[2147483647,0,0,1,1,2,2,3,3,4,4,5,5,6,6,8,8,10,10,11,11,12,12,13,13,14,14],"right_children":[2,4,6,8,10,12,14,-1,16,-1,18,20,22,24,26,-1,-1,-1,-1,-1,-1,-1,-1,-1,-1,-1,-1],"split_conditions":[-2.9738042E0,5.0019497E-1,2.4474049E0,-3.6156354E0,5.126387E-1,-1.5005354E0,8.682013E-1,9.718358E-2,-8.6456865E-1,2.0810917E-1,-3.5869166E-1,-3.9421874E-1,-4.254906E-1,4.2283344E-1,-1.8798271E0,-2.563537E-1,-1.20294645E-1,9.868305E-2,-1.3533507E-1,1.1545414E-1,-1.146336E-1,-6.0126646E-3,-7.772281E-2,1.0313415E-1,3.365557E-3,1.00680545E-1,-1.284864E-1],"split_indices":[12,11,4,14,11,13,3,0,14,0,3,1,14,16,8,0,0,0,0,0,0,0,0,0,0,0,0],"split_type":[0,0,0,0,0,0,0,0,0,0,0,0,0,0,0,0,0,0,0,0,0,0,0,0,0,0,0],"sum_hessian":[2.3344064E4,3.7301184E3,1.9613947E4,1.27208115E2,3.6029102E3,1.5527372E4,4.086574E3,2.0757088E1,1.0645103E2,1.4462283E2,3.4582874E3,1.9832158E3,1.3544156E4,3.2404846E3,8.460893E2,4.129346E0,1.02321686E2,3.4211138E3,3.7173607E1,1.4367217E3,5.4649414E2,6.4050347E3,7.139122E3,1.853824E3,1.3866606E3,2.2515213E2,6.209372E2],"tree_param":{"num_deleted":"0","num_feature":"30","num_nodes":"27","size_leaf_vector":"1"}},{"base_weights":[-3.2735144E-4,9.468851E-1,-1.6655451E-1,1.0012959E0,1.6634992E-1,-4.3832466E-2,-7.1192294E-1,1.0045689E0,-2.8815994E-1,-1.5242151E0,7.3609495E-1,1.8882929E-1,-3.744232E-1,-9.7148013E-1,5.9182286E-1,1.0066666E-1,-8.809246E-2,-1.7822002E-1,-1.1448374E-1,-3.5390735E-1,8.568524E-2,-2.7252138E-3,7.112978E-2,-6.7204125E-2,6.29915E-2,9.1930375E-2,-1.09180845E-1,1.09881245E-1,-1.2066346E-1],"categories":[],"categories_nodes":[],"categories_segments":[],"categories_sizes":[],"default_left":[0,0,0,0,0,0,0,0,0,0,0,0,0,0,0,0,0,0,0,0,0,0,0,0,0,0,0,0,0],"id":34,"left_children":[1,3,5,7,9,11,13,15,-1,17,19,21,23,25,27,-1,-1,-1,-1,-1,-1,-1,-1,-1,-1,-1,-1,-1,-1],"loss_changes":[3.5439648E3,1.4254272E2,1.281512E3,4.281421E1,2.131955E2,1.2023926E3,1.1907915E3,1.3302734E1,0E0,3.423462E0,8.839741E1,1.0358806E3,1.930563E3,6.6844824E2,5.343549E2,0E0,0E0,0E0,0E0,0E0,0E0,0E0,0E0,0E0,0E0,0E0,0E0,0E0,0E0],"parents":[2147483647,0,0,1,1,2,2,3,3,4,4,5,5,6,6,7,7,9,9,10,10,11,11,12,12,13,13,14,14],"right_children":[2,4,6,8,10,12,14,16,-1,18,20,22,24,26,28,-1,-1,-1,-1,-1,-1,-1,-1,-1,-1,-1,-1,-1,-1],"split_conditions":[-3.6156354E0,5.3382194E-1,2.7292082E-1,1.7391944E0,2.327142E0,-1.05382696E-1,3.745749E0,5.767415E-1,-2.8815994E-1,3.3060956E-1,9.7203803E-1,-2.2222157E-1,7.6642257E-1,-1.6137081E0,6.1827168E-2,1.0066666E-1,-8.809246E-2,-1.7822002E-1,-1.1448374E-1,-3.5390735E-1,8.568524E-2,-2.7252138E-3,7.112978E-2,-6.7204125E-2,6.29915E-2,9.1930375E-2,-1.09180845E-1,1.09881245E-1,-1.2066346E-1],"split_indices":[14,7,8,16,4,26,4,10,0,10,11,26,6,17,3,0,0,0,0,0,0,0,0,0,0,0,0,0,0],"split_type":[0,0,0,0,0,0,0,0,0,0,0,0,0,0,0,0,0,0,0,0,0,0,0,0,0,0,0,0,0],"sum_hessian":[2.250616E4,3.359279E3,1.914688E4,3.140101E3,2.1917805E2,1.5630658E4,3.5162231E3,3.138197E3,1.903982E0,5.4824844E1,1.6435321E2,9.174381E3,6.456278E3,2.9326326E3,5.8359045E2,3.135175E3,3.021912E0,3.0432426E1,2.4392418E1,3.737222E0,1.60616E2,6.4908545E3,2.6835264E3,4.9806733E3,1.4756044E3,1.7506712E2,2.7575654E3,4.555569E2,1.2803357E2],"tree_param":{"num_deleted":"0","num_feature":"30","num_nodes":"29","size_leaf_vector":"1"}},{"base_weights":[-5.1570754E-4,9.717948E-1,-1.4995858E-1,9.970704E-1,-1.2369006E-1,3.6559305E-1,-2.7943397E-1,1.0011932E0,-1.5629046E-1,7.706936E-1,-6.326517E-1,-3.331469E-1,1.4507233E0,1.0043118E-1,-9.925159E-2,-1.1860825E-1,9.0737306E-2,-1.2734814E-1,5.9027877E-2,2.1288369E-2,-4.9928725E-2,6.280329E-2,4.12132E-1],"categories":[],"categories_nodes":[],"categories_segments":[],"categories_sizes":[],"default_left":[0,0,0,0,0,0,0,0,0,0,0,0,0,0,0,0,0,0,0,0,0,0,0],"id":35,"left_children":[1,3,5,7,-1,9,11,13,-1,15,17,19,21,-1,-1,-1,-1,-1,-1,-1,-1,-1,-1],"loss_changes":[3.1647642E3,1.63219E2,1.2602688E3,3.1848145E1,0E0,1.5330828E3,1.4027928E3,1.8812744E1,0E0,7.2221204E2,8.585559E2,1.3278606E3,9.960733E2,0E0,0E0,0E0,0E0,0E0,0E0,0E0,0E0,0E0,0E0],"parents":[2147483647,0,0,1,1,2,2,3,3,5,5,6,6,7,7,9,9,10,10,11,11,12,12],"right_children":[2,4,6,8,-1,10,12,14,-1,16,18,20,22,-1,-1,-1,-1,-1,-1,-1,-1,-1,-1],"split_conditions":[-1.6137081E0,-8.570009E-1,-1.0702741E0,1.1664499E0,-1.2369006E-1,1.06149286E-1,1.2022438E0,2.0712814E0,-1.5629046E-1,-2.846243E-1,3.745749E0,1.54E0,1.3465661E0,1.0043118E-1,-9.925159E-2,-1.1860825E-1,9.0737306E-2,-1.2734814E-1,5.9027877E-2,2.1288369E-2,-4.9928725E-2,6.280329E-2,4.12132E-1],"split_indices":[17,12,19,16,0,6,26,10,0,5,4,29,12,0,0,0,0,0,0,0,0,0,0],"split_type":[0,0,0,0,0,0,0,0,0,0,0,0,0,0,0,0,0,0,0,0,0,0,0],"sum_hessian":[2.1778162E4,2.9006099E3,1.8877553E4,2.8683342E3,3.227577E1,3.7888984E3,1.5088653E4,2.86433E3,4.003994E0,2.695328E3,1.0935707E3,1.4635112E4,4.5354153E2,2.860352E3,3.9780345E0,1.7547375E2,2.519854E3,7.1753357E2,3.7603717E2,3.414118E3,1.1220994E4,3.47674E2,1.0586752E2],"tree_param":{"num_deleted":"0","num_feature":"30","num_nodes":"23","size_leaf_vector":"1"}},{"base_weights":[-4.8839045E-4,9.3400663E-1,-1.4395669E-1,9.9431795E-1,1.0792379E-1,-3.0010832E-2,-6.952213E-1,9.98122E-1,-2.510736E-1,-1.4596215E0,6.8966764E-1,1.8557476E-1,-3.475337E-1,-9.583807E-1,5.3739285E-1,1.0004067E-1,-8.4994644E-2,-1.6676322E-1,-1.1222527E-1,8.111936E-2,-3.5777828E-1,-1.6819452E-1,2.4387026E-2,-6.2994435E-2,5.484554E-2,8.8634096E-2,-1.0705569E-1,1.0490563E-1,-1.0621693E-1],"categories":[],"categories_nodes":[],"categories_segments":[],"categories_sizes":[],"default_left":[0,0,0,0,0,0,0,0,0,0,0,0,0,0,0,0,0,0,0,0,0,0,0,0,0,0,0,0,0],"id":36,"left_children":[1,3,5,7,9,11,13,15,-1,17,19,21,23,25,27,-1,-1,-1,-1,-1,-1,-1,-1,-1,-1,-1,-1,-1,-1],"loss_changes":[2.8328162E3,1.3999976E2,1.1505597E3,3.7448486E1,1.7651584E2,1.0392285E3,1.0182572E3,1.1905762E1,0E0,1.8067551E0,7.605101E1,9.8483E2,1.5538121E3,5.360608E2,4.534219E2,0E0,0E0,0E0,0E0,0E0,0E0,0E0,0E0,0E0,0E0,0E0,0E0,0E0,0E0],"parents":[2147483647,0,0,1,1,2,2,3,3,4,4,5,5,6,6,7,7,9,9,10,10,11,11,12,12,13,13,14,14],"right_children":[2,4,6,8,10,12,14,16,-1,18,20,22,24,26,28,-1,-1,-1,-1,-1,-1,-1,-1,-1,-1,-1,-1,-1,-1],"split_conditions":[-3.6156354E0,5.3382194E-1,2.7292082E-1,1.7391944E0,2.327142E0,-1.05382696E-1,3.745749E0,5.767415E-1,-2.510736E-1,3.3060956E-1,1.46791E5,-2.385491E0,7.6642257E-1,-1.6137081E0,-4.9431762E-1,1.0004067E-1,-8.4994644E-2,-1.6676322E-1,-1.1222527E-1,8.111936E-2,-3.5777828E-1,-1.6819452E-1,2.4387026E-2,-6.2994435E-2,5.484554E-2,8.8634096E-2,-1.0705569E-1,1.0490563E-1,-1.0621693E-1],"split_indices":[14,7,8,16,4,26,4,10,0,10,0,14,6,17,7,0,0,0,0,0,0,0,0,0,0,0,0,0,0],"split_type":[0,0,0,0,0,0,0,0,0,0,0,0,0,0,0,0,0,0,0,0,0,0,0,0,0,0,0,0,0],"sum_hessian":[2.1127314E4,2.8111433E3,1.831617E4,2.61968E3,1.914633E2,1.5179614E4,3.1365571E3,2.6175544E3,2.1256106E0,5.1414547E1,1.4004877E2,9.041324E3,6.1382896E3,2.5849092E3,5.516478E2,2.6147808E3,2.7736993E0,2.9365616E1,2.2048931E1,1.3695845E2,3.0903108E0,2.7284283E2,8.768481E3,4.667437E3,1.4708525E3,1.4778038E2,2.437129E3,4.1821466E2,1.3343315E2],"tree_param":{"num_deleted":"0","num_feature":"30","num_nodes":"29","size_leaf_vector":"1"}},{"base_weights":[-6.2166713E-4,9.619043E-1,-1.2943628E-1,9.8920596E-1,-1.2118063E-1,-4.9411803E-1,5.850438E-2,9.938067E-1,-1.4848788E-1,-6.289871E-1,1.1402982E0,2.5687617E-1,-6.491396E-1,9.970221E-2,-9.511859E-2,3.5411056E-2,-7.870987E-2,2.4226801E-1,-1.06103025E-1,4.779232E-2,-3.620606E-2,-1.1470842E-1,3.5565782E-2],"categories":[],"categories_nodes":[],"categories_segments":[],"categories_sizes":[],"default_left":[0,0,0,0,0,0,0,0,0,0,0,0,0,0,0,0,0,0,0,0,0,0,0],"id":37,"left_children":[1,3,5,7,-1,9,11,13,-1,15,17,19,21,-1,-1,-1,-1,-1,-1,-1,-1,-1,-1],"loss_changes":[2.5483955E3,1.4517285E2,1.2424707E3,2.8754395E1,0E0,1.3597064E3,1.6795663E3,1.5911621E1,0E0,8.8562964E2,1.330228E3,1.2786785E3,1.3111283E3,0E0,0E0,0E0,0E0,0E0,0E0,0E0,0E0,0E0,0E0],"parents":[2147483647,0,0,1,1,2,2,3,3,5,5,6,6,7,7,9,9,10,10,11,11,12,12],"right_children":[2,4,6,8,-1,10,12,14,-1,16,18,20,22,-1,-1,-1,-1,-1,-1,-1,-1,-1,-1],"split_conditions":[-1.6137081E0,-8.570009E-1,-5.8617588E-2,1.1664499E0,-1.2118063E-1,1.2368379E0,1.619851E-1,2.0712814E0,-1.4848788E-1,-1.5005354E0,-1.1865485E0,3.902648E-1,2.7407496E0,9.970221E-2,-9.511859E-2,3.5411056E-2,-7.870987E-2,2.4226801E-1,-1.06103025E-1,4.779232E-2,-3.620606E-2,-1.1470842E-1,3.5565782E-2],"split_indices":[17,12,17,16,0,12,8,10,0,13,15,13,4,0,0,0,0,0,0,0,0,0,0],"split_type":[0,0,0,0,0,0,0,0,0,0,0,0,0,0,0,0,0,0,0,0,0,0,0],"sum_hessian":[2.055166E4,2.4250186E3,1.812664E4,2.3954766E3,2.9542065E1,6.164113E3,1.1962528E4,2.3916272E3,3.8491344E0,5.694803E3,4.6930963E2,9.343835E3,2.6186934E3,2.3881667E3,3.4606507E0,7.8882855E2,4.9059746E3,2.9648944E2,1.7282019E2,6.8851143E3,2.458721E3,1.7508754E3,8.67818E2],"tree_param":{"num_deleted":"0","num_feature":"30","num_nodes":"23","size_leaf_vector":"1"}},{"base_weights":[-1.2290523E-3,9.206937E-1,-1.2567893E-1,9.871488E-1,7.0576735E-2,-7.3995304E-1,-2.545097E-2,9.9153703E-1,-2.24183E-1,-1.4035084E0,6.490648E-1,2.2496529E-1,-9.019007E-1,-1.3208966E0,2.3613464E-2,9.93688E-2,-1.0136385E-1,-1.5675528E-1,-1.0971143E-1,-2.90796E-1,7.918466E-2,-1.1461128E-1,8.826613E-2,-1.0345449E-1,4.127818E-2,-1.9572236E-1,-1.1809073E-1,1.0251826E-2,-7.546668E-2],"categories":[],"categories_nodes":[],"categories_segments":[],"categories_sizes":[],"default_left":[0,0,0,0,0,0,0,0,0,0,0,0,0,0,0,0,0,0,0,0,0,0,0,0,0,0,0,0,0],"id":38,"left_children":[1,3,5,7,9,11,13,15,-1,17,19,21,23,25,27,-1,-1,-1,-1,-1,-1,-1,-1,-1,-1,-1,-1,-1,-1],"loss_changes":[2.2867473E3,1.3385022E2,1.0811368E3,3.3375244E1,1.4838962E2,3.851327E2,9.5967834E2,1.0479492E1,0E0,7.4601746E-1,6.573053E1,3.2096506E2,3.6828906E2,4.6770264E1,8.934846E2,0E0,0E0,0E0,0E0,0E0,0E0,0E0,0E0,0E0,0E0,0E0,0E0,0E0,0E0],"parents":[2147483647,0,0,1,1,2,2,3,3,4,4,5,5,6,6,7,7,9,9,10,10,11,11,12,12,13,13,14,14],"right_children":[2,4,6,8,10,12,14,16,-1,18,20,22,24,26,28,-1,-1,-1,-1,-1,-1,-1,-1,-1,-1,-1,-1,-1,-1],"split_conditions":[-3.6156354E0,5.3382194E-1,-2.9450953E-1,1.7391944E0,2.327142E0,-1.6016932E0,-1.0209606E0,3.1570253E-1,-2.24183E-1,4.223826E-1,9.7203803E-1,-7.6918113E-1,1.8243738E0,-1.5412886E0,1.3906277E0,9.93688E-2,-1.0136385E-1,-1.5675528E-1,-1.0971143E-1,-2.90796E-1,7.918466E-2,-1.1461128E-1,8.826613E-2,-1.0345449E-1,4.127818E-2,-1.9572236E-1,-1.1809073E-1,1.0251826E-2,-7.546668E-2],"split_indices":[14,7,4,16,4,10,24,12,0,10,11,1,16,14,2,0,0,0,0,0,0,0,0,0,0,0,0,0,0],"split_type":[0,0,0,0,0,0,0,0,0,0,0,0,0,0,0,0,0,0,0,0,0,0,0,0,0,0,0,0,0],"sum_hessian":[1.9928996E4,2.3694856E3,1.755951E4,2.1975388E3,1.7194664E2,2.462294E3,1.5097216E4,2.1952483E3,2.2904654E0,4.8058727E1,1.2388792E2,3.5381287E2,2.108481E3,5.499881E2,1.4547228E4,2.1934E3,1.8483799E0,2.8619581E1,1.9439148E1,4.033659E0,1.19854256E2,1.1445971E2,2.3935316E2,1.915437E3,1.9304404E2,9.6835846E1,4.5315225E2,1.3208929E4,1.3382994E3],"tree_param":{"num_deleted":"0","num_feature":"30","num_nodes":"29","size_leaf_vector":"1"}},{"base_weights":[-1.3271704E-3,9.544192E-1,-1.1410754E-1,9.827791E-1,-1.1919027E-1,-4.5893478E-1,5.8815E-2,9.878159E-1,-1.4205083E-1,-1.722343E-1,-1.1586828E0,2.3524241E-1,-6.1880684E-1,9.910518E-2,-9.056146E-2,-4.5469157E-2,1.16546266E-1,-1.1228891E-1,-1.4166836E-1,-7.34114E-2,3.636851E-2,-1.1341285E-1,3.237889E-2],"categories":[],"categories_nodes":[],"categories_segments":[],"categories_sizes":[],"default_left":[0,0,0,0,0,0,0,0,0,0,0,0,0,0,0,0,0,0,0,0,0,0,0],"id":39,"left_children":[1,3,5,7,-1,9,11,13,-1,15,17,19,21,-1,-1,-1,-1,-1,-1,-1,-1,-1,-1],"loss_changes":[2.1025872E3,1.2649292E2,1.0403975E3,2.600708E1,0E0,1.1688833E3,1.3894681E3,1.3328491E1,0E0,1.562872E3,1.4048096E1,1.1483708E3,1.1666033E3,0E0,0E0,0E0,0E0,0E0,0E0,0E0,0E0,0E0,0E0],"parents":[2147483647,0,0,1,1,2,2,3,3,5,5,6,6,7,7,9,9,10,10,11,11,12,12],"right_children":[2,4,6,8,-1,10,12,14,-1,16,18,20,22,-1,-1,-1,-1,-1,-1,-1,-1,-1,-1],"split_conditions":[-1.6137081E0,-8.570009E-1,-5.8617588E-2,1.1664499E0,-1.1919027E-1,4.2283344E-1,1.619851E-1,2.0712814E0,-1.4205083E-1,3.4404144E-1,1.1851474E0,-4.534951E-1,2.7407496E0,9.910518E-2,-9.056146E-2,-4.5469157E-2,1.16546266E-1,-1.1228891E-1,-1.4166836E-1,-7.34114E-2,3.636851E-2,-1.1341285E-1,3.237889E-2],"split_indices":[17,12,17,16,0,16,8,10,0,16,7,18,4,0,0,0,0,0,0,0,0,0,0],"split_type":[0,0,0,0,0,0,0,0,0,0,0,0,0,0,0,0,0,0,0,0,0,0,0],"sum_hessian":[1.9504422E4,2.0578562E3,1.7446566E4,2.0315548E3,2.6301336E1,5.8264023E3,1.1620164E4,2.0278938E3,3.6611056E0,4.1339062E3,1.6924961E3,9.220217E3,2.3999473E3,2.0249098E3,2.984001E0,3.4137468E3,7.201592E2,1.4909946E3,2.015015E2,1.0782153E3,8.1420015E3,1.5515204E3,8.484268E2],"tree_param":{"num_deleted":"0","num_feature":"30","num_nodes":"23","size_leaf_vector":"1"}},{"base_weights":[-1.8911066E-3,9.495095E-1,-1.0631061E-1,9.7793525E-1,-1.1712535E-1,3.7448376E-1,-2.2499995E-1,9.8311365E-1,-1.3531725E-1,7.221708E-1,-5.693952E-1,2.4417982E-1,-3.799817E-1,9.864203E-2,-8.831779E-2,8.415929E-2,-1.3335021E-1,7.6725654E-2,-1.10300176E-1,6.763109E-2,-8.95391E-2,-9.820301E-3,-8.9486055E-2],"categories":[],"categories_nodes":[],"categories_segments":[],"categories_sizes":[],"default_left":[0,0,0,0,0,0,0,0,0,0,0,0,0,0,0,0,0,0,0,0,0,0,0],"id":40,"left_children":[1,3,5,7,-1,9,11,13,-1,15,17,19,21,-1,-1,-1,-1,-1,-1,-1,-1,-1,-1],"loss_changes":[1.8803488E3,1.1399219E2,9.733635E2,2.3634644E1,0E0,1.1087024E3,9.947835E2,1.2251953E1,0E0,6.071116E2,6.496709E2,1.6735691E3,1.491814E3,0E0,0E0,0E0,0E0,0E0,0E0,0E0,0E0,0E0,0E0],"parents":[2147483647,0,0,1,1,2,2,3,3,5,5,6,6,7,7,9,9,10,10,11,11,12,12],"right_children":[2,4,6,8,-1,10,12,14,-1,16,18,20,22,-1,-1,-1,-1,-1,-1,-1,-1,-1,-1],"split_conditions":[-1.6137081E0,-8.570009E-1,-1.0702741E0,1.1664499E0,-1.1712535E-1,1.06149286E-1,-4.4057715E-1,2.0712814E0,-1.3531725E-1,4.449637E-1,-1.9243426E0,-8.215705E-2,4.3793865E-2,9.864203E-2,-8.831779E-2,8.415929E-2,-1.3335021E-1,7.6725654E-2,-1.10300176E-1,6.763109E-2,-8.95391E-2,-9.820301E-3,-8.9486055E-2],"split_indices":[17,12,19,16,0,6,8,10,0,24,15,13,14,0,0,0,0,0,0,0,0,0,0],"split_type":[0,0,0,0,0,0,0,0,0,0,0,0,0,0,0,0,0,0,0,0,0,0,0],"sum_hessian":[1.8925488E4,1.8709105E3,1.7054576E4,1.8466971E3,2.4213404E1,3.3761394E3,1.36784375E4,1.8431809E3,3.5162504E0,2.467461E3,9.086786E2,3.3962666E3,1.0282171E4,1.8403916E3,2.7893107E0,2.3325447E3,1.3491605E2,2.5913168E2,6.4954694E2,2.462776E3,9.3349066E2,6.646125E3,3.636046E3],"tree_param":{"num_deleted":"0","num_feature":"30","num_nodes":"23","size_leaf_vector":"1"}},{"base_weights":[-1.9989733E-3,9.4446945E-1,-9.893676E-2,9.729535E-1,-1.1517203E-1,-4.5899385E-1,5.9567466E-2,9.7827697E-1,-1.2915403E-1,-9.835393E-1,3.474032E-2,1.3502552E-1,-1.1722536E0,9.816592E-2,-8.6098336E-2,3.6674112E-2,-1.18030906E-1,3.7683707E-2,-1.09700575E-1,-3.689326E-2,3.330107E-2,6.9961496E-2,-1.4136408E-1],"categories":[],"categories_nodes":[],"categories_segments":[],"categories_sizes":[],"default_left":[0,0,0,0,0,0,0,0,0,0,0,0,0,0,0,0,0,0,0,0,0,0,0],"id":41,"left_children":[1,3,5,7,-1,9,11,13,-1,15,17,19,21,-1,-1,-1,-1,-1,-1,-1,-1,-1,-1],"loss_changes":[1.6809984E3,1.0275464E2,9.4851685E2,2.1514648E1,0E0,1.3157047E3,1.0728579E3,1.127478E1,0E0,6.5489575E2,1.0139632E3,1.0852162E3,3.0202563E2,0E0,0E0,0E0,0E0,0E0,0E0,0E0,0E0,0E0,0E0],"parents":[2147483647,0,0,1,1,2,2,3,3,5,5,6,6,7,7,9,9,10,10,11,11,12,12],"right_children":[2,4,6,8,-1,10,12,14,-1,16,18,20,22,-1,-1,-1,-1,-1,-1,-1,-1,-1,-1],"split_conditions":[-1.6137081E0,-8.570009E-1,-1.6426414E-2,1.1664499E0,-1.1517203E-1,3.9355132E-1,7.062504E-1,2.0712814E0,-1.2915403E-1,-1.522848E0,2.0140867E-1,-6.833655E-2,-3.6156354E0,9.816592E-2,-8.6098336E-2,3.6674112E-2,-1.18030906E-1,3.7683707E-2,-1.09700575E-1,-3.689326E-2,3.330107E-2,6.9961496E-2,-1.4136408E-1],"split_indices":[17,12,28,16,0,22,25,10,0,7,12,18,14,0,0,0,0,0,0,0,0,0,0],"split_type":[0,0,0,0,0,0,0,0,0,0,0,0,0,0,0,0,0,0,0,0,0,0,0],"sum_hessian":[1.831978E4,1.701189E3,1.661859E4,1.678911E3,2.2278006E1,5.0790835E3,1.1539506E4,1.67554E3,3.3709157E0,2.4622188E3,2.6168645E3,1.0874269E4,6.652381E2,1.6729299E3,2.610148E0,3.1306046E2,2.1491584E3,2.0099708E3,6.068937E2,3.066876E3,7.807392E3,7.5770195E1,5.894679E2],"tree_param":{"num_deleted":"0","num_feature":"30","num_nodes":"23","size_leaf_vector":"1"}},{"base_weights":[-2.4943268E-3,8.5192096E-1,-1.0158684E-1,-1.0442691E0,9.530844E-1,1.263705E-4,-7.810935E-1,9.0357035E-2,-1.2518932E0,9.970325E-1,-7.415383E-1,-1.5025598E-1,4.986373E-1,-1.1362435E0,5.5572736E-1,-2.9705045E-1,-1.181937E-1,1.0223408E-1,-1.0681986E-1,-1.4954959E-1,9.4257884E-2,-3.0845419E-2,4.102716E-2,7.163001E-2,-1.2033831E-1,-1.0874082E-1,-1.2312889E-1,1.3977942E-1,-1.1252343E-1],"categories":[],"categories_nodes":[],"categories_segments":[],"categories_sizes":[],"default_left":[0,0,0,0,0,0,0,0,0,0,0,0,0,0,0,0,0,0,0,0,0,0,0,0,0,0,0,0,0],"id":42,"left_children":[1,3,5,7,9,11,13,-1,15,17,19,21,23,25,27,-1,-1,-1,-1,-1,-1,-1,-1,-1,-1,-1,-1,-1,-1],"loss_changes":[1.5122462E3,3.5706482E2,1.1061854E3,3.934561E1,1.3201929E2,1.0437852E3,9.899723E2,0E0,6.805725E0,9.091846E1,5.8716423E1,9.4863153E2,1.1962588E3,6.3044434E0,6.216567E2,0E0,0E0,0E0,0E0,0E0,0E0,0E0,0E0,0E0,0E0,0E0,0E0,0E0,0E0],"parents":[2147483647,0,0,1,1,2,2,3,3,4,4,5,5,6,6,8,8,9,9,10,10,11,11,12,12,13,13,14,14],"right_children":[2,4,6,8,10,12,14,-1,16,18,20,22,24,26,28,-1,-1,-1,-1,-1,-1,-1,-1,-1,-1,-1,-1,-1,-1],"split_conditions":[-2.9738042E0,5.0019497E-1,1.2776982E0,-3.6156354E0,-1.6223511E-1,6.4547724E-1,9.2340004E-1,9.0357035E-2,-1.4816929E0,2.983501E0,1.12402E5,2.4474049E0,8.4848E4,1.5357022E0,-6.041179E-1,-2.9705045E-1,-1.181937E-1,1.0223408E-1,-1.0681986E-1,-1.4954959E-1,9.4257884E-2,-3.0845419E-2,4.102716E-2,7.163001E-2,-1.2033831E-1,-1.0874082E-1,-1.2312889E-1,1.3977942E-1,-1.1252343E-1],"split_indices":[12,11,3,14,10,3,22,0,14,17,0,4,0,4,8,0,0,0,0,0,0,0,0,0,0,0,0,0,0],"split_type":[0,0,0,0,0,0,0,0,0,0,0,0,0,0,0,0,0,0,0,0,0,0,0,0,0,0,0,0,0],"sum_hessian":[1.7859262E4,1.8552195E3,1.6004042E4,9.3492355E1,1.7617272E3,1.3921218E4,2.0828235E3,8.6827345E0,8.480962E1,1.717595E3,4.4132244E1,1.0695484E4,3.2257341E3,1.645751E3,4.3707266E2,1.6954393E0,8.311418E1,1.6973004E3,2.0294481E1,3.056202E1,1.3570226E1,8.341659E3,2.3538245E3,2.8604985E3,3.652355E2,1.0953774E3,5.5037354E2,2.9131085E2,1.4576181E2],"tree_param":{"num_deleted":"0","num_feature":"30","num_nodes":"29","size_leaf_vector":"1"}},{"base_weights":[-2.664776E-3,5.010022E-1,-1.6196248E-1,7.21315E-1,-4.3193483E-1,6.4814076E-2,-6.127276E-1,1.0018635E0,-7.216576E-3,-1.493091E0,5.426137E-1,3.4091607E-1,-3.9867458E-1,-9.159633E-1,1.779733E-2,1.0800301E-1,-1.4415516E-1,9.779187E-2,-1.0911061E-1,3.9076105E-2,-1.5202346E-1,7.520775E-2,-1.8292531E-1,5.872035E-2,-7.362506E-2,6.5870024E-2,-7.463682E-2,-1.0541822E-1,3.204368E-2,-7.516666E-2,8.278939E-2],"categories":[],"categories_nodes":[],"categories_segments":[],"categories_sizes":[],"default_left":[0,0,0,0,0,0,0,0,0,0,0,0,0,0,0,0,0,0,0,0,0,0,0,0,0,0,0,0,0,0,0],"id":43,"left_children":[1,3,5,7,9,11,13,15,17,19,21,23,25,27,29,-1,-1,-1,-1,-1,-1,-1,-1,-1,-1,-1,-1,-1,-1,-1,-1],"loss_changes":[1.4000569E3,8.6210693E2,1.3552101E3,6.93345E2,8.2980164E2,1.128925E3,8.4841394E2,4.6932568E2,1.00917914E3,2.0230957E1,2.0934192E2,1.4670586E3,1.2112815E3,5.1238794E2,8.9946185E2,0E0,0E0,0E0,0E0,0E0,0E0,0E0,0E0,0E0,0E0,0E0,0E0,0E0,0E0,0E0,0E0],"parents":[2147483647,0,0,1,1,2,2,3,3,4,4,5,5,6,6,7,7,8,8,9,9,10,10,11,11,12,12,13,13,14,14],"right_children":[2,4,6,8,10,12,14,16,18,20,22,24,26,28,30,-1,-1,-1,-1,-1,-1,-1,-1,-1,-1,-1,-1,-1,-1,-1,-1],"split_conditions":[-1.9638966E0,5.213426E-1,1.02888E5,-8.771465E-1,2.327142E0,4.3793865E-2,9.379623E-1,1.826473E0,-5.3496045E-1,-1.6137081E0,1.4329508E-1,1.2776982E0,-1.1252395E0,1.6726968E0,1.3904194E0,1.0800301E-1,-1.4415516E-1,9.779187E-2,-1.0911061E-1,3.9076105E-2,-1.5202346E-1,7.520775E-2,-1.8292531E-1,5.872035E-2,-7.362506E-2,6.5870024E-2,-7.463682E-2,-1.0541822E-1,3.204368E-2,-7.516666E-2,8.278939E-2],"split_indices":[3,16,0,10,4,14,10,17,25,17,24,3,19,16,5,0,0,0,0,0,0,0,0,0,0,0,0,0,0,0,0],"split_type":[0,0,0,0,0,0,0,0,0,0,0,0,0,0,0,0,0,0,0,0,0,0,0,0,0,0,0,0,0,0,0],"sum_hessian":[1.7447879E4,4.1918755E3,1.3256004E4,3.3912576E3,8.0061774E2,8.819724E3,4.4362803E3,2.448136E3,9.431217E2,3.8302332E2,4.1759445E2,5.5273335E3,3.2923896E3,2.9953074E3,1.440973E3,2.3727869E3,7.534914E1,4.941196E2,4.4900214E2,5.250156E0,3.7777313E2,3.8433597E2,3.325848E1,4.4990977E3,1.028236E3,8.145025E2,2.477887E3,2.6942598E3,3.0104758E2,7.390574E2,7.019157E2],"tree_param":{"num_deleted":"0","num_feature":"30","num_nodes":"31","size_leaf_vector":"1"}},{"base_weights":[-3.1921435E-3,8.715876E-1,-8.6802684E-2,9.6583074E-1,-9.890616E-2,-1.4582232E-2,-8.439244E-1,9.7262657E-1,-1.8764932E-1,-1.551723E0,4.47234E-1,-6.384855E-1,7.617496E-2,3.6429194E-1,-1.2464862E0,9.7555004E-2,-9.167251E-2,7.935102E-2,-1.875022E-1,-1.1777917E-1,7.906508E-2,4.0199425E-2,-8.500093E-2,1.8263115E-2,-4.905743E-2,7.8241386E-2,-2.119663E-1,3.1202648E-2,-1.3746373E-1],"categories":[],"categories_nodes":[],"categories_segments":[],"categories_sizes":[],"default_left":[0,0,0,0,0,0,0,0,0,0,0,0,0,0,0,0,0,0,0,0,0,0,0,0,0,0,0,0,0],"id":44,"left_children":[1,3,5,7,9,11,13,15,-1,17,19,21,23,25,27,-1,-1,-1,-1,-1,-1,-1,-1,-1,-1,-1,-1,-1,-1],"loss_changes":[1.2286763E3,1.3413696E2,8.384026E2,2.7629395E1,1.04338326E2,7.927232E2,6.498822E2,8.259155E0,0E0,2.871711E1,5.4345375E1,3.9163E2,7.3749744E2,3.4903714E2,2.0050415E2,0E0,0E0,0E0,0E0,0E0,0E0,0E0,0E0,0E0,0E0,0E0,0E0,0E0,0E0],"parents":[2147483647,0,0,1,1,2,2,3,3,4,4,5,5,6,6,7,7,9,9,10,10,11,11,12,12,13,13,14,14],"right_children":[2,4,6,8,10,12,14,16,-1,18,20,22,24,26,28,-1,-1,-1,-1,-1,-1,-1,-1,-1,-1,-1,-1,-1,-1],"split_conditions":[-3.6156354E0,5.3382194E-1,1.3906277E0,1.7391944E0,1.7031275E0,-2.9450953E-1,-2.190045E0,3.1570253E-1,-1.8764932E-1,-1.5316515E0,2.327142E0,-1.6016932E0,1.7412779E0,-8.767591E-1,-1.9592315E0,9.7555004E-2,-9.167251E-2,7.935102E-2,-1.875022E-1,-1.1777917E-1,7.906508E-2,4.0199425E-2,-8.500093E-2,1.8263115E-2,-4.905743E-2,7.8241386E-2,-2.119663E-1,3.1202648E-2,-1.3746373E-1],"split_indices":[14,7,2,16,11,4,12,12,0,25,4,10,1,1,13,0,0,0,0,0,0,0,0,0,0,0,0,0,0],"split_type":[0,0,0,0,0,0,0,0,0,0,0,0,0,0,0,0,0,0,0,0,0,0,0,0,0,0,0,0,0],"sum_hessian":[1.6796746E4,1.4645359E3,1.5332209E4,1.3349097E3,1.296263E2,1.3997986E4,1.3342229E3,1.3323818E3,2.5278294E0,3.491248E1,9.471382E1,1.776886E3,1.2221101E4,3.334695E2,1.00075336E3,1.3308063E3,1.5755234E0,4.053525E0,3.0858955E1,1.6100006E1,7.8613815E1,3.0004965E2,1.4768363E3,1.0289108E4,1.9319922E3,2.8601062E2,4.7458893E1,7.592729E1,9.248261E2],"tree_param":{"num_deleted":"0","num_feature":"30","num_nodes":"29","size_leaf_vector":"1"}},{"base_weights":[-3.2524618E-3,4.8402756E-1,-1.484945E-1,6.965893E-1,-3.9676768E-1,5.3753607E-2,-5.7303226E-1,9.7657233E-1,-5.727443E-3,-1.431791E0,5.183336E-1,-4.9824992E-1,2.664317E-1,-9.492632E-1,-6.669235E-2,1.0537684E-1,-1.3901341E-1,9.1015995E-2,-1.0671753E-1,3.3638563E-2,-1.4573917E-1,7.181106E-2,-1.7617251E-1,-1.00125685E-1,3.201097E-2,8.4114276E-2,7.198299E-4,3.690673E-2,-1.0352836E-1,3.353925E-2,-1.1978918E-1],"categories":[],"categories_nodes":[],"categories_segments":[],"categories_sizes":[],"default_left":[0,0,0,0,0,0,0,0,0,0,0,0,0,0,0,0,0,0,0,0,0,0,0,0,0,0,0,0,0,0,0],"id":45,"left_children":[1,3,5,7,9,11,13,15,17,19,21,23,25,27,29,-1,-1,-1,-1,-1,-1,-1,-1,-1,-1,-1,-1,-1,-1,-1,-1],"loss_changes":[1.1657028E3,7.083749E2,1.0895127E3,5.9919385E2,6.977734E2,1.0092164E3,7.799287E2,3.995061E2,8.4629626E2,1.61344E1,1.7951431E2,9.845268E2,9.2450037E2,2.6675952E2,7.94772E2,0E0,0E0,0E0,0E0,0E0,0E0,0E0,0E0,0E0,0E0,0E0,0E0,0E0,0E0,0E0,0E0],"parents":[2147483647,0,0,1,1,2,2,3,3,4,4,5,5,6,6,7,7,8,8,9,9,10,10,11,11,12,12,13,13,14,14],"right_children":[2,4,6,8,10,12,14,16,18,20,22,24,26,28,30,-1,-1,-1,-1,-1,-1,-1,-1,-1,-1,-1,-1,-1,-1,-1,-1],"split_conditions":[-1.9638966E0,5.213426E-1,1.02888E5,-8.771465E-1,2.327142E0,4.5398E4,2.5617546E-1,1.826473E0,-5.3496045E-1,-1.6137081E0,1.4329508E-1,1.7272661E0,-3.970194E-1,-1.3991737E0,-1.4132994E-1,1.0537684E-1,-1.3901341E-1,9.1015995E-2,-1.0671753E-1,3.3638563E-2,-1.4573917E-1,7.181106E-2,-1.7617251E-1,-1.00125685E-1,3.201097E-2,8.4114276E-2,7.198299E-4,3.690673E-2,-1.0352836E-1,3.353925E-2,-1.1978918E-1],"split_indices":[3,16,0,10,4,0,24,17,25,17,24,4,24,20,25,0,0,0,0,0,0,0,0,0,0,0,0,0,0,0,0],"split_type":[0,0,0,0,0,0,0,0,0,0,0,0,0,0,0,0,0,0,0,0,0,0,0,0,0,0,0,0,0,0,0],"sum_hessian":[1.6468867E4,3.781106E3,1.2687761E4,3.0461821E3,7.3492395E2,8.59433E3,4.0934312E3,2.1776553E3,8.6852673E2,3.4460013E2,3.9032382E2,2.389936E3,6.204394E3,2.3479414E3,1.7454899E3,2.1094065E3,6.824885E1,4.6630795E2,4.0221878E2,4.7448454E0,3.3985526E2,3.59509E2,3.0814844E1,1.4800165E3,9.099196E2,1.9279512E3,4.276443E3,1.4361626E2,2.2043252E3,1.2882758E3,4.5721408E2],"tree_param":{"num_deleted":"0","num_feature":"30","num_nodes":"31","size_leaf_vector":"1"}},{"base_weights":[-3.707847E-3,4.6566835E-1,-1.3765024E-1,8.5453147E-1,1.5779557E-2,-7.4609645E-2,-1.3350995E0,9.6279985E-1,-1.2559005E0,3.303753E-1,-1.1987607E0,-2.691672E-1,4.3490085E-1,-1.1820092E0,-2.255373E0,1.0378225E-1,-7.168882E-2,-1.1276247E-1,-1.4059412E-1,8.935567E-2,-2.8585508E-2,-1.1176194E-1,-1.3550596E-1,1.0397899E-3,-1.0245466E-1,7.976231E-2,-4.7423355E-2,6.521909E-2,-1.22228384E-1,-3.6278692E-1,-2.0607732E-1],"categories":[],"categories_nodes":[],"categories_segments":[],"categories_sizes":[],"default_left":[0,0,0,0,0,0,0,0,0,0,0,0,0,0,0,0,0,0,0,0,0,0,0,0,0,0,0,0,0,0,0],"id":46,"left_children":[1,3,5,7,9,11,13,15,17,19,21,23,25,27,29,-1,-1,-1,-1,-1,-1,-1,-1,-1,-1,-1,-1,-1,-1,-1,-1],"loss_changes":[1.00480695E3,6.2073694E2,9.3853046E2,4.360752E2,6.2933997E2,1.171166E3,8.493762E1,2.2894214E2,2.1046448E-1,4.542647E2,2.7832031E0,1.8054873E3,1.0769934E3,4.033496E1,1.5916687E1,0E0,0E0,0E0,0E0,0E0,0E0,0E0,0E0,0E0,0E0,0E0,0E0,0E0,0E0,0E0,0E0],"parents":[2147483647,0,0,1,1,2,2,3,3,4,4,5,5,6,6,7,7,8,8,9,9,10,10,11,11,12,12,13,13,14,14],"right_children":[2,4,6,8,10,12,14,16,18,20,22,24,26,28,30,-1,-1,-1,-1,-1,-1,-1,-1,-1,-1,-1,-1,-1,-1,-1,-1],"split_conditions":[-1.9638966E0,-3.784082E-1,7.062504E-1,1.098262E0,-1.0979663E0,3.737651E-1,1.7192266E0,2.2110865E-1,6.777285E-1,1.619996E-1,1.4150543E0,2.0140867E-1,-1.4296684E-2,-3.6156354E0,-1.3572173E0,1.0378225E-1,-7.168882E-2,-1.1276247E-1,-1.4059412E-1,8.935567E-2,-2.8585508E-2,-1.1176194E-1,-1.3550596E-1,1.0397899E-3,-1.0245466E-1,7.976231E-2,-4.7423355E-2,6.521909E-2,-1.22228384E-1,-3.6278692E-1,-2.0607732E-1],"split_indices":[3,16,25,14,14,25,17,10,21,2,4,12,21,14,12,0,0,0,0,0,0,0,0,0,0,0,0,0,0,0,0],"split_type":[0,0,0,0,0,0,0,0,0,0,0,0,0,0,0,0,0,0,0,0,0,0,0,0,0,0,0,0,0,0,0],"sum_hessian":[1.5980436E4,3.5472568E3,1.2433179E4,1.9021913E3,1.6450657E3,1.181237E4,6.208086E2,1.8098851E3,9.2306076E1,1.3071974E3,3.3786826E2,8.548559E3,3.2638118E3,5.342233E2,8.658524E1,1.7328693E3,7.701586E1,5.4353024E1,3.7953053E1,6.827619E2,6.2443555E2,2.2777245E2,1.10095795E2,6.2400933E3,2.3084653E3,2.333089E3,9.3072253E2,1.1151774E1,5.230716E2,8.561185E0,7.802406E1],"tree_param":{"num_deleted":"0","num_feature":"30","num_nodes":"31","size_leaf_vector":"1"}},{"base_weights":[-4.0291273E-3,6.8151915E-1,-9.203309E-2,-8.0132896E-1,8.240717E-1,4.8973033E-1,-1.7820767E-1,9.0339595E-1,-1.0565659E-1,8.971276E-1,-1.1785465E-1,1.021136E0,-7.3269814E-1,-7.653179E-2,-8.5421455E-1,4.2214315E-2,9.5078215E-2,9.3374975E-2,-1.1953896E-1,1.23173E-1,-9.8807774E-2,-1.2013737E-1,3.394161E-2,7.309054E-3,-5.862829E-2,5.1104736E-2,-1.1460171E-1],"categories":[],"categories_nodes":[],"categories_segments":[],"categories_sizes":[],"default_left":[0,0,0,0,0,0,0,0,0,0,0,0,0,0,0,0,0,0,0,0,0,0,0,0,0,0,0],"id":47,"left_children":[1,3,5,7,9,11,13,15,-1,17,-1,19,21,23,25,-1,-1,-1,-1,-1,-1,-1,-1,-1,-1,-1,-1],"loss_changes":[9.396369E2,3.7520575E2,6.920657E2,6.8790405E1,2.3762451E2,1.1577251E3,8.263011E2,7.393074E-2,0E0,1.2071045E2,0E0,5.266631E2,2.7186066E2,7.972158E2,6.267626E2,0E0,0E0,0E0,0E0,0E0,0E0,0E0,0E0,0E0,0E0,0E0,0E0],"parents":[2147483647,0,0,1,1,2,2,3,3,4,4,5,5,6,6,7,7,9,9,11,11,12,12,13,13,14,14],"right_children":[2,4,6,8,10,12,14,16,-1,18,-1,20,22,24,26,-1,-1,-1,-1,-1,-1,-1,-1,-1,-1,-1,-1],"split_conditions":[-1.5825396E0,6.69325E-1,-1.5005354E0,-3.6156354E0,1.0125302E0,-3.9421874E-1,1.5111428E-1,-2.288321E0,-1.0565659E-1,2.0150704E0,-1.1785465E-1,1.997562E-1,1.1560961E0,2.7736297E-1,-3.0537157E0,4.2214315E-2,9.5078215E-2,9.3374975E-2,-1.1953896E-1,1.23173E-1,-9.8807774E-2,-1.2013737E-1,3.394161E-2,7.309054E-3,-5.862829E-2,5.1104736E-2,-1.1460171E-1],"split_indices":[7,4,13,14,12,1,27,5,0,3,0,8,18,14,3,0,0,0,0,0,0,0,0,0,0,0,0],"split_type":[0,0,0,0,0,0,0,0,0,0,0,0,0,0,0,0,0,0,0,0,0,0,0,0,0,0,0],"sum_hessian":[1.5572664E4,1.7708728E3,1.3801791E4,1.5490564E2,1.6159672E3,1.7800454E3,1.2021746E4,1.9841957E1,1.3506369E2,1.5596238E3,5.634335E1,1.2408126E3,5.392329E2,1.0450965E4,1.5707806E3,2.6667788E0,1.7175179E1,1.5333419E3,2.6281958E1,1.1234465E3,1.1736607E2,3.751258E2,1.6410712E2,8.080137E3,2.3708281E3,2.7647598E2,1.2943047E3],"tree_param":{"num_deleted":"0","num_feature":"30","num_nodes":"27","size_leaf_vector":"1"}},{"base_weights":[-4.06556E-3,8.5107857E-1,-6.762045E-2,9.744403E-1,-1.1365491E-1,-5.277905E-1,3.6408372E-2,-3.3415562E-1,1.0712876E0,2.4285845E-1,-1.0520389E0,-6.633583E-2,7.91694E-1,8.756019E-2,-1.1248695E-1,9.380222E-2,1.7883329E-1,6.276459E-2,-1.18146375E-1,8.535683E-2,-1.0903273E-1,-5.8962114E-2,1.1566562E-2,-1.184273E-1,9.727227E-2],"categories":[],"categories_nodes":[],"categories_segments":[],"categories_sizes":[],"default_left":[0,0,0,0,0,0,0,0,0,0,0,0,0,0,0,0,0,0,0,0,0,0,0,0,0],"id":48,"left_children":[1,3,5,7,-1,9,11,13,15,17,19,21,23,-1,-1,-1,-1,-1,-1,-1,-1,-1,-1,-1,-1],"loss_changes":[8.2721985E2,2.5928845E2,6.7823676E2,1.26072815E2,0E0,1.0556697E3,8.968344E2,6.71002E1,8.660217E1,5.808291E2,1.1437988E2,9.689702E2,4.96174E2,0E0,0E0,0E0,0E0,0E0,0E0,0E0,0E0,0E0,0E0,0E0,0E0],"parents":[2147483647,0,0,1,1,2,2,3,3,5,5,6,6,7,7,8,8,9,9,10,10,11,11,12,12],"right_children":[2,4,6,8,-1,10,12,14,16,18,20,22,24,-1,-1,-1,-1,-1,-1,-1,-1,-1,-1,-1,-1],"split_conditions":[-2.150176E0,5.660535E-1,-6.323047E-1,8.9254093E-1,-1.1365491E-1,-2.996797E-1,2.68E2,-2.6868982E0,5.5362684E-1,-8.215705E-2,-1.6137081E0,-2.540109E-2,-5.365403E-2,8.756019E-2,-1.1248695E-1,9.380222E-2,1.7883329E-1,6.276459E-2,-1.18146375E-1,8.535683E-2,-1.0903273E-1,-5.8962114E-2,1.1566562E-2,-1.184273E-1,9.727227E-2],"split_indices":[16,17,5,4,0,8,29,10,17,13,17,28,18,0,0,0,0,0,0,0,0,0,0,0,0],"split_type":[0,0,0,0,0,0,0,0,0,0,0,0,0,0,0,0,0,0,0,0,0,0,0,0,0],"sum_hessian":[1.5218574E4,1.051952E3,1.4166622E4,9.909581E2,6.099388E1,2.6113367E3,1.1555286E4,6.811687E1,9.2284125E2,1.0574355E3,1.5539011E3,1.0172409E4,1.3828768E3,2.6881695E1,4.123517E1,7.8015485E2,1.4268643E2,8.329653E2,2.2447023E2,3.0187313E1,1.5237139E3,2.6244438E3,7.5479653E3,1.1559464E2,1.2672822E3],"tree_param":{"num_deleted":"0","num_feature":"30","num_nodes":"25","size_leaf_vector":"1"}},{"base_weights":[-4.145242E-3,8.2831186E-1,-6.564661E-2,9.387958E-1,-1.863457E-1,1.1275989E-3,-8.397315E-1,9.483117E-1,-1.6240664E-1,-1.3774894E0,4.8488948E-1,-1.1949031E0,4.3583553E-2,5.5776533E-2,-1.3189265E0,9.53197E-2,-7.519185E-2,-2.512096E-1,-1.2529728E-1,7.197175E-2,-5.9636027E-1,-1.6023274E-1,-1.1137873E-1,5.272934E-2,-7.473559E-3,8.597918E-2,-1.2453222E-1,7.641201E-2,-1.4093605E-1],"categories":[],"categories_nodes":[],"categories_segments":[],"categories_sizes":[],"default_left":[0,0,0,0,0,0,0,0,0,0,0,0,0,0,0,0,0,0,0,0,0,0,0,0,0,0,0,0,0],"id":49,"left_children":[1,3,5,7,9,11,13,15,-1,17,19,21,23,25,27,-1,-1,-1,-1,-1,-1,-1,-1,-1,-1,-1,-1,-1,-1],"loss_changes":[7.6083954E2,1.1478772E2,7.152977E2,2.4029541E1,8.1603516E1,6.4700006E2,4.716551E2,8.35321E0,0E0,2.0436249E0,1.03452484E2,1.2650574E1,7.042676E2,4.028054E2,1.3593933E2,0E0,0E0,0E0,0E0,0E0,0E0,0E0,0E0,0E0,0E0,0E0,0E0,0E0,0E0],"parents":[2147483647,0,0,1,1,2,2,3,3,4,4,5,5,6,6,7,7,9,9,10,10,11,11,12,12,13,13,14,14],"right_children":[2,4,6,8,10,12,14,16,-1,18,20,22,24,26,28,-1,-1,-1,-1,-1,-1,-1,-1,-1,-1,-1,-1,-1,-1],"split_conditions":[-3.6156354E0,6.572287E-1,1.3906277E0,1.9360064E0,3.5906222E0,-1.0209606E0,-9.5663875E-1,5.767415E-1,-1.6240664E-1,-1.363662E0,1.8975968E0,-1.5412886E0,-4.3211153E-1,-1.051626E0,-1.6137081E0,9.53197E-2,-7.519185E-2,-2.512096E-1,-1.2529728E-1,7.197175E-2,-5.9636027E-1,-1.6023274E-1,-1.1137873E-1,5.272934E-2,-7.473559E-3,